Latvians Latvians 1.0000000
introduces itaanzisha 0.2500000
growing yanayokua 0.4000000
growing kuongezeka 0.0526316
growing zikikua 0.3333333
growing kubwa 0.0077071
growing unaoonyesha 0.2500000
growing tabaka 0.0555556
growing kuhamasishwa 0.1428571
growing vimepata 0.2000000
growing wanakua 0.2500000
growing nilipokua 0.2500000
growing unaokua 0.3000000
growing kinachoongezeka 0.5000000
growing lao 0.0370370
growing kutokua 0.2500000
growing inakua 0.2727273
growing yanakua 0.4000000
growing kukiwa 0.4000000
growing zinaongezeka 0.1428571
growing ukikua 1.0000000
growing uliotokana 0.2000000
growing inayokua 0.6000000
growing idadi 0.0114943
growing linalokua 0.6666667
growing msimu 0.0312500
resigning kujiuzulu 0.1666667
Republics za 0.0003698
promised zimeahidi 0.2500000
promised waliahidi 0.5000000
promised kusaidia 0.0059524
promised iliahidi 0.5555556
promised umeahidiwa 0.3333333
promised vile 0.0036496
promised walioshinda 0.5000000
promised aliahidi 0.3333333
promised zilipoahidi 0.2000000
promised ameahidi 0.4444444
promised walivyoahidi 0.5000000
promised iliahidiwa 0.3333333
grass-roots nyasi 0.2500000
grass-roots mizizi 0.0833333
Jobs cha 0.0008354
Jobs Steve 0.6666667
Southeast atatuma 0.2500000
Southeast Kusini 0.0303030
under-served waliotumikiwa 1.0000000
mechanically imewekwa 0.0714286
mechanically utaratibu 0.0188679
bureaucrats wasio 0.0526316
bureaucrats huajiri 0.1250000
bureaucrats na 0.0002582
bureaucrats wakurugenzi 0.2000000
attractions vyovyote 0.1666667
attractions vivutio 1.0000000
attractions vya 0.0011013
Stern Stern 0.6666667
Stern inavyoonyesha 0.1666667
watchdogs walinzi 0.2000000
GEF GEF 1.0000000
swindler mjuzi 1.0000000
dies hufa 0.1428571
includes ni 0.0028958
includes inajumuisha 0.1764706
includes yasiyo 0.1666667
includes pamoja 0.0133779
includes kinajumuisha 1.0000000
care anajali 1.0000000
care sana 0.0019048
care tunayojali 0.5000000
care unajali 0.3333333
care hawajali 0.2000000
care utunzaji 0.3333333
care tunawajali 0.1666667
care hutunza 0.3333333
care mtoto 0.0454545
care huduma 0.0853659
care anachojali 0.3333333
care kujali 0.0833333
care kuwafikia 0.2500000
adopting na 0.0001291
adopting kupitisha 0.1395349
adopting unakubali 1.0000000
adopting kukubali 0.0181818
chaos wazi 0.0051282
chaos machafuko 0.1458333
invaded ilivamia 0.5000000
invaded kuvamiwa 0.2500000
la la 0.0009935
la NULL 0.0000811
criticisms kukosoa 0.0909091
criticisms ukosoaji 0.1250000
Freemasons Freemason 0.5000000
deflate kuharibika 0.3333333
deflate yangeweza 0.1000000
wary kuogopa 0.0555556
wary kutazama 0.0434783
wary kukwama 0.0769231
wary kuhusu 0.0128205
wary itawasababisha 0.2500000
wary kueleweka 0.2500000
wary NULL 0.0000811
wary msukosuko 0.2000000
speaks maana 0.0114943
speaks kinazungumza 0.3333333
speaks huongea 1.0000000
speaks inazungumza 0.2500000
speaks juu 0.0013210
German Ujerumani 0.2295082
German hupamba 0.3333333
German Mjerumani 0.5000000
German NULL 0.0000811
German Kijerumani 0.7500000
German Wajerumani 0.2272727
command amri 0.2000000
command iliyojumuishwa 0.1111111
accidental kwetu 0.1111111
adoption mapokezi 0.3333333
adoption kupitisha 0.0232558
adoption kupitishwa 0.4666667
adoption kwake 0.0181818
nuclear nyuklia. 0.2500000
nuclear ushambuliaji 0.5000000
nuclear nyuklia 0.9257143
pluralism umoja 0.0092593
ex-policymakers wanamkosoa 0.3333333
sponsorship udhamini 0.2500000
infectors infectors 1.0000000
proved ilithibitisha 0.5000000
proved vilionyesha 0.5000000
proved alithibitisha 0.5000000
proved ambayo 0.0013387
proved imeonekana 0.1666667
proved kudhibitishwa 0.2000000
proved yamedhibitisha 0.3333333
originators waanzilishi 0.5000000
cannot hakiwezi 0.4000000
cannot hawezi 0.7500000
cannot anayeweza 0.0454545
cannot kuendeleza 0.0625000
cannot hawawezi 0.3448276
cannot havitaweza 0.2500000
cannot hatuwezi 0.2954545
cannot siwezi 0.2500000
cannot hayawezi 0.3750000
cannot haziwezi 0.2258065
cannot huwezi 0.5000000
cannot hangeweza 0.3333333
cannot hauwezi 0.5000000
cannot haiwezi 0.5131579
cannot anaweza 0.0370370
alliances ushirikiano 0.0517241
alliances uadilifu 0.0769231
Fed NULL 0.0001622
Fed Fed 0.7333333
! ! 0.1086957
gradually hatua 0.0314961
gradually inayoongezeka 0.2000000
gradually polepole 0.2580645
gradually kuvamiwa 0.2500000
gradually ilivyoibuka 1.0000000
gradually pole 0.1428571
gradually imeshatolewa 0.2000000
gradually zinazoibuka 0.1250000
compounds inachanganya 0.2500000
clearing haitafanya 0.0909091
clearing kusafisha 0.0714286
clearing misitu 0.1250000
barricaded Bolshevik 0.5000000
digging pembezoni 0.1666667
digging wakichimba 1.0000000
digging kuchimba 0.2500000
definitely umerudi 0.1666667
definitely tena 0.0040161
failure haitafaulu 0.3333333
failure kushindwa 0.2093023
failure kutokuwepo 0.1250000
failure NULL 0.0000811
failure kukosa 0.1875000
failure mbaya 0.0036496
failure kutofaulu 0.5882353
failure itafanikiwa 0.0769231
failure kwake 0.0363636
respondents watano 0.3333333
respondents aliyetangaza 0.5000000
apart kuwatenga 0.1666667
apart kando 0.0344828
apart kutengana 0.0769231
apart mbali 0.0156250
innocence hatia 0.0800000
innocence kumepotea 0.2500000
darkening giza 0.1111111
curriculum Vya 0.3333333
curriculum Barabara 0.2500000
consumerism uliojaa 0.2500000
consumerism ununuzi 0.1250000
consumerism ulaji 0.2000000
maintenance matengenezo 0.5000000
maintenance ya 0.0000861
co ushirikiano 0.0172414
co kushirikiana 0.0285714
500-member washiriki 0.0416667
fix kurekebisha 0.0357143
fix ambayo 0.0013387
fix cha 0.0008354
fix yatafanya 0.3333333
fix unairekebisha 0.3333333
fix NULL 0.0000811
fix kibadilisho 0.5000000
fix marekebisho 0.0144928
anti-technology anti-science 0.5000000
Ceausescus Ceausescus 1.0000000
Ceausescus show 0.5000000
Solidarity Solidarity 1.0000000
Solidarity Ushirikiano 0.0454545
post-1945 mivutano 0.2000000
basket kesi 0.0161290
cease-fire kwa 0.0001657
cease-fire kuteketea 0.3333333
able NULL 0.0001622
able anayeweza 0.0454545
able uwezo 0.0491803
able kinaweza 0.0416667
able hataweza 0.2000000
able aliweza 0.1428571
able uweze 0.2000000
able utaweza 0.2000000
able waliweza 0.2000000
able wataweza 0.3000000
able tuliweza 0.3333333
able iliweza 0.4000000
able ziliweza 0.2000000
able kuizalisha 0.2000000
able linaweza 0.0344828
able zitaweza 0.1428571
able wanaweza 0.0070423
able anaweza 0.0185185
able ingeweza 0.0416667
able haiwezi 0.0131579
able tukiwa 0.5000000
able kuweza 0.2857143
victors washindi 0.1666667
retaking akirudisha 1.0000000
cities miji 0.4642857
cities NULL 0.0000811
cities mikubwa 0.3076923
cities mingine 0.1111111
doubted hakutilia 1.0000000
doubted shaka 0.0188679
protocol itifaki 1.0000000
agonizing maumivu 0.1428571
agonizing wanaugua 0.5000000
gracefully neema 0.1250000
gracefully kustaafu 0.1666667
gracefully kwa 0.0001657
turned kugeuzwa 0.2222222
turned amegeuza 1.0000000
turned iliacha 0.2000000
turned wamerudia 0.2000000
turned niligeuza 0.2500000
turned wamegeuka 0.5000000
turned iligeukia 0.5000000
turned iliibuka 0.1111111
turned zilifumba 1.0000000
turned imezimwa 0.5000000
turned hajageuka 0.3333333
turned walishindana 0.1666667
turned itawekwa 0.2500000
turned limegeuka 0.3333333
Atlantic Atlantic 1.0000000
Atlantic Atlantiki 0.7777778
Black Nyeusi 0.6666667
Black ya 0.0000861
lucrative inaleta 0.0909091
lucrative faida 0.0065789
constraining zikikandamiza 0.5000000
becoming wanakuwa 0.1428571
becoming ikizidiwa 0.3333333
becoming unazidi 0.0588235
becoming inazidi 0.0500000
becoming kuwa 0.0106470
becoming wanazidi 0.1538462
becoming NULL 0.0000811
becoming mkamilifu 0.5000000
becoming yanazidi 0.1666667
becoming kuhusika 0.0666667
becoming inadhoofika 0.2500000
becoming inakuwa 0.1000000
becoming Backup 0.5000000
Tiananmen Tiananmen 1.0000000
second-largest duniani 0.0121951
second-largest ukubwa 0.0312500
second-largest pili 0.0099010
second-largest mtoaji 0.3333333
bolsters bolsters 1.0000000
bolsters kinakuza 1.0000000
preliminary awali 0.0338983
preliminary ya 0.0002582
preliminary masomo 0.0333333
managed busara 0.0178571
managed iliweza 0.2000000
managed kwa 0.0001657
managed walifanikiwa 0.5000000
managed kufanikiwa 0.0217391
managed inadhibitiwa 0.2000000
managed iliyosimamiwa 1.0000000
managed kujadiliana 0.1111111
managed lilifanikiwa 0.3333333
managed ilifanikiwa 0.1666667
pulled hutolewa 0.1250000
pulled kuirudisha 0.0909091
nation-state la 0.0014903
nation-state nchi 0.0037927
nation-state jadi-taifa 0.3333333
nation-state kudhibitiwa 0.2500000
nation-state serikali 0.0047923
nation-state Jimbo 0.1176471
nation-state taifa-jimbo 0.5000000
nation-state kitaifa 0.0272109
nation-state taifa 0.0487805
disagreements maafikiano 0.3333333
soaring Pamoja 0.3333333
soaring kuongezeka 0.0105263
soaring inaongezeka 0.0833333
soaring unaokua 0.1000000
soaring kwa 0.0001657
repairs urekebishaji 0.0454545
repairs ukarabati 0.3333333
repairs hayatatimiza 0.2500000
salad la 0.0004968
salad Bakuli 1.0000000
dumping uwanja 0.0294118
host mwenyeji 0.6666667
host jeshi 0.0112360
host nyingi 0.0036900
host Mfalme 0.0666667
host wanayopokea 0.5000000
estimate tunakadiria 0.5000000
estimate ukadiriaji 0.3333333
estimate Ninakadiria 0.5000000
estimate makisio 0.3333333
consisting kinachojumuisha 0.5000000
old-fashioned inasikika 0.1111111
old-fashioned zamani 0.0167598
old-fashioned njia 0.0020877
plutonium-reprocessing upungufu 0.0111111
plutonium-reprocessing wa 0.0002385
plutonium-reprocessing plutonium 0.3333333
www.23andme.com www.23andme.com 1.0000000
goodness nzuri 0.0063694
goodness hupewa 0.2500000
Jones Jones 1.0000000
excessive kuzidi 0.0526316
excessive lao 0.0370370
excessive husababisha 0.0370370
excessive kupindukia 0.1250000
excessive kiasi 0.0204082
excessive kujizuia 0.1250000
excessive mkubwa 0.0040650
excessive mabaya 0.0222222
excessive nyingi 0.0036900
excessive itakabiliwa 0.1250000
excessive sana 0.0019048
excessive kuongezeka 0.0052632
excessive wenye 0.0062112
excessive uliokithiri 0.2000000
contention ubishani 0.3333333
nyet Nyet 0.3333333
regulating katika 0.0004840
principles za 0.0025888
principles kanuni 0.2151899
aware ninajua 0.3333333
aware najua 0.1666667
aware wafahamu 1.0000000
aware anafahamu 0.5000000
aware anajua 0.0588235
proselytize feminism 0.5000000
Riyadh Riyadh 1.0000000
Riyadh yalitikisa 0.3333333
creation kuunda 0.0272109
creation kuundwa 0.4000000
creation kuumbwa 0.6666667
creation uumbaji 0.5000000
creation uundaji 0.4838710
fans mashabiki 1.0000000
adds unaongeza 0.1666667
voting kura 0.0675676
voting upigaji 0.1666667
voting inayopiga 1.0000000
voting kusumbua 0.3333333
voting kupiga 0.1666667
voting la 0.0004968
withered zimetoweka 0.5000000
Israelis Waisraeli 0.6071429
Israelis Israeli 0.0077519
Israelis Israel 0.6000000
stunted daima 0.1250000
stunted kushonwa 0.1250000
underpinning inayoongoza 0.0833333
straightforward kwa 0.0004971
straightforward moja 0.0166271
straightforward jambo 0.0114943
allay huu 0.0040650
strictly inazuia 0.3333333
strictly sana 0.0019048
strictly NULL 0.0000811
strictly madhubuti 0.0370370
strictly tu 0.0023041
consensus na 0.0001291
consensus makubaliano 0.2325581
consensus yanaibuka 0.2500000
consensus yamefikiwa 0.2500000
consensus hayo 0.0128205
undeniable haya 0.0068493
undeniable kuepukika 0.0714286
undeniable na 0.0001291
undeniable haliwezekani 0.1428571
undeniable yasiyoweza 0.1666667
scratch mwanzo 0.0250000
scratch tunatoa 0.2000000
scratch vyetu 0.3333333
scratch vichwa 0.1000000
volition haikosei 0.2500000
49 49 1.0000000
usually NULL 0.0000811
usually huongozwa 0.2500000
usually kawaida 0.0801527
usually hueleweka 0.1250000
usually hufafanuliwa 0.1428571
nationalism utaifa 0.5454545
nepotism ubaguzi 0.0454545
rebirth tena 0.0080321
rebirth kuzaliwa 0.2941176
rebirth upya 0.0566038
miracles miujiza 0.3333333
miracles cha 0.0008354
miracles kizazi 0.0303030
3115 3115 1.0000000
SARS SARS 1.0000000
SARS uligusa 0.5000000
summer jua 0.0243902
summer msimu 0.3437500
summer joto 0.0873016
summer majira 0.6363636
1 1 0.8750000
WWII WWII 0.4615385
WWII NULL 0.0000811
School School 1.0000000
School NULL 0.0000811
School Shule 1.0000000
School Party 0.5000000
decisively hiari 0.0322581
decisively kwa 0.0008285
decisively hatua 0.0118110
decisively uamuzi 0.0175439
decisively uadilifu 0.0769231
decisively imefanya 0.0769231
decisively lilichangia 0.5000000
Shortage upungufu 0.0111111
mount mlima 0.3333333
copies za 0.0003698
copies nakala 0.0769231
stepping kuongeza 0.0064103
differing yamegusana 0.2500000
differing tofauti 0.0052356
insofar inavyozunguka 0.2500000
discovering kinachofanya 0.2500000
discovering kugundua 0.2000000
Achieve kufikia 0.0083333
subsistence wadogo 0.0500000
subsistence walio 0.0322581
subsistence kwao 0.0138889
subsistence kujikimu 1.0000000
linchpin usalama 0.0062893
linchpin kuwa 0.0008190
linchpin kigongo 1.0000000
plentiful nyingi 0.0036900
retrograde kurudiwa 0.1428571
retrograde kurudi 0.0081967
retrograde nyuma 0.0108696
sights vyake 0.0384615
sights barani 0.0322581
sights vitisho 0.0588235
sights mtazamo 0.0208333
Abramovich Sibneft 0.5000000
Abramovich Kirumi 0.5000000
NATO NATO 0.9552239
NATO NATO- 0.5000000
thoughtlessly anashangaa 0.3333333
thoughtlessly kwanini 0.0312500
thoughtlessly ni 0.0004826
shut funga 0.2000000
shut NULL 0.0000811
shut kuifunga 0.2857143
shut kitafungwa 0.2000000
obligations majukumu 0.1578947
obligations uzee 0.5000000
obligations ya 0.0000861
obligations kutoruhusu 0.3333333
obligations wa 0.0001193
tanks mizinga 0.6666667
tanks mingine 0.0555556
forcefully nguvu 0.0023474
forcefully hushughulika 0.1250000
Treaty Nuklia 0.2500000
Treaty Mkataba 0.4259259
Treaty Silaha 0.1666667
Treaty Mikakati 0.5000000
Treaty INF 0.3333333
Treaty wa 0.0020274
persuasive kubuni 0.0769231
persuasive kutusaidia 0.1111111
SYDNEY SYDNEY 1.0000000
shop duka 0.2000000
shop la 0.0024839
consent idhini 0.3333333
Scots Scot 0.5000000
Scots Scots 0.5000000
extremes kuiendeleza 0.2500000
extremes hali 0.0021368
frictions mafarakano 0.5000000
frictions inazalisha 0.1428571
Reykjavik Reykjavik 1.0000000
hide wafichike 1.0000000
hide yanajificha 0.1666667
hide kuficha 0.2000000
hide kujificha 0.3333333
hide kiburi 0.0769231
byIMF yaIMF 1.0000000
byIMF kwa 0.0001657
labs maabara 0.2000000
paralysis kupooza 0.6666667
paralysis kwa 0.0003314
paralysis NULL 0.0000811
newest wapya 0.0400000
newest mpya 0.0034722
Avatar Avatar 1.0000000
hapless isiyo 0.0142857
hapless na 0.0002582
countrymen kuiba 0.2500000
countrymen nchi 0.0012642
bold ujasiri 0.1842105
destabilizer yanaanguka 0.1666667
destabilizer moja 0.0023753
childhood utoto 0.5000000
childhood utotoni 1.0000000
misled yaliyopotosha 0.5000000
misled watu 0.0022321
sub-Saharan la 0.0029806
sub-Saharan mwa 0.0260417
sub-Saharan Jangwa 0.8333333
sub-Saharan Kusini 0.0757576
sub-Saharan Sahara 0.6666667
inflated ipunguzwe 0.3333333
inflated iliyosababishwa 0.2500000
inflated kipunguzo 0.3333333
inflated zilizopandishwa 0.5000000
humbling inasikitisha 0.1666667
1929 1929 1.0000000
glaringly zinaonekana 0.0285714
finished umekamilika 0.1666667
finished iliyomalizika 1.0000000
finished ya 0.0000861
finished imemaliza 0.3333333
solid ya 0.0000861
solid dhabiti 0.0769231
solid madhubuti 0.0740741
solid kubwa 0.0019268
solid ngumu 0.0074074
solid hivyo 0.0020492
solid thabiti 0.1250000
proceed kuendelea 0.0416667
month mwezi 0.7105263
month mmoja 0.0092166
month Mwezi 0.3333333
month NULL 0.0000811
2008-2009 mnamo 0.0027855
2008-2009 2008-2009 0.6000000
corporate wa 0.0008348
corporate kampuni 0.1153846
corporate ufuatiliaji 0.1666667
corporate ushirika 0.1929825
corporate isiyopuuzwa 0.1666667
corporate shirika 0.1000000
corporate ulihudumia 0.3333333
corporate mashirika 0.0161290
resemble kufanana 0.0909091
Immunizations chanjo 0.0588235
recurrent hati 0.0555556
recurrent kawaida 0.0038168
Behind Ilivyorudi 0.3333333
Behind Ulimwenguni 0.0476190
scarcely hawatambui 0.1666667
scarcely chache 0.0178571
completion kukamilisha 0.1428571
completion ” 0.1111111
completion kukamilika 0.1428571
furious wenye 0.0062112
furious ingekasirika 0.3333333
inducement msukumo 0.0909091
El El 0.7500000
El Paso 0.1111111
guidance mwongozo 0.2307692
monopoly ukiritimba 0.1250000
Kennedy Kennedy 0.6363636
Kennedy inasema 0.0909091
identity cha 0.0100251
identity kitambulisho 0.6363636
identity NULL 0.0000811
identity utambulisho 0.3333333
identity kilichopotea 0.5000000
gender jinsia 0.2857143
gender hakuhakikisha 0.2500000
gender kijinsia 0.2500000
But Waafrika 0.1250000
But lakini 0.0019102
But Lakini 1.0000000
Dissenting ya 0.0000861
constructive mzuri 0.0109890
constructive kujenga 0.0555556
constructive yenye 0.0086207
yuan Yuan 0.6000000
may Inaweza 0.5000000
may unaweza 0.2196970
may Nyet 0.3333333
may anayo 0.3333333
may kunaweza 0.1739130
may ubatili 0.2500000
may sana 0.0019048
may niweze 0.2500000
may NULL 0.0004865
may amesaidia 0.3333333
may Straits 0.3333333
may kinaweza 0.2500000
may hakiwezi 0.2000000
may kufuzu 0.3333333
may kisha 0.0555556
may anaweza 0.1666667
may haiwezi 0.0394737
may kuhitaji 0.0588235
may alielewa 0.1428571
may haziwezi 0.0322581
may kuondoa-chembechembe 0.1250000
may yanaweza 0.1290323
may inaweza 0.1871795
may kinachoweza 0.1538462
may unavyoweza 0.2000000
may zinaweza 0.1666667
may Hague 0.1000000
may wanaweza 0.1338028
may iliyokukatisha 0.1428571
may vinaweza 0.2307692
enriched kutajirika 1.0000000
enriched utajiri 0.0370370
enriched za 0.0003698
enriched ulio 0.0526316
supermarkets makubwa 0.0449438
supermarkets maduka 0.5000000
Sopuissant Sopuissant 0.5000000
reluctant wanasita 0.3333333
reluctant tamaa 0.0303030
reluctant waliokata 0.5000000
reluctant inasita 0.3333333
reluctant wakikataa 1.0000000
reluctant itasita 0.2000000
reluctant wangekasirika 0.2500000
reluctant haitegemei 0.1000000
facilitates unawezesha 0.5000000
action kitendo 0.2380952
action hatua 0.2322835
action kuchukua 0.0088496
action NULL 0.0000811
action anafanya 0.0909091
Empire Dola 0.3333333
useful zimethibitisha 0.1666667
useful zinafaa 0.0833333
useful apewe 0.5000000
useful istilahi 0.1428571
useful muhimu 0.0283019
useful msaada 0.0126582
useful sana 0.0019048
useful ukumbusho 0.1666667
useful NULL 0.0001622
overseers waangalizi 0.2000000
punished waadhibiwe 0.2500000
punished kuadhibiwa 0.3333333
low-carbon kupelekwa 0.0555556
low-carbon chini 0.0029326
low-carbon chini-kaboni 0.5000000
low-carbon kaboni 0.1549296
Rupert Rupert 1.0000000
regime NULL 0.0000811
regime yalipoibuka 0.3333333
regime iliyokufa 0.1666667
regime Milosevic 0.1666667
regime iliamua 0.2000000
regime Mobutu 0.2000000
regime isiyodumu 0.2000000
regime kuelea 0.5000000
regime kidini 0.0400000
regime ataamua 0.3333333
regime ukarimu 0.1250000
regime iwatumie 0.2500000
regime serikali 0.0734824
regime mpangilio 0.0476190
regime alikasuliwa 0.1666667
regime ilikataa 0.0769231
regime Kuchma 0.0476190
regime Stalin 0.0909091
long-lasting na 0.0001291
long-lasting kudumu 0.0400000
long-lasting nzuri 0.0063694
long-lasting muda 0.0028329
threaten ambavyo 0.0178571
threaten kutishia 0.3636364
threaten yanatishia 0.5000000
threaten vinatishia 1.0000000
Asia-Europe Asia-Ulaya 0.5000000
Beirut Beirut 1.0000000
inalienable kutengwa 0.0227273
inalienable zisizoweza 1.0000000
men walibaki 0.2500000
men hao 0.1538462
men walitokea 0.3333333
men waliamua 0.2500000
men Wanaume 1.0000000
men ambao 0.0024814
men wanaume 0.8571429
men umri 0.0454545
men NULL 0.0000811
men walirudi 0.2000000
men wazee 0.0909091
men walishiriki 0.2500000
men walishambulia 0.5000000
IAEA IAEA 1.0000000
jets ndege 0.0357143
pick wowote 0.0200000
pick atakayeichukua 0.2500000
pick kuchukua 0.0221239
pick ulioundwa 0.1666667
configuration usanidi 0.2500000
professor huyo 0.0526316
professor wa 0.0001193
professor anayetembelea 0.5000000
professor Harvard 0.2000000
professor profesa 0.5384615
flies nzi 0.4000000
story inayoangaza 0.3333333
story hadithi 0.2372881
expressing hayo 0.0128205
expressing wakionyesha 1.0000000
perhaps labda 0.5258621
perhaps inazua 0.1666667
responds inajibu 1.0000000
responds unajibu 1.0000000
activities za 0.0036982
activities shughuli 0.3571429
activities zitawekwa 0.1428571
activities zinagusa 0.1666667
irritants makosa 0.0384615
Action kilichobuniwa 0.3333333
logical mantiki 0.0952381
logical kinachofaa 0.3333333
slumps inaporomoka 0.5000000
co-financing ufadhili 0.0500000
co-financing kufadhili 0.0277778
co-financing wamejitolea 0.0769231
generosity ukarimu 0.1250000
Retired wastaafu 1.0000000
amortization malipo 0.0338983
amortization wakitoa 0.3333333
uniting kuunganisha 0.1428571
bracing zinajifunga 0.3333333
functions kazi 0.0117302
functions kugharamia 0.2000000
functions inafanya 0.0222222
functions NULL 0.0000811
functions gani 0.0196078
functions kugawanywa 0.1111111
Kuwait Kuwait 1.0000000
buildings majengo 1.0000000
Utopia Utopia 1.0000000
undiminished haujafutwa 1.0000000
paternalism paternalism 1.0000000
paternalism hakutaka 0.2000000
fact-finding litajadili 0.3333333
nightmarish usiku 0.1250000
nightmarish kukomesha 0.0303030
plausibly inawezekana 0.0285714
hobbled imezuiliwa 0.1428571
employee mfanyakazi 0.5000000
51 51 1.0000000
private-sector kufutwa 0.1111111
private-sector kibinafsi 0.0098039
private-sector sekta 0.0963855
private-sector kuwezesha 0.0476190
private-sector binafsi 0.0877193
private-sector hali 0.0021368
private-sector itawafanya 0.3333333
private-sector ufutaji 0.5000000
accepts atakubali 0.3333333
accepts anayakubali 0.5000000
accepts anakubali 0.5000000
Partners Washirika 0.3333333
lenders wakopeshaji 0.6666667
lenders wapeanaji 0.5000000
post-independence Uhuru 0.2000000
forge yazua 0.5000000
forge inapaswa 0.0064516
forge kuunda 0.0272109
Columbia mwanasaikolojia 1.0000000
approvingly kukubali 0.0181818
approvingly kwa 0.0001657
Nature Mama 0.5000000
Nature amecheza 0.5000000
gripping vu 0.5000000
gripping sana 0.0019048
boosting kukuza 0.0150376
boosting kuongeza 0.0448718
boosting ifikapo 0.0555556
boosting kinapaswa 0.1428571
Hispanic-Americans Wahindi-Wamarekani 1.0000000
investments ufadhili 0.0500000
investments usiozaa 0.1666667
investments uwekezaji 0.2155172
disappeared limepotea 0.3333333
disappeared zilitoweka 1.0000000
performed walifanya 0.0526316
performed Galiana 0.2500000
performed NULL 0.0000811
performed vizuri 0.0121951
performed umefanya 0.1666667
performed ulikuwa 0.0161290
performed zimefanya 0.3333333
collaboration kushirikiana 0.0285714
collaboration uliosambazwa 0.3333333
investigations uchunguzi 0.0789474
investigations uliochochewa 0.3333333
distance umbali 0.4285714
distance alikimbilia 0.3333333
distance mbali 0.0078125
distance kujiondoa 0.0476190
devote kutoa 0.0041667
entire zote 0.0059524
entire hawakutengwa 0.1666667
entire lote 0.2857143
entire yametawala 0.2000000
entire wote 0.0105263
entire mzima 0.2307692
entire utaathiri 0.5000000
entire yanazidi 0.1666667
entire NULL 0.0002432
entire nzima 0.4210526
entire itachambua 0.2500000
entire zima 0.3333333
entire ilipewa 0.1666667
entire yote 0.0251256
cruise 4.3 0.2500000
cruise kusafiri 0.0769231
kick atakata 0.5000000
kick yataingia 0.5000000
best-known hewa 0.0078125
best-known zaidi 0.0008326
best-known unaojulikana 0.1428571
cases zinazoshukiwa 0.5000000
cases visa 0.2222222
cases vyote 0.0400000
cases hali 0.0149573
cases viwili 0.0476190
cases hivyo 0.0020492
cases vya 0.0011013
incursions maingilio 0.5000000
Year Mwaka 0.2500000
contracted makubaliano 0.0077519
contracted linabeba 0.5000000
contracted ulipata 0.2500000
contracted mkataba 0.0714286
contracted walifanya 0.0526316
kerosene taa 0.0666667
brand brand 0.3333333
brand maalum 0.0285714
loyalties uaminifu 0.0243902
price inainuliwa 0.3333333
price yasiyosafishwa 0.5000000
price inayotozwa 0.5000000
price bei 0.2977778
enthralled hushonwa 0.2000000
enthralled watu 0.0022321
deriving ikipata 0.2000000
Second Sex 0.2500000
Second vya 0.0033040
Second Pili 1.0000000
Second Vita 0.0092593
Anwar Anwar 1.0000000
cross kuvuka 0.2500000
hire kuajiri 0.2000000
hire ineajiri 1.0000000
hire huajiri 0.2500000
church kanisa 0.6666667
church lake 0.0185185
warning linatuambia 0.3333333
warning onyo 0.7500000
warning kuonya 0.2500000
warning akionya 1.0000000
warning ambalo 0.0125000
Hijazis Hijazis 0.6666667
Hijazis Wahuijis 1.0000000
Hijazis huuliza 0.3333333
Hijazis aliyeelimishwa 0.5000000
José José 1.0000000
pool kushughulikia 0.0256410
pool kuiweka 0.0500000
pool kuwajumuisha 0.3333333
pool waingie 0.5000000
pool dimbwi 0.1666667
folded ifungwe 0.3333333
hypothyroidism hypothyroidism 1.0000000
paradigm dhana 0.0909091
paradigm ya 0.0002582
paradigm paradigm 0.5000000
paradigm paradig 0.5000000
neoliberal vya 0.0011013
neoliberal kutumia 0.0072993
neoliberal neoliberal 0.5000000
neoliberal viwango 0.0055556
rock nyota 0.0909091
rock za 0.0003698
rock yatatikisa 0.5000000
rock sana 0.0019048
rock yameanguka 0.1666667
Brazilian Brazil 0.0555556
Brazilian makocha 0.3333333
Brazilian kikosi 0.3333333
seven-year miaka 0.0025253
mind-set Bolshevik 0.5000000
object ingepinga 0.5000000
object jambo 0.0114943
uncertainty hakika 0.0400000
uncertainty kutokuwa 0.2153846
uncertainty uhakika 0.3437500
uncertainty wowote 0.0200000
uncertainty na 0.0020658
slums duni 0.0540541
slums makazi 0.0444444
words maneno 0.6750000
words NULL 0.0000811
strategy mkakati 0.5921053
strategy wa 0.0001193
tailored asili 0.0138889
tailored iliyoundwa 0.0555556
she anahubiri 0.5000000
she aliendelea 0.1000000
she ana 0.0454545
she alipoishi 0.3333333
she ameshikilia. 0.1666667
she alijua 0.1250000
she ameongeza 0.5000000
she Aliiambia 0.3333333
she akauchomoa 0.2500000
she alisema 0.0400000
she aligundua 0.2500000
she anafanya 0.0909091
she yeye 0.0833333
she anaendelea 0.1666667
she alianza 0.2500000
she aliwaambia 0.2000000
she anapendelea 0.1250000
she alizaliwa 0.1250000
she anatafuta 0.2857143
she Ameanzisha 0.3333333
she alilonifundisha 0.3333333
she aliomba 0.3333333
she amezindua 0.1250000
she ndivyo 0.0192308
she kitu 0.0107527
she aliyosema 0.5000000
she anaonekana 0.0434783
she angegundua 0.2500000
Discussion CEPR 1.0000000
Protectionism Kushuka 0.1111111
Act Nambari 0.5000000
Act Sheria 0.2941176
Act ya 0.0001721
Act Mickey 0.2500000
Act Sherman 0.2500000
post-utopian agizo 0.0588235
post-utopian baada 0.0091743
post-utopian utopian 0.5000000
vice-versa kinyume 0.0357143
vice-versa chake 0.0161290
preview hakiki 0.2000000
mosquito-resistant vyandarua 0.5000000
mosquito-resistant sugu 0.1666667
photo akaweka 0.5000000
photo picha 0.0322581
oilman Texas 0.1428571
generated senti 0.2000000
generated inazalisha 0.1428571
generated haujatolewa 0.5000000
generated kinatokana 0.2500000
generated iliyotolewa 0.1428571
generated inayofadhiliwa 0.2500000
generated zitatolewa 0.3333333
preeminence umoja 0.0092593
enforce kutekeleza 0.0500000
therefore hiyo 0.0087912
therefore NULL 0.0000811
therefore kwa 0.0043082
therefore hivyo 0.0450820
therefore kukopesha 0.0384615
therefore maelewano 0.0400000
therefore wachukue 0.1250000
therefore ipatikane 0.2000000
therefore inataka 0.0500000
insurgents waporaji 0.5000000
insurgents kijeshi 0.0123457
insurgents wapingaji 1.0000000
insurgents waasi 0.0833333
crippling na 0.0001291
crippling mdogo 0.0107527
4 4 1.0000000
Theodore Theodore 1.0000000
mercury zebaki 0.6666667
mercury sumu 0.0769231
reshape upya 0.0188679
reshape ubunifu 0.0312500
reshape kuunda 0.0068027
agribusiness NULL 0.0001622
connection uhusiano 0.0250000
connection watayatenda 1.0000000
connection kuhusiana 0.2500000
problem shida 0.1824645
problem kujidhibiti 0.3333333
problem usuluhishi 0.2000000
problem tatizo 0.3000000
problem itatumbuliwa 0.2000000
problem la 0.0029806
problem NULL 0.0001622
problem kutilia 0.2500000
problem hiyo 0.0153846
deeply Wakisikitishwa 0.3333333
deeply iliyoingia 0.3333333
deeply lina 0.0833333
deeply undani 0.1428571
deeply kuthibitisha 0.2000000
deeply NULL 0.0003243
deeply kupendwa 0.2500000
deeply sana 0.0228571
deeply ujingaji 0.3333333
deeply wamesikitishwa 0.2500000
deeply yaliyofikiriwa 0.5000000
deeply wamejikita 0.2000000
deeply unatambuliwa 0.2000000
deeply walidhoofisha 0.5000000
deeply akijua 0.5000000
deeply zimejaa 0.1666667
deeply waliohusika 0.1428571
deeply amesikitishwa 0.2500000
60th maadhimisho 0.2000000
60th kumbukumbu 0.0333333
60th 60 0.1428571
cemented yaliyosababisha 0.5000000
doctors wako 0.0222222
doctors madaktari 1.0000000
multi-trillion trilioni 0.0416667
multi-trillion nyingi 0.0036900
stream mkondo 0.3333333
stream NULL 0.0000811
terror ugaidi 0.1052632
terror kigaidi 0.0416667
quagmire quagmire 0.5000000
continue wanaendelea 0.3846154
continue kuendelea 0.2361111
continue itaendelea 0.3076923
continue yanaendelea 0.1111111
continue wataendelea 0.5000000
continue yataendelea 0.5000000
continue haikuendelea 0.1111111
continue tuendelee 1.0000000
continue ziendelee 1.0000000
continue zinaendelea 0.2857143
continue tunaendelea 0.3333333
continue kutaendelea 0.2500000
continue zitaendelea 0.5000000
continue utaendelea 0.3333333
continue NULL 0.0000811
continue tutaendelea 0.3750000
continue ingeendelea 0.5000000
continue endelea 0.5000000
personalities itashinda 0.3333333
personalities haiba 0.2500000
protesters waandamanaji 0.5000000
conception la 0.0004968
conception lililokuzwa 0.5000000
conception pana 0.0555556
conception hii 0.0019841
conception dhana 0.0454545
conception wazo 0.0101010
conception inaimarisha 0.1250000
revolt ambayo 0.0013387
revolt ndio 0.0064935
revolt yataasi 0.5000000
Medina Madina 1.0000000
tough yanapaswa 0.0416667
tough watashinikiza 0.2500000
tough wanazungumza 0.0833333
tough magumu 0.1923077
tough ulifanywa 0.2000000
tough nikiongea 0.5000000
tough bidii 0.0588235
tough kali 0.0200000
tough majadiliano 0.0555556
tough ngumu 0.0074074
tough mgumu 0.1250000
inflict ingeweza 0.0416667
inflict kuleta 0.0114943
wheeling magurudumu 1.0000000
discouraging kukatisha 0.1111111
discouraging itairudisha 0.2000000
free-fall kunaweza 0.0144928
free-fall mwanzoni 0.0294118
free-fall bure 0.0188679
free-fall kuanguka 0.0126582
free-fall kuonekana 0.0270270
grimmer mbaya 0.0036496
superstate kupumzika 0.1666667
superstate wanaweza 0.0070423
superstate ushirikina 0.2500000
impose matakwa 0.1250000
impose kuweka 0.0057803
impose kunalazimisha 0.5000000
impose kulazimisha 0.1590909
impose italazimisha 0.2500000
impose ingeweka 0.1428571
impose ungelazimisha 0.3333333
sovereign utajiri 0.0185185
sovereign chaguo-msingi 0.2000000
sovereign NULL 0.0002432
sovereign zinazoendelea 0.0285714
sovereign huru 0.1428571
harshly vibaya 0.0217391
harshly anakemea 0.3333333
recapitulates inashughulikia 0.3333333
cap-and-trade na 0.0002582
cap-and-trade biashara 0.0208333
mundane kawaida 0.0038168
unrecorded hivyo 0.0020492
unrecorded havipatikani 0.3333333
articles makala 1.0000000
articles nakala 0.3846154
anti-malarial kupunguza 0.0057471
anti-malarial dawa 0.0357143
established utakapoanzishwa 0.5000000
established kuanzishwa 0.0833333
established ilianzisha 0.5000000
established wa 0.0001193
established lililowekwa 0.5000000
established iliyoanzishwa 0.5000000
established unaacha 0.2500000
established uliowekwa 0.1111111
established yaliyowekwa 0.2500000
established uliamua 1.0000000
established ilianzishwa 0.1250000
established NULL 0.0000811
established iliyoanzisha 0.3333333
established yaliyoanzishwa 0.5000000
established PCO 0.2500000
non-proliferation kuongezeka 0.0052632
non-proliferation uenezi 0.2500000
non-proliferation kutokuongezeka 0.2500000
non-proliferation zisizo 0.0227273
non-proliferation kwa 0.0001657
non-proliferation kuenea 0.0285714
non-proliferation isiyo 0.0285714
non-proliferation usio 0.0227273
non-proliferation kueneza 0.1000000
non-proliferation kutokua 0.2500000
non-proliferation kutokuongeza 1.0000000
fortune unaokadiriwa 0.3333333
midwife alipoona 0.5000000
midwife mkunga 1.0000000
midwife Mzalisha 0.3333333
Panglossian Panglossian 1.0000000
categorical kitabia 0.2500000
entrusted atakabidhiwa 0.3333333
twist kupeperusha 0.5000000
recorded iliyorekodiwa 1.0000000
recorded itarekodiwa 0.2500000
recorded ilirekodi 0.6666667
presumably uwezekano 0.0129870
presumably labda 0.0086207
collections ukusanyaji 0.5000000
imply inamaanisha 0.0517241
imply NULL 0.0000811
error kosa 0.0714286
error makosa 0.0384615
renminbi renminbi 1.0000000
high-tech ufundi 0.2000000
high-tech hali 0.0021368
high-tech athari 0.0063694
whitewashing kuchorea 0.2500000
debunked kuchafuliwa 0.2500000
denounce NULL 0.0000811
denounce kukemea 0.2500000
pursue kufuata 0.0666667
pursue hufuata 0.2500000
pursue kutekeleza 0.0166667
Euroskepticism Euro 0.0833333
Euroskepticism Eurlajepticism 0.3333333
Euroskepticism wa 0.0001193
manor mtu 0.0042194
sneer cha 0.0008354
sneer kishawishi 0.2500000
lest asije 0.6666667
lest zikapoteza 0.2500000
equipped vya 0.0011013
equipped vifaa 0.0243902
equipped kuwekwa 0.0454545
equipped kushughulikiwa 0.0909091
equipped huna 0.2500000
manifested hizo 0.0095238
manifested zilijidhihirisha 0.3333333
short-run zitakazopatikana 0.3333333
short-run mfupi 0.0294118
short-run muda 0.0056657
short-run nzito 0.1000000
short-run yenye 0.0086207
Zealand Zealand 1.0000000
Hejazis Wahejazis 0.3333333
cutbacks karaha 1.0000000
autos milango 0.1666667
acquire kupata 0.0108108
acquire wasipate 0.3333333
acquire ambazo 0.0038760
acquire wanaopata 1.0000000
acquire angepata 0.3333333
skirted skir 1.0000000
permafrost viboreshaji 0.2000000
Peres Peres 1.0000000
earth Dunia 0.0147059
earth duniani 0.0487805
earth ulimwengu 0.0018315
earth iliyochafuliwa 1.0000000
earth ardhini 0.1250000
earth dunia 0.0425532
earth hali 0.0021368
earth anga 0.0454545
dragon la 0.0004968
dragon kulala 0.3333333
dragon Joka 0.5000000
improvements makubwa 0.0337079
improvements maboresho 0.4545455
neighbours majirani 0.1052632
neighbours wenye 0.0062112
renewable-energy unaomilikiwa 0.3333333
renewable-energy na 0.0001291
three mitatu 0.9285714
three NULL 0.0001622
three watatu 0.8571429
three tatu 0.3698630
three vitatu 1.0000000
three matatu 0.6000000
engaged walioshiriki 0.5000000
engaged wanahusika 0.1666667
engaged walijishughulisha 0.2857143
engaged vilijihusisha 0.3333333
engaged kushiriki 0.0250000
engaged farasi 0.3333333
engaged zinazojihusisha 0.3333333
engaged tumejihusisha 0.5000000
engaged wanajishughulisha 0.2500000
engaged nguvu 0.0023474
engaged wanajihusisha 0.3333333
engaged na 0.0006456
open-ended zilizo 0.0294118
open-ended wazi 0.0051282
open-ended NULL 0.0000811
open-ended sindano 0.1250000
board bodi 0.6666667
board bweni 1.0000000
board yote 0.0050251
filibuster filibuster 1.0000000
deconstruct kubaini 0.1428571
deconstruct kuijenga 0.2500000
given uliopewa 0.3333333
given kwa 0.0029826
given hazipewi 0.2500000
given imeipa 0.5000000
given utapewa 1.0000000
given imewapa 0.5000000
given waliyopewa 1.0000000
given ametoa 0.0833333
given zingeweza 0.1000000
given ikipewa 0.2500000
given kuzingatia 0.1290323
given watapewa 0.5000000
given wakipewa 1.0000000
given kutolewa 0.0606061
given ulitolewa 0.5000000
given ruhusu 0.2500000
given ukizingatia 1.0000000
given na 0.0001291
given ukampa 0.2500000
given ikizingatiwa 0.8125000
given zimewapa 0.2500000
given kupewa 0.5000000
given alipotembelea 0.2500000
given meno 0.2000000
given umepewa 0.3333333
given hawajatoa 0.2500000
given waliopewa 0.5000000
given NULL 0.0008108
given kutokana 0.0921053
given kinachoonekana 0.0833333
given atapewa 0.2500000
given imetupa 0.2500000
given kujizuia 0.1250000
given hawapewi 0.2000000
given haipewi 0.3333333
alleviating kupunguza 0.0114943
10.2 asilimia 0.0158730
10.2 10.2 1.0000000
ephemeral mfalme 0.2000000
ephemeral kudhibitisha 0.0416667
worthless na 0.0003873
worthless isiyo 0.0428571
worthless dhamana 0.0185185
toxins sumu 0.0769231
sterile kizuizi 0.0333333
Tan Tan 1.0000000
minutes chache 0.0178571
minutes badilisha 0.5000000
minutes dakika 0.3333333
sexual kimapenzi 1.0000000
sexual ngono 0.3333333
sexual tabia 0.0158730
sexual kijinsia 0.3750000
suicide mauaji 0.0370370
suicide kujiua 0.3333333
suicide ya 0.0002582
tariffs ushuru 0.0410959
tariffs zinatoza 0.5000000
remove kumuondoa 0.6666667
remove ingeondoa 0.4000000
remove haitaondoa 0.1666667
remove kuondoa 0.0714286
entourage waaminifu 0.2500000
China NULL 0.0000811
China China 0.8000000
China Uchina 0.9318182
China Bwawa 1.0000000
situated zilizoko 1.0000000
Creutzfeldt-Jakob ng 1.0000000
Creutzfeldt-Jakob wazimu 0.1250000
Creutzfeldt-Jakob Creutzfeldt-Jakob 0.5000000
remarks NULL 0.0000811
remarks matamshi 0.5000000
remarks ufunguzi 0.0666667
remarks aliwaambia 0.2000000
Brothers Lehman 0.4000000
Brothers hakuhusiani 0.1428571
Brothers Brothers 0.3333333
28,000 28,000 1.0000000
inflation-indexed vilivyo 0.0909091
personnel wanaotumika 0.5000000
personnel lina 0.0833333
personnel wanafanya 0.0344828
personnel wafanyikazi 0.0270270
expects anatarajia 0.5000000
expects inatarajia 1.0000000
havoc hayasumbui 0.2500000
havoc hitaji 0.0188679
ISI ISI 1.0000000
debates mijadala 1.0000000
debates inavyojadili 1.0000000
debates linarekebisha 0.2000000
debates mjadala 0.0681818
so-called zinazoitwa 1.0000000
so-called kinachojulikana 0.6666667
so-called ile 0.0266667
so-called ulihitimishwa 0.2500000
so-called zinazojulikana 0.4000000
so-called utaitwa 0.2000000
so-called inayojulikana 0.3333333
so-called kama 0.0093531
so-called inayoitwa 0.2307692
so-called NULL 0.0001622
so-called zinajihusisha 0.2500000
so-called wanaoitwa 0.6666667
escape kutoroka 0.5625000
escape utaepuka 0.5000000
fish za 0.0003698
fish samaki 0.6666667
full-employment kamili 0.0123457
full-employment unalingana 0.3333333
reporting kuwashikilia 0.3333333
reporting kutoa 0.0041667
reporting kuripoti 0.5714286
reporting taarifa 0.2500000
reporting isiyopuuzwa 0.1666667
weightless hauna 0.0303030
weightless ukilinganisha 0.1111111
weightless ungekuwa 0.0476190
weightless uzito 0.0588235
swift kuongezeka 0.0052632
Afghani Afghani 1.0000000
unpleasant hali 0.0021368
no haionyeshi 0.3333333
no hazitumii 0.3333333
no haitaki 0.1111111
no nilifikiria 0.1666667
no haitapata 0.3333333
no majuto 0.3333333
no GDP 0.1428571
no hauna 0.1212121
no NULL 0.0021891
no haikuwa 0.0508475
no sio 0.0401284
no kupewa 0.0555556
no hawajapata 0.2500000
no Sikupoteza 0.3333333
no hakuonyesha 0.2500000
no haukuacha 0.2000000
no haishangazi 0.1395349
no na 0.0001291
no usifanye 0.5000000
no kuangaliwa 0.3333333
no halipo 0.5000000
no no 0.5000000
no haijalishi 0.1764706
no hakukuwa 0.2631579
no haikukabili 0.3333333
no haina 0.1000000
no tena 0.1084337
no haisaidii 0.2500000
no hayako 0.2500000
no hakuwezi 0.1428571
no hakubeba 0.3333333
no hazionekani 0.1250000
no hawaoni 0.1666667
no haileti 0.5000000
no hana 0.4166667
no haufanyi 0.1250000
no hakuchukua 0.2000000
no yaliyopanuliwa 0.3333333
no haikuhusika 0.3333333
no hatuko 0.1666667
no haifanyi 0.1052632
no kunyoa 0.5000000
no haishikilia 0.3333333
no hawawezi 0.0172414
no kuhimili 0.1111111
no hayatishii 0.3333333
no hakuna 0.5090909
no hazina 0.0277778
no hazikuwa 0.1666667
no haitatumia 0.2500000
no hazishangazi 0.2500000
no hakujali 0.2500000
no mchana 0.2500000
no hailingani 0.3333333
no mwema 0.2500000
no hakina 0.5000000
no yoyote 0.0173913
no hawakujenga 0.3333333
no kukumbatiana 0.2500000
no 2,172 0.2500000
no hawasemi 0.5000000
no hayaonekani 0.2500000
no hawana 0.0750000
no hayajatoa 0.5000000
no hazifai 0.2500000
no bila 0.0693878
no haukuwa 0.1000000
no kilikuta 0.2500000
no haijapoteza 0.2500000
no Kujisimamia 0.2500000
no hazitawala 0.2500000
no kuogofya 0.2500000
no furaha 0.1000000
no haizingatiwi 1.0000000
no zana 0.0476190
no sina 0.2307692
no kutosheleza 0.1666667
no haitaji 0.1428571
no kujadili 0.0303030
no hawakuwa 0.0555556
no hakukumbwa 0.5000000
no hapana 0.8571429
no ulio 0.0526316
no leseni 0.2500000
no yule 0.1666667
no hayakuwa 0.1538462
no haizuii 0.5000000
no hawawekeza 0.2500000
no shaka 0.0188679
overthrowing kupindua 0.1250000
uninformed ubaguzi 0.0454545
Israel-Palestine Israeli 0.0077519
bulk wingi 0.1428571
‘ samahani 0.1666667
‘ Chirac 0.0625000
‘ NULL 0.0000811
‘ &apos;s 0.0196078
‘ &apos; 0.0365854
vehemently anapinga 0.5000000
vehemently wasiokuwa 0.3333333
absorb kunyonya 0.5000000
absorb kuchukua 0.0176991
absorb kunyakua 0.2000000
amp amp 1.0000000
escaped alitoroka 0.3333333
substitute zitabidi 0.3333333
substitute mbadala 0.0217391
substitute abadilishe 0.2000000
capitals miji 0.0714286
capitals mikuu 0.5000000
timing wakati 0.0043337
pagan kipagani 0.5000000
warn juu 0.0013210
warn mzozo 0.0140845
warn kuonya 0.2500000
recapitalizing upya 0.0188679
recapitalizing za 0.0003698
recapitalizing kufadhili 0.0277778
recapitalizing tena 0.0040161
recapitalizing kupanga 0.0588235
recapitalizing kulipia 0.0454545
references marejeo 0.5000000
references NULL 0.0000811
references za 0.0003698
references ukoloni 0.0769231
references kumbukumbu 0.0333333
waging NULL 0.0000811
waging kupigana 0.0909091
waging haipigani 0.3333333
approaching unaokaribia 0.3333333
approaching Tunakaribia 0.2500000
approaching inakaribia 0.3333333
approaching unakaribia 0.2000000
approaching ukikaribia 0.5000000
approaching zinazowakaribia 1.0000000
nerves mishipa 0.5000000
translations zilizofanywa 0.2500000
translations tafsiri 0.1666667
positioned katika 0.0004840
positioned kuwekwa 0.0454545
funds zimeripotiwa 0.1428571
funds taka 0.0909091
funds pesa 0.0681818
funds za 0.0077663
funds fedha 0.1271186
funds zisizotumiwa 0.5000000
funds zingewawezesha 0.2500000
funds ua 0.2500000
funds inagharimu 0.3333333
funds ingewaacha 0.1428571
funds hizo 0.0095238
inject kuingiza 0.0909091
slippery mteremko 0.1428571
slippery kuteleza 0.1428571
watershed maji 0.0888889
watershed utaftaji 0.0370370
watershed ungefanikiwa 0.2000000
watershed machafu 0.3333333
watershed yaliyosababishwa 0.1428571
seizures kifafa 0.5000000
seizures mshtuko 0.0217391
seizures cha 0.0008354
concentrating kuiweka 0.0500000
concentrating katika 0.0004840
Duhalde ameomba 0.5000000
Duhalde Duhalde 0.6000000
Navtej Navtej 1.0000000
vehement linapinga 0.3333333
prompting kusababisha 0.0135135
companies za 0.0081361
companies ya 0.0000861
companies kampuni 0.4615385
companies makampuni 0.0833333
hard sana 0.0019048
hard NULL 0.0001622
hard magumu 0.0769231
hard walipigana 0.2500000
hard ikigonga 0.2000000
hard kumetoa 0.3333333
hard wake-wanakufa 0.5000000
hard bidii 0.0588235
hard hazikuangushwa 0.2000000
hard zinazoonyesha 0.3333333
hard mgumu 0.1875000
hard tumejitahidi 0.3333333
hard ngumu 0.1851852
worst-off kabisa 0.0065789
stampede kukwama 0.0769231
energy lishe 0.1111111
energy nguvu 0.0070423
energy iliyoonyeshwa 0.1111111
energy kupelekwa 0.0555556
energy nishati 0.8672566
energy NULL 0.0003243
energy kiroho 0.2500000
energy kuwa 0.0008190
annually mwaka 0.0161290
annually zinaelekezwa 0.1666667
annually kila 0.0125000
reserve hifadhi 0.5000000
reserve cha 0.0008354
reserve akiba 0.0769231
reserve hazitumii 0.3333333
energy-efficient balbu 0.0454545
energy-efficient ufanisi 0.0500000
energy-efficient nishati 0.0088496
energy-efficient zenye 0.0172414
energy-efficient yenye 0.0086207
eighteenth-century baroque 0.3333333
Brezhnev Brezhnev 1.0000000
hollow ganda 0.1666667
hollow lenye 0.0476190
hollow mashiko 0.3333333
suffocated wameimarisha 0.5000000
Rongi Rongi 1.0000000
stability uthabiti 0.2500000
stability utulivu 0.4891304
stability wa 0.0001193
arguments kutusaidia 0.1111111
arguments hoja 0.1304348
arguments za 0.0011095
generous ukarimu 0.3750000
generous mkarimu 0.5000000
generous wanapokea 0.2500000
generous mishahara 0.1250000
generous malipo 0.0169492
meaning maana 0.0689655
meaning ikimaanisha 0.4285714
meaning Maana 0.5000000
meaning wakimaanisha 0.5000000
meaning maanisha 1.0000000
meaning juu 0.0013210
Guo Qiang 0.5000000
Guo Cai 0.5000000
second-order pili 0.0099010
second-order la 0.0004968
second-order kuhusu 0.0128205
bear wape 0.1666667
bear wachukue 0.1250000
bear anapaswa 0.0555556
bear haina 0.0166667
bear wanabeba 0.5000000
bear tunabeba 1.0000000
bear itashuhudia 0.3333333
bear kubeba 0.2857143
bear kustahimili 0.3333333
relapse tena 0.0080321
relapse kurudi 0.0163934
States iliyogawanywa 0.2500000
States ikapata 0.5000000
States ilibadilisha 0.1250000
States NULL 0.0012972
States imehalalisha 0.2000000
States hutumia 0.0454545
States Merika 0.2213115
States inajikwaa 0.5000000
paternalist mpatanishi 0.1111111
currently vilivyoinuliwa 0.5000000
currently zinatosha 0.1666667
currently inafurahiya 0.2500000
currently inaendana 0.2500000
currently inayo 0.3333333
currently hazijasimamiwa 0.5000000
currently unaodhoofisha 0.3333333
currently wanapanda 0.5000000
currently zinazopatikana 0.1666667
currently wanapuuzwa 0.2500000
currently kwa 0.0039768
currently inateswa 0.3333333
currently sasa 0.0497018
currently hauwezekani 0.0588235
currently zinagusa 0.1666667
currently yanayotumiwa 0.5000000
currently zinazozalishwa 0.2727273
currently wanazuiliwa 0.2000000
Ugandan la 0.0009935
Ugandan Uganda 0.2727273
unplanned shida 0.0023697
unplanned zisizopangwa 0.5000000
Istanbul Istanbul 1.0000000
respite wakati 0.0010834
hesitates itasita 0.2000000
Saddam Saddam 1.0000000
purchased ujanja 0.0769231
purchased kununuliwa 0.2500000
Johnson Johnson 0.3333333
ads matangazo 0.0833333
alternative-energy mbali 0.0078125
tradition mapokeo 0.4000000
tradition tamaduni 0.0833333
tradition mila 0.1538462
tradition kiutamaduni 0.5000000
tradition utamaduni 0.1250000
butchering walipoanza 0.5000000
butchering kuwaua 0.3333333
severity ukali 0.0909091
yielding mavuno 0.0625000
yielding kutoa 0.0041667
yielding zinazoonyesha. 0.2500000
interconnection muingiliano 1.0000000
interconnection unaongezeka 0.0833333
federal serikali 0.0079872
federal mwenyekiti 0.1250000
federal kofia 0.2000000
federal shirikisho 0.7777778
ecologies muhimu 0.0031447
ecologies volkano 0.5000000
Buenos Aires 0.5000000
jeopardize kuhatarisha 0.3333333
jeopardize maisha 0.0078740
stadium ulikuwa 0.0161290
stadium Nest 0.3333333
re-lend kukopesha 0.0384615
re-lend tena 0.0040161
complaining wakilalamika 0.5000000
complaining wanalalamika 0.2000000
nationhood utaifa 0.0454545
pipeline la 0.0004968
pipeline bomba 0.4000000
guarantor brittle 0.5000000
indicators viashiria 0.5000000
indicators vikali 0.0476190
indicators vya 0.0011013
indicators vyote 0.0400000
indicators muhimu 0.0031447
profligacy ubadhirifu 1.0000000
euphoric upya 0.0188679
euphoric kuibuka 0.0322581
AIDS UKIMWI 0.9375000
AIDS na 0.0005165
AIDS Ukimwi 1.0000000
finite nacho 0.5000000
finite safi 0.0500000
implied lililodokeza 1.0000000
implied iliyoonyeshwa 0.1111111
implied unaonyeshwa 0.5000000
implied NULL 0.0000811
implied vilivyoainishwa 0.3333333
timetable ratiba 0.3333333
baseline msingi 0.0049020
baseline kimsingi 0.0232558
baseline watagundua 0.1428571
searching wanaotafuta 0.3333333
searching ukitafuta 0.5000000
searching wanatafuta 0.1333333
searching za 0.0003698
searching kutafuta 0.0250000
searching zinatafuta 0.2000000
winning tunahatarisha 0.3333333
winning nikishinda 1.0000000
winning akishinda 0.3333333
winning ikishinda 1.0000000
winning kushinda 0.0465116
unit cha 0.0025063
unit kutoa 0.0041667
unit kitengo 0.6666667
unit NULL 0.0000811
evacuated ambayo 0.0013387
and utatokeaje 0.5000000
and 1956 0.2500000
and nao 0.0833333
and NULL 0.0010540
and mimea 0.0384615
and and 0.6666667
and Mara 0.3333333
and kidete 0.3333333
and halafu 0.2608696
and na 0.6198838
and ukomo 0.3333333
and Adriatic 0.3333333
and kiburi 0.0769231
and unavyozidi 0.3333333
and hadi 0.0046729
and tulishirikiana 0.5000000
and mara 0.0059347
and ungegawanya 0.2000000
and kuongezeka 0.0052632
and kujaribu 0.0135135
and kwa 0.0006628
and imeshamiriwa 0.2500000
defend wanalinda 0.3333333
defend kutetea 0.2631579
defend kujitetea 0.2857143
defend hutetea 0.3333333
unavoidably bila 0.0040816
unavoidably zinashirikiwa 0.3333333
unavoidably shida 0.0023697
leaders viongozi 0.8534483
leaders wa 0.0001193
offensive mikataba 0.0400000
offensive ni 0.0004826
offensive kukasirisha 1.0000000
offensive Israel 0.2000000
offensive inayodhalilisha 0.5000000
offensive kukera 0.6666667
bridges madaraja 1.0000000
extremism umilele 0.1111111
extremism msimamo 0.0886076
extremism mkali 0.1489362
extremism ukikutana 0.2500000
pain uchungu 0.1000000
pain kiasi 0.0204082
pain kupita 0.0588235
pain maumivu 0.5714286
self-respect huku 0.1250000
self-respect kibinafsi 0.0098039
self-respect Kujiheshimu 0.3333333
self-respect heshima 0.0357143
self-respect inayotokana 0.0588235
Reorganizing kupanga 0.0588235
Reorganizing upya 0.0188679
Reorganizing mpangilio 0.0476190
Born Mzaliwa 1.0000000
detainees wafungwa 0.4000000
WHO wanapata 0.0555556
WHO WHO 1.0000000
errors makosa 0.0769231
overdue azimio 0.0454545
overdue kwa 0.0003314
overdue muafaka 0.3333333
reappear hujitokeza 0.5000000
Intravenous ndani 0.0052910
Intravenous dawa 0.0357143
variants anuwai 0.0909091
manner njia 0.0062630
manner ubaguzi 0.0454545
manner isiyojibika 0.2500000
ahead ikishuka 0.3333333
ahead hukimbilia 0.5000000
ahead zimepita 0.1428571
ahead uliongezeka 0.1666667
ahead ijayo 0.0930233
ahead inayokuja 0.5000000
ahead kuendelea 0.0277778
ahead kitakachotangulia 0.3333333
ahead zilionyesha 0.2000000
ahead kabla 0.0185185
ahead mbele 0.0641026
ahead yalilipia 0.1428571
complain wanalalamika 0.6000000
complain atakayelalamika 0.5000000
1947 1947 1.0000000
1947 mnamo 0.0027855
ravaged aliyechomwa 0.2500000
ravaged ziliharibu 1.0000000
ravaged eneo 0.0129870
table mezani 0.8000000
table mkate 0.2500000
table meza 0.5833333
ill-prepared hatujaandaa 0.3333333
ill-prepared vizuri 0.0121951
bygone ujasusi 0.0526316
vigour nguvu 0.0023474
reinstatement kurudishwa 0.2000000
reinstatement inayotaka 0.2500000
after milele 0.0833333
after baada 0.7614679
after kunaonekana 0.1250000
after kwa 0.0008285
after inafuatia 0.3333333
after NULL 0.0000811
after maana 0.0459770
after . 0.0001280
after utunze 0.5000000
detachment kujitenga 0.1428571
lets huwafanya 0.3333333
park kuegesha 1.0000000
park kuweka 0.0057803
Skip Skip 1.0000000
Leader Mkuu 0.0156250
harvested huvunwa 0.5000000
simmered ilisisimka 1.0000000
condoned Waliruhusu 0.5000000
motivations motisha 0.0714286
looking kutazama 0.0869565
looking wakiangalia 0.2500000
looking ukiwatazama 0.5000000
looking kuangalia 0.0606061
looking kunaonekana 0.1250000
looking ukiangalia 0.1428571
looking mbaya 0.0036496
looking anaangalia 0.2000000
looking Wafaransa 0.0833333
looking pande 0.0133333
looking wakimwangalia 0.3333333
looking NULL 0.0001622
sometimes tunasahau 0.3333333
sometimes limeanguka 0.3333333
sometimes mwingine 0.2058824
sometimes wakati 0.0292524
Abbas harakati 0.0175439
Abbas Abbas 0.6666667
contingent ngumu 0.0074074
contingent sanjari 0.1428571
1980 mnamo 0.0027855
1980 Chevy 0.2500000
1980 1980 0.5833333
1980 miaka 0.0075758
1980 &apos;s 0.0196078
composition yanahusu 0.2500000
composition muundo 0.0357143
typified inayoonyeshwa 0.5000000
narratives kukubalika 0.0909091
narratives simulizi 0.6666667
importation uingiliaji 0.0588235
importation wa 0.0002385
importation usaidizi 0.1250000
importation uuzaji 0.0666667
importation kuingilia 0.0555556
importation kati 0.0032680
prop kupendekeza 0.0769231
prop hatua 0.0039370
react kuguswa 0.5000000
react nini 0.0067568
react itafanya 0.0555556
react itaitikia 1.0000000
react wangefanya 0.0666667
Westminster Westminster 1.0000000
Kinshasa Kinshasa 1.0000000
project-based miradi 0.0434783
project-based itafungwa 0.1666667
poster sana 0.0019048
poster kuwaandikia 0.5000000
poster ngumu 0.0074074
systems uhamiaji 0.0526316
systems hii 0.0039683
systems ya 0.0029265
systems haijulikani 0.0416667
systems mifumo 0.6617647
Countries HIPCs 0.2000000
appellation Kiebrania 1.0000000
re-enactment kwamba 0.0011001
choices wa 0.0004770
choices uliosababisha 0.5000000
choices uchaguzi 0.0220588
choices NULL 0.0000811
choices chaguo 0.0937500
taught hayajafundishwa 0.3333333
taught yalitufundisha 0.5000000
taught alivyotufundisha 0.5000000
taught Tumefundishwa 0.2500000
taught alifundisha 1.0000000
taught alilonifundisha 0.3333333
falling NULL 0.0000811
falling yakipotea 0.2000000
falling iliyoanguka 0.2500000
falling unaangukia 0.2500000
falling watatoka 0.3333333
falling kurudi 0.0081967
falling kuanguka 0.0379747
falling kushiriki 0.0250000
falling yanaanguka 0.1666667
falling kuaminiwa 0.1250000
falling yanayopungua 1.0000000
falling yako 0.0588235
falling mishahara 0.1250000
falling ikianguka 1.0000000
falling inayopungua 0.5000000
falling inayoanguka 0.3333333
falling zinaanguka 0.5000000
falling kupungua 0.0172414
falling inaanguka 0.5000000
Zagreb Zagreb 0.6666667
prescription dawa 0.0357143
strive wakijitahidi 0.2500000
strive zinajitahidi 0.2000000
strive wanajitahidi 0.5000000
Kyoto Kyoto 0.8666667
euphoria makali 0.1428571
Timor inayotatiza 1.0000000
followers wafuasi 0.0909091
followers kufuata 0.0133333
followers hamu 0.0322581
groupings vikundi 0.0344828
groupings vingi 0.0476190
groupings vya 0.0011013
intractable haiwezekani 0.0161290
intractable zitatatuliwa 0.2500000
intractable yasiyoweza 0.1666667
intractable isiyowezekana 0.1250000
ordeal kufanya-au-kuvunja 0.5000000
ordeal shida 0.0023697
strengthening inayoimarisha 0.3333333
strengthening kuimarisha 0.1935484
strengthening uimarishaji 0.6666667
requires linahitaji 0.3333333
requires NULL 0.0000811
requires yanahitaji 0.2142857
requires inahitaji 0.2238806
requires unahitaji 0.2000000
requires inayohitaji 0.2000000
requires hauhitaji 0.2500000
tall kusimama 0.0555556
tall mrefu 0.0105263
Henry Henry 1.0000000
Henry alinukuu 0.5000000
West iliyoendelezwa 0.5000000
West usafiri 0.1428571
West Magharibi 0.5445545
subjects raia 0.0305344
subjects yalitishia 0.1666667
subjects masomo 0.2000000
Vice wa 0.0005963
Vice Makamu 0.4285714
Muslims &apos; 0.0121951
Muslims Waislamu 0.3888889
Muslims Waislam 0.1666667
Muslims Waisilamu 0.2500000
machinery za 0.0014793
machinery mashine 0.5454545
machinery siasa 0.0117647
seminar semina 0.6666667
Investing Uwekezaji 0.1666667
candidate wa 0.0005963
candidate NULL 0.0000811
candidate za 0.0025888
candidate mgombea 0.9230769
candidate wagombea 0.1851852
punditry ufujaji 1.0000000
punditry wa 0.0001193
punditry la 0.0004968
gaming michezo 0.0909091
Karimov amekuwa 0.0625000
Karimov Karimov 1.0000000
fatal ulileta 0.2000000
fatal kufa 0.3333333
fatal kuu 0.0069444
cognizant wamekuwa 0.0285714
cognizant wakitambua 0.5000000
girl kutunza 0.0909091
girl huyo 0.0526316
girl msichana 0.7142857
levers nchini 0.0054348
levers jiografia 0.2000000
levers wahasibu 1.0000000
levers washirika 0.0250000
mentions unataja 0.3333333
mentions kinawataja 1.0000000
fearsome milango 0.1666667
fearsome kutisha 0.0476190
EBRD EBRD 1.0000000
decisiveness uamuzi 0.0175439
lagging lagi 1.0000000
coalitions umoja 0.0185185
respecting kuheshimu 0.1818182
retaliation kulipiza 0.0909091
red waliinua 0.5000000
red nyekundu 0.8181818
red mwekundu 0.5000000
Atatürk Atatürk 1.0000000
Atatürk kilianzishwa 0.2500000
treatment matibabu 0.2857143
treatment kadiri 0.0588235
treatment mzuri 0.0109890
treatment udhalilishaji 0.1000000
strategists Wadadisi 1.0000000
strategists wa 0.0001193
mover mchekeshaji 0.3333333
acute sana 0.0019048
acute kali 0.0200000
acute zinaonyeshwa 0.2500000
acute kubwa 0.0019268
acute mkubwa 0.0040650
victorious Washirika 0.3333333
victorious waliwaahidi 0.2000000
victorious walioshinda 0.5000000
crashed kugonga 0.1666667
novels riwaya 0.0588235
KONG KONG 1.0000000
instinctively asili 0.0138889
drains huondoa 0.1428571
27 27 0.9090909
advisory ushauri 0.1481481
Response GFCRP 0.2500000
rely hutegemea 0.0500000
rely hautegemei 0.1250000
rely kutegemea 0.1276596
rely wanategemea 0.2500000
rely zinategemea 0.3333333
hailed walitangaza 0.5000000
hailed barani 0.0322581
hailed Alisherehekea 1.0000000
hailed yalipongezwa 0.5000000
misleading kupotosha 0.3333333
misleading potofu 0.5000000
law-and-order ndogo-na-agizo 0.5000000
law-and-order sheria 0.0058140
case-by-case unahitaji 0.0250000
case-by-case hakiki-kwa-kesi 0.3333333
reign kutawala 0.0312500
denotes uchukizaji 0.5000000
shenanigans shenanigans 0.5000000
shenanigans ya 0.0000861
PALO PALO 1.0000000
prompted yalichochea 0.5000000
prompted Iliyotokana 0.3333333
prompted ulimchochea 1.0000000
II II 0.6500000
II ametoa 0.0833333
II pili 0.1782178
II Kidunia 1.0000000
unassisted hawajasimamiwa 1.0000000
combatting kupambana 0.0357143
strength inayoongezeka 0.2000000
strength Jim 0.2000000
strength nguvu 0.0234742
strength waraka 0.5000000
subordinate wale 0.0074074
subordinate ndogo 0.0112360
subordinate kupeana 0.2000000
subordinate hautaweza 0.0909091
subordinate Itawadhibiti 0.3333333
subordinate kupungua 0.0172414
initiated walianzisha 0.5000000
initiated waliyoianzisha 0.5000000
initiated kuanzishwa 0.0833333
initiated alianzisha 0.1000000
Wipro Wipro 1.0000000
communist kikomunisti 0.8888889
communist iliyokufa 0.1666667
communist ukomunisti 0.2000000
communist wakomunisti 0.4000000
unreformed Wakomunisti 0.2500000
unreformed ambao 0.0024814
sprawling zilizojaa 0.2500000
hastening yaliyotabiriwa 1.0000000
hastening kuharakisha 0.0909091
hastening wamependekeza 0.2500000
embracing akikumbatia 0.5000000
embracing kukumbatia 0.2000000
1,200 1,200 1.0000000
architects wasanifu 0.1250000
lacked tumekosa 0.3333333
lacked imepoteza 0.5000000
meriting ratings 1.0000000
meriting kuunganisha 0.0714286
turnout wapiga 0.0212766
turnout kugeuka 0.0909091
turnout 47 0.5000000
turnout nyingine 0.0109890
turnout NULL 0.0000811
turnout njia 0.0020877
turnout wapigakura 0.2500000
turnout kuibuka 0.0322581
re tunapata 0.0769231
artfully zinaepukwa 0.5000000
consequence sababu 0.0043860
consequence matokeo 0.0077821
consequence kusambaza 0.1428571
Table Jedwali 1.0000000
contemplate kutafakari 0.3000000
contemplate ninatafakari 1.0000000
contemplate NULL 0.0000811
predictably lilitokeza 0.5000000
bet kuhama 0.0588235
bet sana 0.0019048
bet bet 0.7500000
cohesiveness unaotawala 1.0000000
sight kuona 0.0253165
sight NULL 0.0001622
sight ya 0.0002582
sight mara 0.0089021
ironically NULL 0.0001622
ironically kwa 0.0008285
ironically kushangaza 0.0892857
downplay kupunguza 0.0057471
careers kazi 0.0029326
unpredictability kutokua 0.2500000
unpredictability kwa 0.0003314
unpredictability kutarajia 0.0769231
Menem Menem 1.0000000
competence kwa 0.0001657
competence shirikisho 0.0740741
competence wa 0.0002385
competence uwezo 0.0163934
phrase Disraeli 1.0000000
phrase cha 0.0016708
phrase maneno 0.0250000
phrase kifungu 0.2000000
opium opiamu 0.8000000
opium opium 0.7142857
opium wataachishwa 0.1666667
opium ya 0.0001721
prescribe haitoi 0.0357143
Le Jean-Marie 0.5000000
Le Pen 0.5000000
possibilities uwezekano 0.0129870
Angelica Angelica 1.0000000
hurt wanaumia 0.5000000
hurt huumiza 1.0000000
hurt utaumiza 0.5000000
hurt zitaumiza 0.3333333
&apos; zinazowasiliana 0.5000000
&apos; NULL 0.0006486
&apos; `` 0.0909091
&apos; kitaifa 0.0068027
&apos; wakiashiria 0.3333333
&apos; turejeshe 0.5000000
&apos; &apos; 0.5731707
&apos; uliwachochea 0.2000000
&apos; Allies 0.2500000
&apos; iligonga 0.3333333
&apos; hautasimama 0.2500000
&apos; unazidisha 0.5000000
&apos; Britons 0.3333333
loses unapoteza 0.3333333
twice mbili 0.0225989
twice iliibuka 0.1111111
twice mara 0.0148368
Thatcher Thatcher 0.2500000
Thatcher alifanya 0.1250000
epithets epithe 1.0000000
recreational mbuga 1.0000000
facial usoni 0.0625000
home akiwa 0.1250000
home NULL 0.0003243
home nyumba 0.1060606
home kwa 0.0001657
home nyumbani 0.4852941
21 21 0.6666667
21 kati 0.0032680
emitter duniani 0.0121951
emitter chapa 1.0000000
specialized maalum 0.0857143
UNEP UNEP 1.0000000
partial kwa 0.0003314
partial ubadilishaji 0.0303030
partial kutangaza 0.0416667
partial waligonga 0.2500000
partial sehemu 0.0098039
warily wamekubaliana 0.2500000
warily wawili 0.0357143
warily umejiona 0.3333333
consisted ulijumuisha 0.3333333
consisted imejumuisha 0.3333333
consisted hotuba 0.0357143
dispatched walipelekwa 0.3333333
obtain NULL 0.0000811
obtain kupata 0.0162162
abrogate kuzika 1.0000000
abrogate mikataba 0.0400000
investment-grade uwekezaji 0.0086207
investment-grade kiwango 0.0114504
candidates wawili 0.0714286
candidates wagombea 0.6666667
candidates wa 0.0001193
candidates wagombeaji 1.0000000
ostentatious kupigia 0.2500000
Lankan ulikuwa 0.0161290
Lankan Lankan 0.5000000
250 250 1.0000000
wonders unashangaa 0.3333333
wonders maajabu 0.3333333
residents Paso 0.1111111
residents wakaazi 0.2222222
forcibly hubadilisha 0.2500000
forcibly kuwazuia 0.0500000
forcibly nguvu 0.0023474
forcibly wamewahamisha 0.3333333
forcibly kubadilishwa 0.0500000
unbalance kuleta 0.0114943
unbalance usio 0.0227273
unbalance kati 0.0032680
unbalance sawa 0.0064516
subjectively udhaifu 0.0588235
prisons magereza 1.0000000
corrupting Opium 0.5000000
corrupting inaharibu 1.0000000
genetically zilizobadilishwa 0.3333333
Hess Hess 0.1428571
0.05 0.05 1.0000000
Durão Durão 1.0000000
implicated waliohusika 0.1428571
implicated na 0.0001291
Celsius nyuzi 0.2000000
totaled zilifikia 0.2500000
totaled yalikuwa 0.0185185
totaled NULL 0.0000811
totaled uliogharimu 0.2500000
blunders blunders 0.2500000
blunders za 0.0007396
blunders blibers 0.5000000
proverbial mithali 0.3333333
proverbial kidokezo 0.2500000
proverbial cha 0.0008354
proverbial kipepeo 0.5000000
ur-enemy adui 0.0714286
ur-enemy karibu 0.0042735
natives wenyeji 0.5000000
limits hupunguza 0.3333333
limits mipaka 0.2923077
limits unapunguza 0.3333333
defenders watetezi 0.2000000
defenders vile 0.0036496
commons virtual 1.0000000
trapped kwenye 0.0049751
trapped waliyenaswa 0.5000000
trapped na 0.0001291
trapped wameshikwa 0.5000000
trapped wamekamatwa 0.5000000
cream cream 1.0000000
IBM IBM 0.5000000
IBM ili 0.0027701
almighty zote 0.0059524
almighty mtumiaji 0.2500000
almighty nguvu 0.0023474
afternoon Mchana 0.5000000
afternoon adhuhuri 0.3333333
extreme mkubwa 0.0040650
extreme kali 0.0200000
extreme iliyokithiri 0.5000000
extreme uliokithiri 0.4000000
extreme mbaya 0.0072993
extreme hafla 0.0769231
extreme waliokithiri 0.2500000
extreme NULL 0.0001622
extreme kubwa 0.0019268
bloodshed damu 0.0800000
bloodshed umwagaji 0.2857143
allocated kutenga 0.2500000
allocated yatalazimika 0.3333333
allocated Tuligawa 0.5000000
allocated kugawiwa 0.5000000
automatic hiki 0.0526316
automatic cha 0.0008354
automatic utulivu 0.0108696
automatic kiimarishaji 1.0000000
automatic yanaanguka 0.1666667
leaked yamevuja 0.2500000
leaked iliyovuja 0.3333333
somewhat kujikuta 0.2500000
somewhat na 0.0002582
somewhat kiasi 0.0204082
somewhat sumu 0.0769231
somewhat maoni 0.0044843
somewhat zilikatisha 0.3333333
somewhat fulani 0.0303030
somewhat mpatanishi 0.1111111
somewhat NULL 0.0000811
somewhat inaimarisha 0.1250000
allocating kugawa 0.1000000
VeriSign VeriSign 1.0000000
life zilitengwa 0.2000000
life maishani 0.3333333
life NULL 0.0001622
life uhai 0.5000000
life maisha 0.4330709
finish hawatamaliza 0.2500000
slack ushindani 0.0175439
slack dhaifu 0.0149254
slack utabaki 0.1000000
Cooperation Ushirikiano 0.0454545
Cooperation zimetaka 0.2000000
cancellation kufutwa 0.0555556
cancellation kwa 0.0001657
blockbuster hadithi-hadithi 0.5000000
exceptional kipekee 0.3157895
exceptional kawaida 0.0038168
exceptional za 0.0011095
Croats Croats 1.0000000
bombs Mabomu 0.5000000
bombs mabomu 0.1875000
bombs 150,000 0.5000000
cholera kipindupindu 1.0000000
zapped wamebuni 0.1111111
usher kutaingiza 0.3333333
usher kuleta 0.0114943
usher wakati 0.0010834
usher itaongeza 0.0476190
dietary lishe 0.1111111
democratically kidemokrasia 0.0652174
democratically waliochaguliwa 0.1666667
democratically aliyechaguliwa 0.1818182
deporting Warumi 0.1428571
public NULL 0.0000811
public umma 0.9251337
public wanaothaminiwa 1.0000000
public hadhara 0.5000000
public walionekana 0.1250000
dampening kupunguza 0.0057471
extradition extradition 1.0000000
donkey kwenye 0.0024876
donkey punda 0.2500000
reserves hifadhi 0.2500000
reserves hazina 0.0277778
reserves akiba 0.2307692
reserves ya 0.0000861
driver dereva 0.5000000
driver mkuu 0.0116279
unintended ilileta 0.1000000
ability Uwezo 1.0000000
ability uwezo 0.2049180
ability Dreamliner 0.1250000
ability kuzishughulikia 0.2500000
ability walipaji 0.1428571
sought kutafuta 0.0500000
sought ulitaka 0.5000000
sought walitafuta 1.0000000
sought waliwachana 0.3333333
sought vikitafuta 0.5000000
sought walitaka 0.2000000
sought alitaka 0.1818182
sought ametafuta 0.3333333
sought ametaka 0.5000000
subtext muktadha 0.0454545
kick-starting kuanzia-mwaka 0.5000000
recession-induced kushuka 0.0075758
worrisome kinachozidi 1.0000000
worrisome mbaya 0.0072993
wastelands ambalo 0.0125000
wastelands lililoharibiwa 1.0000000
conceive mimba 0.5000000
conceive tunachukua 0.3333333
collect kukusanya 0.1111111
collect itakusanya 0.5000000
undertakes itatoa 0.0454545
stable kuwa 0.0008190
stable imara 0.5000000
stable NULL 0.0001622
stable wa 0.0002385
stable zenye 0.0517241
stable ufafanuzi 0.1250000
stable utulivu 0.0217391
stable thabiti 0.1666667
Hungary Hungary 1.0000000
supermarket duka 0.0666667
supermarket kubwa 0.0019268
Jim Jim 0.6000000
Palestine Palestina 0.3389831
Palestine kuigawa 0.3333333
meantime sasa 0.0039761
meantime huu 0.0121951
meantime wakati 0.0043337
meantime huo 0.0027100
individualism ubinafsi 0.2500000
individualism usiojitokeza 1.0000000
individualism binafsi 0.0175439
originally zenye 0.0172414
originally iliyobuniwa 0.3333333
originally walionyatia 0.2500000
originally ilitumiwa 0.2500000
originally walipewa 0.1000000
originally awali 0.0338983
150-year miaka 0.0025253
150-year 150 0.2500000
150-year bahati 0.0140845
torpedoed haitaangushwa 0.2000000
solar-power kiwanda 0.2000000
armies kurudia 0.1111111
30-40 30 0.0344828
95,000 95,000 1.0000000
95,000 zilifutwa 0.1111111
muddle matope 0.1666667
aids misaada 0.0512821
aids inaendelea 0.0500000
misbehaves linafanya 0.5000000
misbehaves vibaya 0.0217391
crackdown kwa 0.0003314
Doctrine Mafundisho 0.5000000
Doctrine Kutawanywa 1.0000000
males wanaume 0.0476190
weed kupalilia 0.5000000
swaths za 0.0007396
swaths zilizopuuzwa 0.5000000
swaths likizo 0.1250000
French Kifaransa 0.6666667
French wafaransa 0.5000000
French Wafaransa 0.4166667
French Ufaransa 0.4095238
French mwenyeji 0.1666667
French Semiti 0.2000000
French Mfaransa 0.5000000
French kifaransa 1.0000000
dues haki 0.0105820
high-quality mazao 0.0344828
nurture kukuza 0.0075188
nurture ili 0.0027701
Matruk Matruk 1.0000000
instrumental na 0.0001291
instrumental msaada 0.0063291
clever mjanja. 1.0000000
distressing ripoti 0.0357143
distressing vinavyosumbua 1.0000000
gentle profesa 0.0769231
scapegoat scapegoat 1.0000000
scapegoat muhimu 0.0031447
bothered hawajasumbuka 0.3333333
constitutionally afanye 0.5000000
constitutionally Mfalme 0.0666667
constitutionally hayo 0.0128205
conform sheria 0.0058140
conform walilazimishwa 0.2500000
conform watafuata 0.1666667
accept kukubali 0.3272727
accept zinakubali 0.5000000
accept kuwakubali 0.5000000
accept ukubali 0.3333333
accept wangekubali 0.1666667
accept akubali 1.0000000
accept ikubali 0.2000000
accept NULL 0.0000811
whoever hautatokea 0.2000000
whoever mtu 0.0042194
whoever yeyote 0.0263158
pro-American Amerika-wa 0.3333333
directed inayoelekeza 0.5000000
directed kuelekezwa 0.2500000
directed iliyoelekezwa 0.3333333
directed vilielekeza 0.3333333
directed umeelekezwa 0.5000000
renegotiations tena 0.0040161
renegotiations upatanishi 0.1666667
polarization upatanishi 0.1666667
fielding uwanja 0.0294118
dismaying inasikitisha 0.1666667
whites wazungu 0.2000000
bridge kuvunja 0.0952381
bridge kuziba 0.5000000
bridge daraja 0.5000000
bridge ambalo 0.0125000
overdoses za 0.0003698
overdoses kulevya 0.0714286
thoughts kwamba 0.0011001
thoughts maoni 0.0044843
warrants waridi 0.5000000
warrants itasababisha 0.0666667
alarming hali 0.0021368
alarming 12 0.0909091
camp kambi 0.3333333
1956 1956 0.2500000
22 iligundua 0.5000000
22 22 1.0000000
discover vimegunduliwa 0.2500000
discover hugundua 0.3333333
restrain kuzuia 0.0143885
concerned wanajali 0.3333333
concerned alijali 0.2000000
concerned inayohusika 0.0769231
concerned vinajali 0.5000000
concerned NULL 0.0000811
concerned wanaohusika 0.4000000
concerned sana 0.0038095
concerned wasiwasi 0.0232558
concerned na 0.0003873
concerned zinajali 0.3333333
concerned haionekani 0.0588235
concerned yanavyohusika 0.5000000
concerned anayejali 0.2500000
concerned ilihusu 0.5000000
concerned zinazohusika 0.3333333
concerned unahusika 0.2500000
NGOs NGOs 1.0000000
broadcasters watangazaji 0.2500000
land-management njia 0.0020877
charity huruma 0.0625000
charity Oxfam-Kimataifa 0.5000000
charity mkuu 0.0116279
food-deficit upungufu 0.0111111
toll kibinafsi 0.0098039
toll ushuru 0.0068493
toll NULL 0.0000811
toll akiunga 0.2000000
toll barabara 0.0416667
toll zilizofadhiliwa 0.3333333
discovery ugunduzi 0.4285714
engage zinajihusisha 0.2500000
engage kujiingiza 0.6000000
engage tuishirikishe 0.5000000
engage kuhusika 0.1333333
engage Tunapojishughulisha 0.3333333
engage utahusika 0.2500000
engage na 0.0002582
engage kushirikisha 0.5000000
Oxfam-International hadi 0.0046729
Oxfam-International hisani 0.5000000
Oxfam-International Oxfam-Kimataifa 0.5000000
ties ODS 0.2000000
ties utambulisho 0.1666667
ties uhusiano 0.0750000
ties hauna 0.0303030
ties tumeunganishwa 0.1666667
ties mahusiano 0.1000000
ties na 0.0001291
expatriate wahamiaji 0.0714286
expatriate ushiriki 0.0416667
expatriate Waafghanistan 0.2000000
window NULL 0.0000811
window punguzo 0.2500000
window dirisha 1.0000000
nervous cha 0.0008354
nervous na 0.0001291
nervous neva 0.5000000
commit NULL 0.0000811
commit kuifanya 0.0270270
commit wanaotenda 1.0000000
commit haikuifanya 0.2500000
commit kujitolea 0.0500000
commit yanafanya 1.0000000
resolute wameazimia 0.5000000
weaknesses udhaifu 0.1176471
approvals idhini 0.0666667
Archie Archie 1.0000000
renunciation la 0.0004968
Article cha 0.0025063
Article Kifungu 0.5000000
Iran Iran 0.9130435
Iran Irani 0.9000000
Iran NULL 0.0000811
innovations ubunifu 0.0312500
innovations uvumbuzi 0.1481481
innovations wa 0.0001193
economic-growth ukuaji 0.0043103
Criminal Mahakama 0.0909091
Criminal Jinai 0.3333333
Criminal Korti 0.1666667
Criminal kimataifa 0.0041322
highlights haki 0.0052910
highlights inaangazia 0.1428571
write-downs uandishi 0.3333333
Eunice Eunice 1.0000000
infrastructure kila 0.0031250
infrastructure miundombinu 1.0000000
Chapter Sura 1.0000000
Corzine alipohusika 0.2500000
Corzine Corzine 0.4000000
Corzine ukiukwaji 0.0833333
melt kuyeyuka 0.1428571
melt ingeyeyuka 0.3333333
melt kuyeyusha 1.0000000
standpoint maoni 0.0134529
disenchantment kwake 0.0181818
disenchantment kufurahishwa 0.2500000
no-take yasiyopigwa 1.0000000
no-take hayatekelezwi 0.5000000
no-take yasiyokuwa 0.0833333
no-take yasiyoweza 0.1666667
no-take hayatapona 0.3333333
no-take kuchukua 0.0044248
reviled Wanadhalilishwa 0.2500000
organize kupanga 0.1764706
organize kuandaa 0.1250000
losers waliopotea 1.0000000
losers wakosefu 0.5000000
Plan Kusaidia 1.0000000
Plan wa 0.0001193
Plan Schuman 1.0000000
fairer mtu 0.0042194
fairer mzuri 0.0219780
classroom darasani 0.5000000
rejecting akikataa 0.2500000
rejecting wanakataa 0.0625000
appointees wateule 0.3333333
tighter kali 0.0200000
tighter vilivyo 0.0909091
tighter kiambatisho 0.3333333
tighter kona 0.1111111
tighter zaidi 0.0008326
tighter kadiri 0.0588235
water-treatment vifaa 0.0243902
water-treatment kutibu 0.0714286
water-treatment maji 0.0111111
apes mapapa 0.6666667
apes nyani 0.8666667
apes hai 0.0909091
entered aliingia 1.0000000
entered unaingizwa 0.3333333
entered umeanza 0.1666667
entered walipoingia 0.2500000
entered katika 0.0004840
entered kutumika 0.0344828
entered imeingia 0.2000000
appropriately ipasavyo 0.1666667
appropriately vile 0.0036496
appropriately yametiliwa 0.2000000
appropriately vikielekezwa 1.0000000
carve-up uchoraji 0.3333333
control NULL 0.0002432
control ikaletwa 0.2500000
control wanadhibiti 0.7500000
control udhibiti 0.5576923
control kuidhibiti 0.3333333
control wa 0.0001193
control kudhibiti 0.2051282
kinds aina 0.0578512
kinds gani 0.0196078
kinds kila 0.0062500
Bloc Blogi 0.5000000
Cai firework 0.5000000
Cai Guo 0.5000000
reason itaanza 0.1428571
reason sababu 0.0855263
asymmetrical kawaida 0.0038168
Majority Kiongozi 1.0000000
immigrant mhamiaji 0.3333333
immigrant wahamiaji 0.1428571
immigrant anayeishi 1.0000000
videos za 0.0003698
videos video 0.5000000
worked haifanyi 0.0526316
worked ilifanya 0.1034483
worked masaa 0.0833333
worked yaliyofanya 0.5000000
worked umefanya 0.1666667
worked tumejitahidi 0.3333333
worked kimefanya 1.0000000
worked kutekelezwa 0.0454545
worked waliofanya 0.5000000
worked kazi 0.0469208
worked Thatcher 0.2500000
worked haujafanya 0.2000000
worked hakujafanya 0.2500000
worked zilifanya 0.1666667
worked uliyotekelezwa 0.2000000
todisplace ingekuwa 0.0175439
todisplace za 0.0003698
scholar msomi 0.3333333
scholar mkuu 0.0116279
tooth-eroding concoction 1.0000000
tooth-eroding inayojaza 0.5000000
counteroffensive Saudia 0.0555556
parks burudani 1.0000000
parks za 0.0003698
Korea FTA 0.5000000
Korea Korea 1.0000000
notification arifu 1.0000000
dying iliyokufa 0.1666667
dying kufa 0.3333333
gossip wakirudishwa 0.2000000
milieu NULL 0.0000811
devotion ! 0.0054348
illiteracy kuandika 0.1333333
illiteracy kusoma 0.0384615
illiteracy kutojua 1.0000000
illiteracy ukosefu 0.0106383
offend kukosea 0.2500000
tension mvutano 0.3333333
tension huonekana 0.1250000
1860s 1860s 1.0000000
Justice Jaji 0.2727273
Justice Harakati 0.5000000
Justice haki 0.0052910
Justice Justice 1.0000000
Justice Juu 0.2500000
Justice kilikuta 0.2500000
Justice Sheria 0.1176471
fragmentation mgawanyiko 0.0263158
fragmentation kugawanyika 0.2500000
ages zina 0.0178571
corrective ya 0.0000861
corrective marekebisho 0.0289855
corrective kusahihisha 0.5000000
prosper kufanikiwa 0.0869565
teams zilikatisha 0.3333333
teams timu 0.1923077
teams za 0.0022189
generational ya 0.0000861
generational kipindi 0.0161290
Ds Ds 1.0000000
Marseilles Marseilles 1.0000000
debacle mjadala 0.0454545
debacle iliyobaki 0.0666667
debacle NULL 0.0000811
debacle sehemu 0.0049020
interwar vita 0.0039683
highly kibinafsi. 0.5000000
highly yamegawanyika 0.2500000
highly Mbwau 0.5000000
highly zinalisha 0.3333333
highly mkubwa 0.0040650
highly alianzisha 0.1000000
highly hayatabiriki 0.3333333
highly chanjo 0.0588235
highly hayatakuwa 0.2500000
highly dhima 0.1666667
highly tete 0.2000000
highly inajeshi 0.2000000
highly inaangamiza 0.1428571
highly sana 0.0247619
highly NULL 0.0004865
highly ni 0.0004826
highly inayofanikiwa 0.2500000
highly unatumika 0.3333333
highly waelimishaji 0.3333333
highly SDR 0.2000000
nuts karanga 1.0000000
Dutch Waholanzi 0.1250000
Dutch Uholanzi 0.4242424
Deutsche Deutsche 0.5000000
ecological mazingira 0.0089286
ecological kiikolojia 0.5000000
ecological uendelevu 0.1666667
allowances za 0.0003698
allowances posho 0.5000000
much-needed unaohitajika 0.0769231
much-needed sana 0.0038095
much-needed yanayohitajika 0.1428571
much-needed kituo 0.0526316
Market-stabilizing utulivu 0.0108696
Market-stabilizing kuleta 0.0114943
percent asilimia 0.0158730
Gang of 0.1111111
Gang Gang 0.5000000
uranium utajiri 0.0370370
uranium NULL 0.0000811
uranium urani 0.8750000
petitioning kumwomba 1.0000000
Orontes Orontes 1.0000000
lambast lambast 1.0000000
Hitler-Stalin ulihitimishwa 0.2500000
responsibilities jukumu 0.0091743
responsibilities yaliyokubaliwa 0.5000000
responsibilities majukumu 0.4210526
fluid ujazo 0.3333333
fluid Tunawezaje 0.2500000
ton tani 0.4285714
budgetary wa 0.0002385
budgetary bajeti 0.0506329
budgetary Bajeti 0.3333333
Fifty-four hamsini 1.0000000
G-8 Mpango 0.0384615
G-8 tangazo 0.3333333
G-8 G-8 0.7777778
tomatoes ziliongezea 0.5000000
tomatoes ya 0.0000861
tomatoes nyanya 0.7500000
patients wagonjwa 0.4545455
enjoying inafurahiya 0.2500000
enjoying wanafurahiya 0.2000000
enjoying hakuifurahia 0.2500000
enjoying hivi 0.0046948
enjoying anafurahia 0.5000000
enjoying chini 0.0029326
enjoying dhahiri 0.0227273
outlined yaliyoainishwa 1.0000000
prudently mradi 0.0370370
prudently inadhibitiwa 0.2000000
bitterly vibaya 0.0217391
bitterly iliyogawanywa 0.2500000
defects za 0.0003698
defects kasoro 0.3333333
neutralizing NULL 0.0000811
neutralizing kukosa 0.0625000
tribulations dhiki 0.1250000
blossom wa 0.0001193
blossom peach 0.5000000
insists inasisitiza 0.4000000
aping wakilalamisha 1.0000000
Liberation Ukombozi 0.5000000
upside njia 0.0020877
upside ushuru 0.0068493
upside kukabili 0.0833333
upside kugharimia 0.2500000
upside kichwa 0.1000000
marked iliyoonyeshwa 0.1111111
marked alama 0.0833333
marked ilikuwa 0.0040000
marked kulikuwa 0.0250000
marked NULL 0.0000811
marked uliashiria 0.5000000
marked iliyo 0.0285714
marked lilionyesha 0.2000000
spill huenea 0.5000000
spill kuteleza 0.1428571
spill zinamwagika 0.2500000
engender yataleta 0.5000000
provision alisema 0.0200000
provision cha 0.0025063
provision utoaji 0.3333333
provision upeanaji 0.6666667
ballot kura 0.0270270
ballot sanduku 0.3750000
ballot la 0.0014903
delicacies mazao 0.0344828
opaque isiyo 0.0142857
opaque opaque 0.5000000
Petersburg Petersburg 1.0000000
rein tena 0.0040161
rein Afadhali 0.3333333
rein kushindwa 0.0232558
rein kuongeza 0.0064103
suffered wanaoteseka 0.3333333
suffered haukulipwa 0.1428571
suffered NULL 0.0003243
suffered wameteseka 0.3333333
suffered ziliteseka 1.0000000
suffered wamepata 0.1666667
suffered imepata 0.0909091
suffered zilipata 0.2500000
debatable kujadiliwa 0.1250000
debatable inajadiliwa 0.2500000
harmony maelewano 0.1600000
spearheaded unaoongozwa 0.2000000
spearheaded inayoongozwa 0.0909091
spearheaded waliongoza 0.3333333
continued imeendelea 0.1428571
continued iliendelea 0.2500000
continued kuungwa 0.0714286
continued inayoendelea 0.2727273
continued kutokuendelea 0.5000000
continued kuendelea 0.0833333
continued wameendelea 0.5000000
continued na 0.0001291
continued inaendelea 0.0500000
continued aliendelea 0.2000000
continued kutengwa 0.0227273
continued unaoendelea 0.1176471
continued NULL 0.0001622
continued ameendelea 0.5000000
continued msaada 0.0063291
continued Tumeendelea 0.2500000
continued endelevu 0.0227273
continued uliendelea 1.0000000
isforced kulazimishwa 0.2500000
cooperative ushirika 0.0350877
cooperative vya 0.0011013
cooperative na 0.0001291
cooperative kushirikiana 0.1142857
cooperative vyama 0.0158730
criticize kukosoa 0.2727273
criticize hakuwakosoa 0.3333333
criticize wanakosoa 1.0000000
buffer bomoa 0.5000000
finds inajikuta 1.0000000
finds haina 0.0166667
finds kinapata 0.5000000
damaged kuharibiwa 0.2500000
damaged zilizoharibika 0.5000000
damaged zimeharibiwa 0.3333333
damaged vibaya 0.0434783
damaged zilizoharibiwa 0.5000000
been yamepuuzwa. 0.2500000
been zimekuwa 0.2727273
been hazijawahi 0.2500000
been tumekuwa 0.2857143
been umeandaliwa 0.2000000
been wamekuwa 0.2571429
been waliwekwa 0.2500000
been haujafikishwa 0.2500000
been imesemwa 0.3333333
been umekuwa 0.2058824
been umepewa 0.3333333
been walidhani 0.1666667
been kuteuliwa 0.1666667
been iliahidiwa 0.1666667
been zimebadilishwa 0.5000000
been imekosolewa 0.3333333
been kuandikwa 0.3333333
been zimepuuzwa 0.5000000
been imeshindwa 0.0769231
been wamepewa 0.2000000
been kumepuuzwa 0.3333333
been kuepukwa 0.1428571
been umepatikana 0.2500000
been zimeharibiwa 0.1666667
been wameungwa 0.3333333
been yamepuuzwa 0.3333333
been imebadilishwa 0.3333333
been ungekuwa 0.0476190
been haijafikiwa 0.2500000
been wamefufuliwa 0.2500000
been zimeonekana 0.3333333
been ingekuwa 0.0350877
been imewakilishwa 0.2000000
been umejikita 0.1428571
been umezingatia 0.1428571
been kungewezekana 0.2500000
been amechaguliwa 0.2500000
been zimevunjwa 0.3333333
been yakiongozwa 0.1428571
been haijawa 0.2500000
been wamesikitishwa 0.2500000
been 0.7 0.2500000
been wangetangazwa 0.2000000
been yamebadilishwa 0.3333333
been wameachwa 0.1666667
been kilichotamkwa 0.2500000
been umekataliwa 0.3333333
been zikikua 0.3333333
been vimejengwa 0.2500000
been haijawahi 0.1578947
been umehojiwa 0.2500000
been imeshachukuliwa 0.3333333
been vimeongezwa 0.3333333
been na 0.0009038
been kumepotea 0.2500000
been wameshindwa 0.1428571
been umechoshwa 0.2500000
been haijabadilishwa 0.1666667
been limekuwa 0.1666667
been kungekuwa 0.0909091
been wamehifadhiwa 0.3333333
been NULL 0.0017837
been imeelekezwa 0.3333333
been kinachoonekana 0.0833333
been limechukuliwa 0.1666667
been isingekubalika 0.1666667
been zimehamasishwa 0.3333333
been mzito 0.0909091
been haujaathiriwa 0.2000000
been imetokea 0.3333333
been unakadiriwa 0.3333333
been hayajawahi 0.1250000
been umeahidiwa 0.3333333
been mguu 0.1250000
been yamefikiwa 0.2500000
been umedhamiriwa 0.3333333
been imechorwa 0.2500000
been zimerekebishwa 0.3333333
been zimeripotiwa 0.1428571
been umechelewa 0.2500000
been Imeinuliwa 0.2000000
been zimeshikwa 0.1666667
been vimetokana 0.3333333
been kimefanywa 0.2500000
been umetumika 0.3333333
been msingi 0.0049020
been imekuwa 0.3428571
been ameshtumiwa 0.3333333
been akifanya 0.3333333
been zimeachwa 0.1666667
been imejitolea 0.1333333
been amekuwa 0.4375000
been wamepumbazwa 0.3333333
been kimekuwa 0.4166667
been limepunguzwa 0.2000000
been yametolewa 0.1428571
been isingekuwa 0.2000000
been imefanywa 0.3333333
been vimewekwa 0.2500000
been wamejitolea 0.0769231
been hakuweza 0.0833333
been yamepatikana 0.3333333
been kingefikiwa 0.2000000
been ungeweza 0.3333333
been yamekuwa 0.2857143
been umefanywa 0.2500000
been yamekwisha 0.2000000
been yakidai 0.3333333
been zimetekelezwa 0.4000000
been imeshatolewa 0.2000000
been zimewajibika 0.2000000
been kuwasilisha 0.1428571
been ilikuwa 0.0040000
been wamefanywa 0.5000000
been limekataliwa 0.2500000
been wameuawa 0.3333333
been kuwa 0.0057330
been yameandikwa 0.3333333
been ilivyodhaniwa 0.2500000
been amezuiliwa 0.2500000
been Imekuwa 0.2000000
been mpendwa 0.5000000
been imetokana 0.1666667
been kimekatwa 0.2000000
been umekadiriwa 0.2500000
been yameegemea 0.1666667
been umeendeshwa 0.2500000
been kumekuwa 0.3235294
been umeongezewa 0.3333333
been zimechaguliwa 0.2000000
been umeibuka 0.2500000
been wamerudia 0.2000000
been lingezinduliwa 0.2500000
been iliyokukatisha 0.1428571
been hakukuwa 0.0526316
been angeweza 0.0666667
been ingewezekana 0.1666667
been imeshambuliwa 0.5000000
been yamejazwa 0.3333333
been Nimekuwa 0.3333333
been wakifanya 0.2500000
been umekusanywa 0.3333333
been zimekamilika 0.3333333
been likiwa 0.5000000
been limeshindwa 0.1000000
been umechomwa 0.2500000
been iliyofanyika 0.3333333
been zimefadhiliwa 0.2500000
been umehesabiwa 0.3333333
been angekuwa 0.0625000
been zimejeruhiwa 0.3333333
been haujaenea 0.2500000
been hakijafanywa 0.3333333
been anafadhili 0.3333333
been imeshamiriwa 0.2500000
been kilivyokuwa 0.2500000
been kimefanikiwa 0.1428571
been imekiukwa 0.2500000
been haijafanikiwa 0.1666667
been yamevuja 0.2500000
been angalikuwa 0.2500000
been halijapata 0.1666667
been zimeondolewa 0.1666667
been imeonekana 0.0833333
been imefanikiwa 0.3333333
been ilivyokuwa 0.0606061
been yamefikia 0.2500000
been umekaribishwa 0.2500000
been haijapata 0.2500000
been yametokana 0.3333333
been viwili 0.0476190
been wahasiriwa 0.1111111
been limeshughulikiwa 0.2500000
been kudharauliwa 0.1428571
been wamealikwa 0.2500000
weaned kazi 0.0029326
weaned wataachishwa 0.1666667
wasps nyigu 1.0000000
need zitahitaji 0.1666667
need itahitaji 0.1944444
need hawahitaji 0.2222222
need hazihitaji 0.3333333
need haitaji 0.1428571
need hauitaji 0.0714286
need ingehitajika 0.2000000
need haziitaji 0.2500000
need wanapowahitaji 0.3333333
need tutahitaji 0.1666667
need mahitaji 0.0172414
need zinahitaji 0.4000000
need watahitaji 0.4285714
need utahitaji 0.2857143
need haimaanishi 0.0208333
need hatuitaji 0.2857143
need ninayohitaji 0.3333333
need kujengwa 0.0625000
need unahitaji 0.0750000
need kubuniwa 0.3333333
need haifai 0.0263158
need yanahitaji 0.3571429
need hitaji 0.6037736
need wanaohitaji 0.1428571
need Tunastahili 0.1428571
need NULL 0.0012162
need anahitaji 0.2500000
need ilihitaji 0.5000000
need Tunapaswa 0.5000000
need wanaihitaji 0.4000000
need tunayohitaji 0.5000000
need tunahitaji 0.5000000
need kuhitaji 0.2941176
need haiitaji 0.1666667
need la 0.0139096
need unaohitaji 0.2500000
need wanahitaji 0.4814815
need atahitaji 0.3636364
need huhitaji 0.1111111
need haja 0.6428571
menacing hatari 0.0046948
menacing kubwa 0.0019268
hang kutegemea 0.0212766
hang kunyongwa 0.5000000
compensation fidia 0.4166667
landslide maporomoko 0.2500000
landslide ardhi 0.0156250
cells seli 0.6153846
AAA-rated AAA 0.5000000
AAA-rated zilizo 0.0294118
chief NULL 0.0001622
chief kosa 0.0357143
chief mtendaji 0.0833333
chief mkuu 0.0930233
chief mchumi 0.1428571
chief kuu 0.0069444
script hati 0.0555556
McVeigh McVeigh 1.0000000
multipolar unaozidisha 0.5000000
multipolar kimataifa 0.0041322
council baraza 0.6666667
council la 0.0029806
Midwest Midwest 0.5000000
Domingo Domingo 0.5000000
temporary mfupi 0.1176471
temporary kuhimili 0.1111111
temporary L-1 0.2000000
temporary kibadilisho 0.5000000
temporary posho 0.5000000
temporary kiraka 0.2000000
temporary uchangamano 0.5000000
temporary ilitangaza 0.1666667
temporary muda 0.0283286
ushers huleta 0.1250000
Rio Rio 0.5000000
distasteful tunapotumia 0.3333333
distasteful mbaya 0.0036496
closing kufunga 0.5000000
closing kufungwa 0.1000000
closing ikifunga 0.3333333
closing kujifungia 0.3333333
Weizmann . 0.0001280
Weizmann Weizmann 1.0000000
Hemisphere Ulimwengu 0.0833333
whomever atakuwa 0.0434783
mixture mchanganyiko 0.0689655
sorts aina 0.0165289
sorts mashaka 0.0909091
sorts unavyoibuka 0.2000000
sorts inachagua 0.3333333
sorts wakati 0.0010834
sorts kuwekewa 0.1666667
sorts kila 0.0062500
Hamas Hamas 1.0000000
containing yote 0.0050251
containing iliyo 0.0571429
containing na 0.0001291
siphoned kutolewa 0.0303030
siphoned zimeripotiwa 0.1428571
Lanka Lanka 0.5000000
else--fear - 0.0009183
else--fear hofu 0.0357143
else--fear kingine 0.0526316
gives inatupa 0.5000000
gives inatoa 0.1000000
gives inawapa 0.2500000
gives inapea 0.3333333
gives kunawapa 0.5000000
expresses aonyesha 1.0000000
wearing kuvaa 0.2000000
wearing kutovaa 0.5000000
wearing amevaa 0.5000000
fringe NULL 0.0000811
Nest Nest 0.3333333
bubbles vifurushi 0.1666667
bubbles Bubble 0.0555556
bubbles vya 0.0033040
bubbles vifaa 0.0243902
bubbles vifaru 0.3333333
median yamepungua 0.0909091
endorse ombi 0.0588235
endorse alikubaliana 0.5000000
deploying ujumbe 0.0294118
deploying kazi 0.0029326
deploying unapeleka 0.3333333
deploying tunatoa 0.2000000
deploying kupeleka 0.1052632
there kuna 0.4607330
there alikuwa 0.0075188
there panapokuwa 0.2500000
there huko 0.0261780
there na 0.0006456
there hakutakuwa 0.1428571
there uwezeshaji 0.1000000
there kulikuwa 0.4250000
there Wahutu 0.2500000
there makubaliano 0.0077519
there hakuna 0.1590909
there haijawahi 0.0526316
there hakukuwa 0.3157895
there kunawezaje 0.2500000
there kunapaswa 0.1428571
there hakujawahi 0.3333333
there kunakuwa 0.3333333
there kumekuwa 0.3235294
there unavyokuwa 0.2000000
there kutakuwa 0.2500000
there wanadamu 0.0243902
there haipaswi 0.0294118
there hakuwezi 0.2857143
there pale 0.6666667
there kunaweza 0.1014493
there hawapo 0.3333333
there ilivyokuwa 0.0303030
there hapo 0.0714286
there waliokaa 0.5000000
there NULL 0.0007297
there kungekuwa 0.0909091
Reform Mageuzi 0.5000000
Reform Marekebisho 0.6000000
Reform yenye 0.0086207
evil mabaya 0.0222222
evil maovu 1.0000000
evil uovu 1.0000000
evil huo 0.0027100
firm dhabiti 0.0769231
firm madhubuti 0.0370370
firm kampuni 0.0096154
persons watu 0.0044643
persons uliyotekelezwa 0.2000000
persons kutoweka 0.0714286
rudimentary ukali 0.0909091
abode mbinguni 0.2500000
Honni Honni 1.0000000
horizon mara 0.0029674
horizon karibu 0.0042735
horizon zote 0.0059524
horizon macho 0.0357143
horizon upeo 0.4000000
impetus msukumo 0.0909091
laws sheria 0.1046512
laws za 0.0011095
incorporates inajumuisha 0.0588235
incorporates unajumuisha 0.2500000
incorporates kuingiza 0.0909091
macro kikubwa 0.0172414
macro ungethibitisha 0.2000000
macro kutumia 0.0072993
crucially jambo 0.0114943
crucially sana 0.0019048
idyll idy 1.0000000
textbook maandishi 0.0625000
textbook zikawa 0.3333333
WARSAW Warsaw 1.0000000
edgy kuanza 0.0112360
Simone Simone 1.0000000
live , 0.0000965
live zilitumika 0.3333333
live huishi 0.1666667
live wanayoishi 0.3333333
live iishi 0.5000000
live itimize 0.3333333
live tunaishi 0.5714286
live kulingana 0.0088496
live kuishi 0.2586207
live wanaishi 0.6923077
reassessed tena 0.0040161
reassessed yamepatikana 0.1666667
Pax Europa 0.2500000
Pax Pax 1.0000000
reassess tena 0.0040161
interests ya 0.0018936
interests maslahi 0.6363636
interests masilahi 0.8378378
interests NULL 0.0002432
interests Uturuki 0.0156250
interests mashauri 0.1666667
interests zako 0.2500000
tragic kutisha 0.1428571
tragic mbaya 0.0072993
tragic kilisababisha 0.2500000
tragic cha 0.0016708
contagion upungufu 0.0222222
contagion upitishaji 1.0000000
contagion usumbufu 0.0370370
undertake kazi 0.0029326
undertake sikuweza 0.3333333
undertake hufanya 0.0126582
undertake kufanya 0.0132275
undertake kuchukua 0.0044248
undertake zitahitaji 0.0833333
lay hazikuwekwa 0.5000000
lay wafanyakazi 0.1000000
lay wanapanga 0.1666667
lay kuweka 0.0173410
mitigate tunachoweza 0.1666667
mitigate ulipatikana 0.2000000
mitigate kupunguza 0.0172414
obey wanavyowatii 0.5000000
obey watawatii 0.3333333
obey baba 0.0833333
de-legitimize hujaribu 0.5000000
lending mikopo 0.0263158
lending NULL 0.0000811
lending watawala 0.0526316
lending kukopesha 0.5000000
bloc NULL 0.0000811
bloc kambi 0.1333333
weapons silaha 0.4878049
weapons za 0.0159024
forceful mchezaji 0.5000000
forceful nguvu 0.0023474
tragedies misiba 0.1000000
tragedies kuliambatana 0.2500000
Dragoslav Dragoslav 1.0000000
admits anakiri 0.5000000
1973 1973 1.0000000
psychopaths psychopaths 1.0000000
Berlin huko 0.0026178
Berlin Berlin 0.9411765
domestic za 0.0014793
domestic itashuka 0.3333333
domestic kusanyiko 0.2500000
domestic nguvu 0.0023474
domestic imehalalisha 0.2000000
domestic inakuza 0.1000000
domestic NULL 0.0002432
domestic nyumbani 0.1323529
domestic hufafanua 0.3333333
domestic wa 0.0002385
domestic ndani 0.1269841
domestic mingi 0.0476190
seriously ulichukuliwa 0.2000000
seriously uzito 0.2352941
seriously sana 0.0057143
seriously kubwa 0.0019268
seriously umakini 0.1935484
seriously NULL 0.0001622
seriously kwa 0.0014913
seriously mzito 0.0909091
seriously kimeenda 0.3333333
seriously kinawalazimisha 0.5000000
seriously aliyewahi 0.3333333
seriously kuharibiwa 0.2500000
ABM-Treaty Mkataba 0.0185185
ABM-Treaty ABM 0.5000000
marine bahari 0.0588235
marine yaliyolindwa 0.5000000
marine baharini 0.5000000
curtails inapunguza 0.1666667
borne huchukuliwa 0.1428571
borne inayopigwa 0.5000000
tipped kuongeza 0.0064103
tipped wangeweza 0.0434783
republic anachoita 0.3333333
republic jamhuri 0.2000000
unblock cha 0.0008354
unblock kufungua 0.0370370
unblock kizuizi 0.0333333
unblock mfumo 0.0042918
fundamental la 0.0004968
fundamental kabisa 0.0065789
fundamental cha 0.0008354
fundamental kimsingi 0.1162791
fundamental msingi 0.0539216
Intergovernmental Kisiasa 0.2000000
Intergovernmental Serikali 0.4000000
Intergovernmental Jopo 0.1666667
Intergovernmental Kitaifa 0.0666667
hoc utangazaji 0.1428571
intensifies unazidi 0.0588235
departed Wakaenda 0.3333333
departed hajaondoka 0.3333333
saw zilijiona 0.5000000
saw tulizoona 0.5000000
saw tulivyoona 0.1538462
saw mwanaume 0.3333333
saw waliona 0.3076923
saw Alimuona 0.5000000
saw hiyo 0.0021978
saw hawakuwahi 0.1666667
saw iliona 0.6666667
saw alipoona 0.5000000
saw NULL 0.0001622
saw aliona 0.5000000
saw elektroniki 0.3333333
invest tutawekeza 0.5000000
invest kuwekeza 0.4375000
invest hawawekeza 0.2500000
onset mwa 0.0052083
onset mwanzo 0.0750000
incomplete kamili 0.0123457
incomplete haujakamilika 0.3333333
Racism ubaguzi 0.0454545
attitudes mitazamo 0.8000000
attitudes mitizamo 0.5000000
Jean-Marie Le 0.3333333
stage hatua 0.0393701
stage uchumi 0.0017762
stage NULL 0.0001622
stage kuu 0.0069444
stage kituo 0.0526316
Reduction Silaha 0.1666667
Reduction za 0.0003698
Reduction Mikakati 0.5000000
transcend kupitisha 0.0232558
opinion maoni 0.1345291
opinion za 0.0011095
opinion upigaji 0.0833333
souls roho 0.0500000
final fainali 0.6666667
final mwisho 0.0714286
final kuliacha 0.3333333
snouts vitafunio 1.0000000
realities ukweli 0.0057471
realities hali 0.0106838
realities halisi 0.0579710
realities wanajibu 0.0909091
realities haikuonyesha 0.2000000
realities iliyoteswa 0.2500000
moments huo 0.0027100
moments Tunawezaje 0.2500000
moments wakati 0.0021668
moments vipindi 0.5000000
moments vya 0.0011013
sanity ujamaa 0.0555556
sanity hali 0.0021368
systematically utaratibu 0.0188679
systematically inapotosha 0.3333333
systematically tulilinganisha 0.5000000
systematically mifumo 0.0147059
profitability kupata 0.0054054
profitability faida 0.0328947
Alesina Alesina 1.0000000
elastic laini 0.0370370
escalate zitaongezeka 0.1666667
escalate ikiwa 0.0020619
evolutionary wanabiolojia 0.3333333
evolutionary mabadiliko 0.0079681
Zhu Zhu 1.0000000
With Je 0.2000000
With na 0.0001291
With Pamoja 0.3333333
Janus-faced Janus-wanakabiliwa 1.0000000
15-24 15-24 1.0000000
risking wanahatarisha 0.2500000
risking kuhatarisha 0.1111111
cook chakula 0.0188679
cook kupika 0.3333333
stimuli kilikuwa 0.1000000
youngest dada 0.1428571
youngest wachanga 0.0666667
youngest mdogo 0.0107527
non-tariff visivyo 0.0769231
non-tariff vizuizi 0.0263158
Islamabad Islamabad 1.0000000
adapting kukabiliana 0.0138889
adapting kuzoea 0.0769231
admit wapatao 0.1428571
admit ikubali 0.2000000
admit wanavyokubali 1.0000000
admit tukubali 1.0000000
admit kukubali 0.0181818
Zhang Zhang 0.5000000
blue-collar collar 1.0000000
blue-collar bluu 0.1666667
betray unakusaliti 1.0000000
ABM hautamaanisha 1.0000000
ABM kupotea 0.1000000
ABM ABM 0.5000000
forbid kukataza 0.5000000
introduce kuanzisha 0.0882353
introduce zinaanzisha 1.0000000
introduce Wangeanzisha 0.3333333
introduce itaanzisha 0.2500000
introduce tutaanzisha 0.3333333
task kazi 0.0234604
task jukumu 0.0275229
task haitakuwa 0.0384615
task uliyonayo 0.3333333
task Cheki 0.2000000
determining kuamua 0.0833333
effusive nzuri 0.0063694
flaws hazishangazi 0.2500000
flaws dosari 0.3750000
flaws ambazo 0.0038760
interruption kinyama 0.3333333
interruption wa 0.0001193
interruption ujira 0.5000000
disposed mzuri 0.0109890
disposed kubadilika 0.0400000
embraces inashikilia 0.1000000
embraces inajumuisha 0.1176471
M. ulimwenguni 0.0038314
M. M. 1.0000000
M. Nixon 0.5000000
M. tunaonyesha 0.2500000
unholy ushirika 0.0175439
unholy usio 0.0227273
Hamas-Hezbollah umwagikaji 1.0000000
life-support anayeshughulikia 0.3333333
listener msikilizaji 1.0000000
climbers viboreshaji 0.2000000
climbers na 0.0001291
sequestering hivi 0.0046948
recruiting dini 0.0769231
recruiting wanaounda 0.1666667
mounts huongezeka 0.1428571
mounts huongeza 0.1000000
schism mizozo 0.0666667
screaming kelele 0.2000000
screaming kupiga 0.0333333
historian mwanahistoria 0.5000000
ferocity kiasi 0.0204082
ferocity ukali 0.0909091
unsecured wasio 0.0263158
unsecured wadai 0.0625000
unsecured wasiohifadhiwa 0.5000000
disorderly itaongezeka 0.1250000
disorderly kusimamishwa 0.1666667
disorderly utulivu 0.0108696
disorderly kwa 0.0001657
disorderly kukimbilia 0.0666667
disorderly isiyo 0.0142857
disorderly NULL 0.0000811
disorderly kuvunjika 0.0714286
disorderly mbaya 0.0072993
disorderly lisilofaa 0.5000000
animal wanyama 0.0714286
animal mnyama 0.6250000
likened walilinganisha 0.5000000
nitrates nitrati 0.5000000
PCA yakisonga 0.5000000
PCA wakati 0.0010834
PCA PCA 0.6363636
Merkel Merkel 0.8181818
cherish wanathamini 0.3333333
cherish tunathamini 0.3333333
well-managed vizuri 0.0121951
well-managed inayosimamiwa 1.0000000
carnage mauaji 0.0370370
freeing jumla 0.0098039
monarchism Kupingana 0.5000000
situation itazidi 0.2222222
situation kushinda-kushinda 0.5000000
situation hiyo 0.0131868
situation hali 0.0918803
situation alizingatia 0.2500000
situation ilipungua 0.3333333
Dispute Wati 0.2500000
Ethiopian Ethiopia 0.2500000
Ethiopian la 0.0004968
attach itashikilia 0.2000000
violated NULL 0.0000811
violated kadhaa 0.0074627
violated imekiukwa 0.2500000
violated alikiuka 0.1428571
violated walikiuka 0.5000000
violated vilikiuka 1.0000000
Silicon Silicon 0.5000000
Baldwin Baldwin 0.3333333
forestalling kutuliza 0.0666667
Kurds Wakurds 1.0000000
Kurds Wakurdi 0.5714286
Kurds kujiamulia 0.5000000
qui qui 1.0000000
psychopath asiyetubu 0.5000000
psychopath akili 0.0204082
Darnton Darnton 0.5000000
Darnton unapungukiwa 0.2500000
deductive ujanja 0.0769231
deductive kujitoa 0.2500000
1945 itakayokuwa 0.2500000
1945 1945 0.8888889
settlement ukarimu 0.1250000
settlement wa 0.0001193
settlement makazi 0.0666667
settlement ya 0.0000861
settlement italeta 0.0833333
settlement NULL 0.0000811
settlement hayatafikishwa 0.1666667
settlement yaliyojadiliwa 0.3333333
settlement nchi 0.0012642
settlement kufungia 0.2000000
belt-tightening utadhoofisha 0.1666667
modification kumepuuzwa 0.3333333
modification muundo 0.0178571
claim kudai 0.2500000
claim wanaodai 0.5000000
claim madai 0.3488372
claim wanadai 0.5000000
claim zinadai 1.0000000
claim vidae 0.3333333
depreciation ya 0.0001721
depreciation malipo 0.0169492
spark kusababisha 0.0135135
Sustainable Endelevu 1.0000000
wiring waya 0.3333333
honoring kuheshimu 0.0909091
lower-price bei 0.0044444
mystique hadithi 0.0169492
pose wanatoa 0.1428571
pose matanzi 0.2000000
pose huwa 0.0256410
pose yanaleta 0.2500000
pose haionyeshi 0.3333333
pose kutaleta 0.3333333
pose huleta 0.1250000
pose watatoa 0.1428571
ideal nzuri 0.0127389
ideal ubora 0.0833333
ideal mzuri 0.0109890
ideal wasipoteze 0.2500000
ideal bora 0.0335570
ideal taifa-jimbo 0.5000000
hope Tunatumahi 0.5000000
hope Tunatumai 0.2500000
hope Natumai 0.5000000
hope matumaini 0.5882353
hope kutumaini 1.0000000
hope wanatumaini 0.5000000
hope tunatarajia 0.2000000
hope ninatumahi 0.5000000
hope wanatarajia 0.1666667
hope tutegemee 0.4000000
hope tumaini 0.7600000
hope kuwa 0.0016380
Roadmap inayoitwa 0.0769231
Roadmap njia 0.0020877
Roadmap Njia 0.3333333
transition mabadiliko 0.0438247
transition yanapoanza 0.1428571
transition ubadilishaji 0.0303030
transition mpito 0.6000000
transition tulipitia 0.2000000
transition postcommunist 0.2000000
adevolution mabadiliko 0.0039841
habeas habeas 0.5000000
habeas uhuru 0.0092593
repressive kukandamiza 0.0526316
check angalia 0.1666667
check nawe 0.2500000
check kuangalia 0.0606061
check NULL 0.0000811
check mwani 0.1000000
inept busara 0.0178571
widening unaopanuka 0.5000000
widening mapana 0.1111111
widening kupanua 0.0454545
Waco Waco 1.0000000
familiar njia 0.0020877
familiar yataonekana 0.1111111
familiar wakijua 0.5000000
familiar inajulikana 0.1666667
familiar kawaida 0.0114504
quarter-century robo 0.0434783
quarter-century karne 0.0121951
theonlyreal makusudi 0.0666667
theonlyreal la 0.0004968
overstretched akabuni 0.3333333
overstretched tena 0.0040161
repetition marudio 0.2000000
underlies inasababisha 0.1666667
destabilized lenye 0.0476190
destabilized eneo 0.0129870
destabilized utulivu 0.0108696
tap kuleta 0.0114943
tap ya 0.0000861
tap kupata 0.0054054
swell NULL 0.0000811
repelling kuachana 0.0400000
Austria Austria 0.3333333
investors wawekezaji 0.9722222
criticizes kumlaumu 1.0000000
Currency cha 0.0008354
Currency Maeneo 0.3333333
Currency Fedha 0.0357143
Melanne Melanne 1.0000000
referred Ilizungumzia 0.5000000
referred anatajwa 1.0000000
referred lilipeleka 0.5000000
referred kilirejelewa 0.5000000
referred amewahi 0.2000000
referred kusema 0.0128205
Portugal Ureno 0.8888889
decade kumi 0.0144928
decade mmoja 0.1428571
decade NULL 0.0000811
decade muongo 0.8333333
decade uliopita 0.0200000
north kaskazini 0.1851852
north mwa 0.0104167
free-trade biashara 0.0166667
