Latvians Latvians 1.0000000
itaanzisha introduces 1.0000000
yanayokua growing 0.0400000
kuongezeka growing 0.2000000
zikikua growing 0.0200000
kubwa growing 0.0800000
unaoonyesha growing 0.0200000
tabaka growing 0.0200000
kuhamasishwa growing 0.0200000
vimepata growing 0.0200000
wanakua growing 0.0200000
nilipokua growing 0.0200000
unaokua growing 0.0600000
kinachoongezeka growing 0.0200000
lao growing 0.0200000
kutokua growing 0.0200000
inakua growing 0.0600000
yanakua growing 0.0400000
kukiwa growing 0.0400000
zinaongezeka growing 0.0200000
ukikua growing 0.0200000
uliotokana growing 0.0200000
inayokua growing 0.1200000
idadi growing 0.0400000
linalokua growing 0.0400000
msimu growing 0.0200000
kujiuzulu resigning 1.0000000
za Republics 1.0000000
zimeahidi promised 0.0476190
waliahidi promised 0.0952381
kusaidia promised 0.0476190
iliahidi promised 0.2380952
umeahidiwa promised 0.0476190
vile promised 0.0476190
walioshinda promised 0.0476190
aliahidi promised 0.0476190
zilipoahidi promised 0.0476190
ameahidi promised 0.1904762
walivyoahidi promised 0.0476190
iliahidiwa promised 0.0952381
nyasi grass-roots 0.5000000
mizizi grass-roots 0.5000000
cha Jobs 0.3333333
Steve Jobs 0.6666667
atatuma Southeast 0.3333333
Kusini Southeast 0.6666667
waliotumikiwa under-served 1.0000000
imewekwa mechanically 0.5000000
utaratibu mechanically 0.5000000
wasio bureaucrats 0.3333333
huajiri bureaucrats 0.1666667
na bureaucrats 0.3333333
wakurugenzi bureaucrats 0.1666667
vyovyote attractions 0.3333333
vivutio attractions 0.3333333
vya attractions 0.3333333
Stern Stern 0.6666667
inavyoonyesha Stern 0.3333333
walinzi watchdogs 1.0000000
GEF GEF 1.0000000
mjuzi swindler 1.0000000
hufa dies 1.0000000
ni includes 0.3750000
inajumuisha includes 0.1875000
yasiyo includes 0.0625000
pamoja includes 0.2500000
kinajumuisha includes 0.1250000
anajali care 0.0434783
sana care 0.0434783
tunayojali care 0.0434783
unajali care 0.0434783
hawajali care 0.0434783
utunzaji care 0.1739130
tunawajali care 0.0434783
hutunza care 0.0434783
mtoto care 0.0434783
huduma care 0.3043478
anachojali care 0.0434783
kujali care 0.0869565
kuwafikia care 0.0434783
na adopting 0.1111111
kupitisha adopting 0.6666667
unakubali adopting 0.1111111
kukubali adopting 0.1111111
wazi chaos 0.1250000
machafuko chaos 0.8750000
ilivamia invaded 0.5000000
kuvamiwa invaded 0.5000000
la la 0.6666667
NULL la 0.3333333
kukosoa criticisms 0.3333333
ukosoaji criticisms 0.6666667
Freemason Freemasons 1.0000000
kuharibika deflate 0.5000000
yangeweza deflate 0.5000000
kuogopa wary 0.1250000
kutazama wary 0.1250000
kukwama wary 0.1250000
kuhusu wary 0.1250000
itawasababisha wary 0.1250000
kueleweka wary 0.1250000
NULL wary 0.1250000
msukosuko wary 0.1250000
maana speaks 0.2000000
kinazungumza speaks 0.2000000
huongea speaks 0.2000000
inazungumza speaks 0.2000000
juu speaks 0.2000000
Ujerumani German 0.7179487
hupamba German 0.0256410
Mjerumani German 0.0256410
NULL German 0.0256410
Kijerumani German 0.0769231
Wajerumani German 0.1282051
amri command 0.6666667
iliyojumuishwa command 0.3333333
kwetu accidental 1.0000000
mapokezi adoption 0.1000000
kupitisha adoption 0.1000000
kupitishwa adoption 0.7000000
kwake adoption 0.1000000
nyuklia. nuclear 0.0060976
ushambuliaji nuclear 0.0060976
nyuklia nuclear 0.9878049
umoja pluralism 1.0000000
wanamkosoa ex-policymakers 1.0000000
udhamini sponsorship 1.0000000
infectors infectors 1.0000000
ilithibitisha proved 0.2222222
vilionyesha proved 0.1111111
alithibitisha proved 0.1111111
ambayo proved 0.1111111
imeonekana proved 0.2222222
kudhibitishwa proved 0.1111111
yamedhibitisha proved 0.1111111
waanzilishi originators 1.0000000
hakiwezi cannot 0.0178571
hawezi cannot 0.0535714
anayeweza cannot 0.0089286
kuendeleza cannot 0.0089286
hawawezi cannot 0.1785714
havitaweza cannot 0.0089286
hatuwezi cannot 0.1160714
siwezi cannot 0.0089286
hayawezi cannot 0.0535714
haziwezi cannot 0.0625000
huwezi cannot 0.0178571
hangeweza cannot 0.0089286
hauwezi cannot 0.0892857
haiwezi cannot 0.3482143
anaweza cannot 0.0178571
ushirikiano alliances 0.7500000
uadilifu alliances 0.2500000
NULL Fed 0.1538462
Fed Fed 0.8461538
! ! 1.0000000
hatua gradually 0.3636364
inayoongezeka gradually 0.0454545
polepole gradually 0.3636364
kuvamiwa gradually 0.0454545
ilivyoibuka gradually 0.0454545
pole gradually 0.0454545
imeshatolewa gradually 0.0454545
zinazoibuka gradually 0.0454545
inachanganya compounds 1.0000000
haitafanya clearing 0.3333333
kusafisha clearing 0.3333333
misitu clearing 0.3333333
Bolshevik barricaded 1.0000000
pembezoni digging 0.3333333
wakichimba digging 0.3333333
kuchimba digging 0.3333333
umerudi definitely 0.5000000
tena definitely 0.5000000
haitafaulu failure 0.0256410
kushindwa failure 0.2307692
kutokuwepo failure 0.0256410
NULL failure 0.0256410
kukosa failure 0.0769231
mbaya failure 0.0256410
kutofaulu failure 0.5128205
itafanikiwa failure 0.0256410
kwake failure 0.0512821
watano respondents 0.5000000
aliyetangaza respondents 0.5000000
kuwatenga apart 0.2000000
kando apart 0.2000000
kutengana apart 0.2000000
mbali apart 0.4000000
hatia innocence 0.6666667
kumepotea innocence 0.3333333
giza darkening 1.0000000
Vya curriculum 0.5000000
Barabara curriculum 0.5000000
uliojaa consumerism 0.2500000
ununuzi consumerism 0.5000000
ulaji consumerism 0.2500000
matengenezo maintenance 0.5000000
ya maintenance 0.5000000
ushirikiano co 0.5000000
kushirikiana co 0.5000000
washiriki 500-member 1.0000000
kurekebisha fix 0.2222222
ambayo fix 0.1111111
cha fix 0.1111111
yatafanya fix 0.1111111
unairekebisha fix 0.1111111
NULL fix 0.1111111
kibadilisho fix 0.1111111
marekebisho fix 0.1111111
anti-science anti-technology 1.0000000
Ceausescus Ceausescus 0.5000000
show Ceausescus 0.5000000
Solidarity Solidarity 0.6666667
Ushirikiano Solidarity 0.3333333
mivutano post-1945 1.0000000
kesi basket 1.0000000
kwa cease-fire 0.5000000
kuteketea cease-fire 0.5000000
NULL able 0.0540541
anayeweza able 0.0270270
uwezo able 0.1621622
kinaweza able 0.0270270
hataweza able 0.0270270
aliweza able 0.0270270
uweze able 0.0270270
utaweza able 0.0270270
waliweza able 0.0540541
wataweza able 0.0810811
tuliweza able 0.0270270
iliweza able 0.0540541
ziliweza able 0.0270270
kuizalisha able 0.0270270
linaweza able 0.0270270
zitaweza able 0.0270270
wanaweza able 0.0270270
anaweza able 0.0270270
ingeweza able 0.0270270
haiwezi able 0.0270270
tukiwa able 0.0270270
kuweza able 0.1621622
washindi victors 1.0000000
akirudisha retaking 1.0000000
miji cities 0.6500000
NULL cities 0.0500000
mikubwa cities 0.2000000
mingine cities 0.1000000
hakutilia doubted 0.5000000
shaka doubted 0.5000000
itifaki protocol 1.0000000
maumivu agonizing 0.5000000
wanaugua agonizing 0.5000000
neema gracefully 0.3333333
kustaafu gracefully 0.3333333
kwa gracefully 0.3333333
kugeuzwa turned 0.1333333
amegeuza turned 0.0666667
iliacha turned 0.0666667
wamerudia turned 0.0666667
niligeuza turned 0.0666667
wamegeuka turned 0.0666667
iligeukia turned 0.0666667
iliibuka turned 0.0666667
zilifumba turned 0.0666667
imezimwa turned 0.0666667
hajageuka turned 0.0666667
walishindana turned 0.0666667
itawekwa turned 0.0666667
limegeuka turned 0.0666667
Atlantic Atlantic 0.5000000
Atlantiki Atlantic 0.5000000
Nyeusi Black 0.6666667
ya Black 0.3333333
inaleta lucrative 0.5000000
faida lucrative 0.5000000
zikikandamiza constraining 1.0000000
wanakuwa becoming 0.0384615
ikizidiwa becoming 0.0384615
unazidi becoming 0.0384615
inazidi becoming 0.0384615
kuwa becoming 0.5000000
wanazidi becoming 0.0769231
NULL becoming 0.0384615
mkamilifu becoming 0.0384615
yanazidi becoming 0.0384615
kuhusika becoming 0.0384615
inadhoofika becoming 0.0384615
inakuwa becoming 0.0384615
Backup becoming 0.0384615
Tiananmen Tiananmen 1.0000000
duniani second-largest 0.2500000
ukubwa second-largest 0.2500000
pili second-largest 0.2500000
mtoaji second-largest 0.2500000
bolsters bolsters 0.5000000
kinakuza bolsters 0.5000000
awali preliminary 0.3333333
ya preliminary 0.5000000
masomo preliminary 0.1666667
busara managed 0.1000000
iliweza managed 0.1000000
kwa managed 0.1000000
walifanikiwa managed 0.1000000
kufanikiwa managed 0.1000000
inadhibitiwa managed 0.1000000
iliyosimamiwa managed 0.1000000
kujadiliana managed 0.1000000
lilifanikiwa managed 0.1000000
ilifanikiwa managed 0.1000000
hutolewa pulled 0.5000000
kuirudisha pulled 0.5000000
la nation-state 0.1500000
nchi nation-state 0.1500000
jadi-taifa nation-state 0.0500000
kudhibitiwa nation-state 0.0500000
serikali nation-state 0.1500000
Jimbo nation-state 0.1000000
taifa-jimbo nation-state 0.0500000
kitaifa nation-state 0.2000000
taifa nation-state 0.1000000
maafikiano disagreements 1.0000000
Pamoja soaring 0.1666667
kuongezeka soaring 0.3333333
inaongezeka soaring 0.1666667
unaokua soaring 0.1666667
kwa soaring 0.1666667
urekebishaji repairs 0.3333333
ukarabati repairs 0.3333333
hayatatimiza repairs 0.3333333
la salad 0.5000000
Bakuli salad 0.5000000
uwanja dumping 1.0000000
mwenyeji host 0.5000000
jeshi host 0.1250000
nyingi host 0.1250000
Mfalme host 0.1250000
wanayopokea host 0.1250000
tunakadiria estimate 0.2500000
ukadiriaji estimate 0.2500000
Ninakadiria estimate 0.2500000
makisio estimate 0.2500000
kinachojumuisha consisting 1.0000000
inasikika old-fashioned 0.2000000
zamani old-fashioned 0.6000000
njia old-fashioned 0.2000000
upungufu plutonium-reprocessing 0.2500000
wa plutonium-reprocessing 0.5000000
plutonium plutonium-reprocessing 0.2500000
www.23andme.com www.23andme.com 1.0000000
nzuri goodness 0.5000000
hupewa goodness 0.5000000
Jones Jones 1.0000000
kuzidi excessive 0.0714286
lao excessive 0.0714286
husababisha excessive 0.0714286
kupindukia excessive 0.0714286
kiasi excessive 0.0714286
kujizuia excessive 0.0714286
mkubwa excessive 0.0714286
mabaya excessive 0.0714286
nyingi excessive 0.0714286
itakabiliwa excessive 0.0714286
sana excessive 0.0714286
kuongezeka excessive 0.0714286
wenye excessive 0.0714286
uliokithiri excessive 0.0714286
ubishani contention 1.0000000
Nyet nyet 1.0000000
katika regulating 1.0000000
za principles 0.2916667
kanuni principles 0.7083333
ninajua aware 0.3333333
najua aware 0.1666667
wafahamu aware 0.1666667
anafahamu aware 0.1666667
anajua aware 0.1666667
feminism proselytize 1.0000000
Riyadh Riyadh 0.7500000
yalitikisa Riyadh 0.2500000
kuunda creation 0.1538462
kuundwa creation 0.1538462
kuumbwa creation 0.0769231
uumbaji creation 0.0384615
uundaji creation 0.5769231
mashabiki fans 1.0000000
unaongeza adds 1.0000000
kura voting 0.5000000
upigaji voting 0.1000000
inayopiga voting 0.0500000
kusumbua voting 0.0500000
kupiga voting 0.2500000
la voting 0.0500000
zimetoweka withered 1.0000000
Waisraeli Israelis 0.8095238
Israeli Israelis 0.0476190
Israel Israelis 0.1428571
daima stunted 0.5000000
kushonwa stunted 0.5000000
inayoongoza underpinning 1.0000000
kwa straightforward 0.2727273
moja straightforward 0.6363636
jambo straightforward 0.0909091
huu allay 1.0000000
inazuia strictly 0.2000000
sana strictly 0.2000000
NULL strictly 0.2000000
madhubuti strictly 0.2000000
tu strictly 0.2000000
na consensus 0.0285714
makubaliano consensus 0.8571429
yanaibuka consensus 0.0571429
yamefikiwa consensus 0.0285714
hayo consensus 0.0285714
haya undeniable 0.2000000
kuepukika undeniable 0.2000000
na undeniable 0.2000000
haliwezekani undeniable 0.2000000
yasiyoweza undeniable 0.2000000
mwanzo scratch 0.2500000
tunatoa scratch 0.2500000
vyetu scratch 0.2500000
vichwa scratch 0.2500000
haikosei volition 1.0000000
49 49 1.0000000
NULL usually 0.0400000
huongozwa usually 0.0400000
kawaida usually 0.8400000
hueleweka usually 0.0400000
hufafanuliwa usually 0.0400000
utaifa nationalism 1.0000000
ubaguzi nepotism 1.0000000
tena rebirth 0.2000000
kuzaliwa rebirth 0.5000000
upya rebirth 0.3000000
miujiza miracles 0.3333333
cha miracles 0.3333333
kizazi miracles 0.3333333
3115 3115 1.0000000
SARS SARS 0.6666667
uligusa SARS 0.3333333
jua summer 0.0333333
msimu summer 0.3666667
joto summer 0.3666667
majira summer 0.2333333
1 1 1.0000000
WWII WWII 0.8571429
NULL WWII 0.1428571
School School 0.2000000
NULL School 0.2000000
Shule School 0.4000000
Party School 0.2000000
hiari decisively 0.0769231
kwa decisively 0.3846154
hatua decisively 0.2307692
uamuzi decisively 0.0769231
uadilifu decisively 0.0769231
imefanya decisively 0.0769231
lilichangia decisively 0.0769231
upungufu Shortage 1.0000000
mlima mount 1.0000000
za copies 0.5000000
nakala copies 0.5000000
kuongeza stepping 1.0000000
yamegusana differing 0.5000000
tofauti differing 0.5000000
inavyozunguka insofar 1.0000000
kinachofanya discovering 0.2000000
kugundua discovering 0.8000000
kufikia Achieve 1.0000000
wadogo subsistence 0.2000000
walio subsistence 0.2000000
kwao subsistence 0.2000000
kujikimu subsistence 0.4000000
usalama linchpin 0.3333333
kuwa linchpin 0.3333333
kigongo linchpin 0.3333333
nyingi plentiful 1.0000000
kurudiwa retrograde 0.3333333
kurudi retrograde 0.3333333
nyuma retrograde 0.3333333
vyake sights 0.2500000
barani sights 0.2500000
vitisho sights 0.2500000
mtazamo sights 0.2500000
Sibneft Abramovich 0.5000000
Kirumi Abramovich 0.5000000
NATO NATO 0.9846154
NATO- NATO 0.0153846
anashangaa thoughtlessly 0.3333333
kwanini thoughtlessly 0.3333333
ni thoughtlessly 0.3333333
funga shut 0.2000000
NULL shut 0.2000000
kuifunga shut 0.4000000
kitafungwa shut 0.2000000
majukumu obligations 0.4285714
uzee obligations 0.1428571
ya obligations 0.1428571
kutoruhusu obligations 0.1428571
wa obligations 0.1428571
mizinga tanks 0.6666667
mingine tanks 0.3333333
nguvu forcefully 0.5000000
hushughulika forcefully 0.5000000
Nuklia Treaty 0.0222222
Mkataba Treaty 0.5111111
Silaha Treaty 0.0222222
Mikakati Treaty 0.0444444
INF Treaty 0.0222222
wa Treaty 0.3777778
kubuni persuasive 0.5000000
kutusaidia persuasive 0.5000000
SYDNEY SYDNEY 1.0000000
duka shop 0.3750000
la shop 0.6250000
idhini consent 1.0000000
Scot Scots 0.5000000
Scots Scots 0.5000000
kuiendeleza extremes 0.5000000
hali extremes 0.5000000
mafarakano frictions 0.5000000
inazalisha frictions 0.5000000
Reykjavik Reykjavik 1.0000000
wafichike hide 0.2000000
yanajificha hide 0.2000000
kuficha hide 0.2000000
kujificha hide 0.2000000
kiburi hide 0.2000000
yaIMF byIMF 0.5000000
kwa byIMF 0.5000000
maabara labs 1.0000000
kupooza paralysis 0.4000000
kwa paralysis 0.4000000
NULL paralysis 0.2000000
wapya newest 0.5000000
mpya newest 0.5000000
Avatar Avatar 1.0000000
isiyo hapless 0.3333333
na hapless 0.6666667
kuiba countrymen 0.5000000
nchi countrymen 0.5000000
ujasiri bold 1.0000000
yanaanguka destabilizer 0.5000000
moja destabilizer 0.5000000
utoto childhood 0.6666667
utotoni childhood 0.3333333
yaliyopotosha misled 0.5000000
watu misled 0.5000000
la sub-Saharan 0.2222222
mwa sub-Saharan 0.1851852
Jangwa sub-Saharan 0.1851852
Kusini sub-Saharan 0.1851852
Sahara sub-Saharan 0.2222222
ipunguzwe inflated 0.2500000
iliyosababishwa inflated 0.2500000
kipunguzo inflated 0.2500000
zilizopandishwa inflated 0.2500000
inasikitisha humbling 1.0000000
1929 1929 1.0000000
zinaonekana glaringly 1.0000000
umekamilika finished 0.2500000
iliyomalizika finished 0.2500000
ya finished 0.2500000
imemaliza finished 0.2500000
ya solid 0.1000000
dhabiti solid 0.1000000
madhubuti solid 0.2000000
kubwa solid 0.1000000
ngumu solid 0.1000000
hivyo solid 0.1000000
thabiti solid 0.3000000
kuendelea proceed 1.0000000
mwezi month 0.8709677
mmoja month 0.0645161
Mwezi month 0.0322581
NULL month 0.0322581
mnamo 2008-2009 0.2500000
2008-2009 2008-2009 0.7500000
wa corporate 0.1891892
kampuni corporate 0.3243243
ufuatiliaji corporate 0.0270270
ushirika corporate 0.2972973
isiyopuuzwa corporate 0.0270270
shirika corporate 0.0810811
ulihudumia corporate 0.0270270
mashirika corporate 0.0270270
kufanana resemble 1.0000000
chanjo Immunizations 1.0000000
hati recurrent 0.5000000
kawaida recurrent 0.5000000
Ilivyorudi Behind 0.5000000
Ulimwenguni Behind 0.5000000
hawatambui scarcely 0.5000000
chache scarcely 0.5000000
kukamilisha completion 0.3333333
” completion 0.3333333
kukamilika completion 0.3333333
wenye furious 0.5000000
ingekasirika furious 0.5000000
msukumo inducement 1.0000000
El El 0.7500000
Paso El 0.2500000
mwongozo guidance 1.0000000
ukiritimba monopoly 1.0000000
Kennedy Kennedy 0.8750000
inasema Kennedy 0.1250000
cha identity 0.4000000
kitambulisho identity 0.4666667
NULL identity 0.0333333
utambulisho identity 0.0666667
kilichopotea identity 0.0333333
jinsia gender 0.4000000
hakuhakikisha gender 0.2000000
kijinsia gender 0.4000000
Waafrika But 0.2500000
lakini But 0.5000000
Lakini But 0.2500000
ya Dissenting 1.0000000
mzuri constructive 0.1666667
kujenga constructive 0.6666667
yenye constructive 0.1666667
Yuan yuan 1.0000000
Inaweza may 0.0047170
unaweza may 0.1367925
Nyet may 0.0047170
anayo may 0.0047170
kunaweza may 0.0566038
ubatili may 0.0047170
sana may 0.0047170
niweze may 0.0047170
NULL may 0.0283019
amesaidia may 0.0047170
Straits may 0.0047170
kinaweza may 0.0283019
hakiwezi may 0.0047170
kufuzu may 0.0047170
kisha may 0.0047170
anaweza may 0.0424528
haiwezi may 0.0141509
kuhitaji may 0.0047170
alielewa may 0.0047170
haziwezi may 0.0047170
kuondoa-chembechembe may 0.0047170
yanaweza may 0.0377358
inaweza may 0.3443396
kinachoweza may 0.0094340
unavyoweza may 0.0047170
zinaweza may 0.0990566
Hague may 0.0047170
wanaweza may 0.0896226
iliyokukatisha may 0.0047170
vinaweza may 0.0283019
kutajirika enriched 0.2000000
utajiri enriched 0.4000000
za enriched 0.2000000
ulio enriched 0.2000000
makubwa supermarkets 0.5714286
maduka supermarkets 0.4285714
Sopuissant Sopuissant 1.0000000
wanasita reluctant 0.1250000
tamaa reluctant 0.1250000
waliokata reluctant 0.1250000
inasita reluctant 0.1250000
wakikataa reluctant 0.1250000
itasita reluctant 0.1250000
wangekasirika reluctant 0.1250000
haitegemei reluctant 0.1250000
unawezesha facilitates 1.0000000
kitendo action 0.0735294
hatua action 0.8676471
kuchukua action 0.0294118
NULL action 0.0147059
anafanya action 0.0147059
Dola Empire 1.0000000
zimethibitisha useful 0.0526316
zinafaa useful 0.0526316
apewe useful 0.0526316
istilahi useful 0.0526316
muhimu useful 0.4736842
msaada useful 0.1052632
sana useful 0.0526316
ukumbusho useful 0.0526316
NULL useful 0.1052632
waangalizi overseers 1.0000000
waadhibiwe punished 0.5000000
kuadhibiwa punished 0.5000000
kupelekwa low-carbon 0.0714286
chini low-carbon 0.0714286
chini-kaboni low-carbon 0.0714286
kaboni low-carbon 0.7857143
Rupert Rupert 1.0000000
NULL regime 0.0156250
yalipoibuka regime 0.0156250
iliyokufa regime 0.0156250
Milosevic regime 0.0312500
iliamua regime 0.0156250
Mobutu regime 0.0156250
isiyodumu regime 0.0156250
kuelea regime 0.0156250
kidini regime 0.0156250
ataamua regime 0.0156250
ukarimu regime 0.0156250
iwatumie regime 0.0156250
serikali regime 0.7187500
mpangilio regime 0.0156250
alikasuliwa regime 0.0156250
ilikataa regime 0.0156250
Kuchma regime 0.0156250
Stalin regime 0.0156250
na long-lasting 0.2000000
kudumu long-lasting 0.4000000
nzuri long-lasting 0.2000000
muda long-lasting 0.2000000
ambavyo threaten 0.1250000
kutishia threaten 0.5000000
yanatishia threaten 0.1250000
vinatishia threaten 0.2500000
Asia-Ulaya Asia-Europe 1.0000000
Beirut Beirut 1.0000000
kutengwa inalienable 0.5000000
zisizoweza inalienable 0.5000000
walibaki men 0.0322581
hao men 0.0645161
walitokea men 0.0322581
waliamua men 0.0322581
Wanaume men 0.0322581
ambao men 0.0322581
wanaume men 0.5806452
umri men 0.0322581
NULL men 0.0322581
walirudi men 0.0322581
wazee men 0.0322581
walishiriki men 0.0322581
walishambulia men 0.0322581
IAEA IAEA 1.0000000
ndege jets 1.0000000
wowote pick 0.1250000
atakayeichukua pick 0.1250000
kuchukua pick 0.6250000
ulioundwa pick 0.1250000
usanidi configuration 1.0000000
huyo professor 0.1538462
wa professor 0.0769231
anayetembelea professor 0.0769231
Harvard professor 0.1538462
profesa professor 0.5384615
nzi flies 1.0000000
inayoangaza story 0.0666667
hadithi story 0.9333333
hayo expressing 0.5000000
wakionyesha expressing 0.5000000
labda perhaps 0.9838710
inazua perhaps 0.0161290
inajibu responds 0.5000000
unajibu responds 0.5000000
za activities 0.3703704
shughuli activities 0.5555556
zitawekwa activities 0.0370370
zinagusa activities 0.0370370
makosa irritants 1.0000000
kilichobuniwa Action 1.0000000
mantiki logical 0.6666667
kinachofaa logical 0.3333333
inaporomoka slumps 1.0000000
ufadhili co-financing 0.3333333
kufadhili co-financing 0.3333333
wamejitolea co-financing 0.3333333
ukarimu generosity 1.0000000
wastaafu Retired 1.0000000
malipo amortization 0.6666667
wakitoa amortization 0.3333333
kuunganisha uniting 1.0000000
zinajifunga bracing 1.0000000
kazi functions 0.4444444
kugharamia functions 0.1111111
inafanya functions 0.1111111
NULL functions 0.1111111
gani functions 0.1111111
kugawanywa functions 0.1111111
Kuwait Kuwait 1.0000000
majengo buildings 1.0000000
Utopia Utopia 1.0000000
haujafutwa undiminished 1.0000000
paternalism paternalism 0.5000000
hakutaka paternalism 0.5000000
litajadili fact-finding 1.0000000
usiku nightmarish 0.5000000
kukomesha nightmarish 0.5000000
inawezekana plausibly 1.0000000
imezuiliwa hobbled 1.0000000
mfanyakazi employee 1.0000000
51 51 1.0000000
kufutwa private-sector 0.1000000
kibinafsi private-sector 0.0500000
sekta private-sector 0.4000000
kuwezesha private-sector 0.0500000
binafsi private-sector 0.2500000
hali private-sector 0.0500000
itawafanya private-sector 0.0500000
ufutaji private-sector 0.0500000
atakubali accepts 0.5000000
anayakubali accepts 0.2500000
anakubali accepts 0.2500000
Washirika Partners 1.0000000
wakopeshaji lenders 0.5714286
wapeanaji lenders 0.4285714
Uhuru post-independence 1.0000000
yazua forge 0.1666667
inapaswa forge 0.1666667
kuunda forge 0.6666667
mwanasaikolojia Columbia 1.0000000
kukubali approvingly 0.5000000
kwa approvingly 0.5000000
Mama Nature 0.5000000
amecheza Nature 0.5000000
vu gripping 0.5000000
sana gripping 0.5000000
kukuza boosting 0.1818182
kuongeza boosting 0.6363636
ifikapo boosting 0.0909091
kinapaswa boosting 0.0909091
Wahindi-Wamarekani Hispanic-Americans 1.0000000
ufadhili investments 0.0370370
usiozaa investments 0.0370370
uwekezaji investments 0.9259259
limepotea disappeared 0.5000000
zilitoweka disappeared 0.5000000
walifanya performed 0.1250000
Galiana performed 0.1250000
NULL performed 0.1250000
vizuri performed 0.1250000
umefanya performed 0.1250000
ulikuwa performed 0.1250000
zimefanya performed 0.2500000
kushirikiana collaboration 0.5000000
uliosambazwa collaboration 0.5000000
uchunguzi investigations 0.7500000
uliochochewa investigations 0.2500000
umbali distance 0.5000000
alikimbilia distance 0.1666667
mbali distance 0.1666667
kujiondoa distance 0.1666667
kutoa devote 1.0000000
zote entire 0.0322581
hawakutengwa entire 0.0322581
lote entire 0.0645161
yametawala entire 0.0322581
wote entire 0.0645161
mzima entire 0.0967742
utaathiri entire 0.0322581
yanazidi entire 0.0322581
NULL entire 0.0967742
nzima entire 0.2580645
itachambua entire 0.0322581
zima entire 0.0322581
ilipewa entire 0.0322581
yote entire 0.1612903
4.3 cruise 0.5000000
kusafiri cruise 0.5000000
atakata kick 0.5000000
yataingia kick 0.5000000
hewa best-known 0.3333333
zaidi best-known 0.3333333
unaojulikana best-known 0.3333333
zinazoshukiwa cases 0.0625000
visa cases 0.2500000
vyote cases 0.0625000
hali cases 0.4375000
viwili cases 0.0625000
hivyo cases 0.0625000
vya cases 0.0625000
maingilio incursions 1.0000000
Mwaka Year 1.0000000
makubaliano contracted 0.2000000
linabeba contracted 0.2000000
ulipata contracted 0.2000000
mkataba contracted 0.2000000
walifanya contracted 0.2000000
taa kerosene 1.0000000
brand brand 0.5000000
maalum brand 0.5000000
uaminifu loyalties 1.0000000
inainuliwa price 0.0142857
yasiyosafishwa price 0.0142857
inayotozwa price 0.0142857
bei price 0.9571429
hushonwa enthralled 0.5000000
watu enthralled 0.5000000
ikipata deriving 1.0000000
Sex Second 0.1428571
vya Second 0.4285714
Pili Second 0.2857143
Vita Second 0.1428571
Anwar Anwar 1.0000000
kuvuka cross 1.0000000
kuajiri hire 0.5000000
ineajiri hire 0.1666667
huajiri hire 0.3333333
kanisa church 0.6666667
lake church 0.3333333
linatuambia warning 0.1428571
onyo warning 0.4285714
kuonya warning 0.1428571
akionya warning 0.1428571
ambalo warning 0.1428571
Hijazis Hijazis 0.4000000
Wahuijis Hijazis 0.2000000
huuliza Hijazis 0.2000000
aliyeelimishwa Hijazis 0.2000000
José José 1.0000000
kushughulikia pool 0.3333333
kuiweka pool 0.1666667
kuwajumuisha pool 0.1666667
waingie pool 0.1666667
dimbwi pool 0.1666667
ifungwe folded 1.0000000
hypothyroidism hypothyroidism 1.0000000
dhana paradigm 0.2857143
ya paradigm 0.4285714
paradigm paradigm 0.1428571
paradig paradigm 0.1428571
vya neoliberal 0.2500000
kutumia neoliberal 0.2500000
neoliberal neoliberal 0.2500000
viwango neoliberal 0.2500000
nyota rock 0.2000000
za rock 0.2000000
yatatikisa rock 0.2000000
sana rock 0.2000000
yameanguka rock 0.2000000
Brazil Brazilian 0.3333333
makocha Brazilian 0.3333333
kikosi Brazilian 0.3333333
miaka seven-year 1.0000000
Bolshevik mind-set 1.0000000
ingepinga object 0.5000000
jambo object 0.5000000
hakika uncertainty 0.0666667
kutokuwa uncertainty 0.3111111
uhakika uncertainty 0.2444444
wowote uncertainty 0.0222222
na uncertainty 0.3555556
duni slums 0.5000000
makazi slums 0.5000000
maneno words 0.9642857
NULL words 0.0357143
mkakati strategy 0.9782609
wa strategy 0.0217391
asili tailored 0.5000000
iliyoundwa tailored 0.5000000
anahubiri she 0.0312500
aliendelea she 0.0312500
ana she 0.0312500
alipoishi she 0.0312500
ameshikilia. she 0.0312500
alijua she 0.0312500
ameongeza she 0.0312500
Aliiambia she 0.0312500
akauchomoa she 0.0312500
alisema she 0.0625000
aligundua she 0.0312500
anafanya she 0.0312500
yeye she 0.0937500
anaendelea she 0.0312500
alianza she 0.0312500
aliwaambia she 0.0312500
anapendelea she 0.0312500
alizaliwa she 0.0312500
anatafuta she 0.0625000
Ameanzisha she 0.0312500
alilonifundisha she 0.0312500
aliomba she 0.0312500
amezindua she 0.0312500
ndivyo she 0.0312500
kitu she 0.0312500
aliyosema she 0.0312500
anaonekana she 0.0312500
angegundua she 0.0312500
CEPR Discussion 1.0000000
Kushuka Protectionism 1.0000000
Nambari Act 0.1000000
Sheria Act 0.5000000
ya Act 0.2000000
Mickey Act 0.1000000
Sherman Act 0.1000000
agizo post-utopian 0.1666667
baada post-utopian 0.3333333
utopian post-utopian 0.5000000
kinyume vice-versa 0.5000000
chake vice-versa 0.5000000
hakiki preview 1.0000000
vyandarua mosquito-resistant 0.5000000
sugu mosquito-resistant 0.5000000
akaweka photo 0.5000000
picha photo 0.5000000
Texas oilman 1.0000000
senti generated 0.1428571
inazalisha generated 0.1428571
haujatolewa generated 0.1428571
kinatokana generated 0.1428571
iliyotolewa generated 0.1428571
inayofadhiliwa generated 0.1428571
zitatolewa generated 0.1428571
umoja preeminence 1.0000000
kutekeleza enforce 1.0000000
hiyo therefore 0.0689655
NULL therefore 0.0172414
kwa therefore 0.4482759
hivyo therefore 0.3793103
kukopesha therefore 0.0172414
maelewano therefore 0.0172414
wachukue therefore 0.0172414
ipatikane therefore 0.0172414
inataka therefore 0.0172414
waporaji insurgents 0.2000000
kijeshi insurgents 0.2000000
wapingaji insurgents 0.4000000
waasi insurgents 0.2000000
na crippling 0.5000000
mdogo crippling 0.5000000
4 4 1.0000000
Theodore Theodore 1.0000000
zebaki mercury 0.6666667
sumu mercury 0.3333333
upya reshape 0.3333333
ubunifu reshape 0.3333333
kuunda reshape 0.3333333
NULL agribusiness 1.0000000
uhusiano connection 0.5000000
watayatenda connection 0.2500000
kuhusiana connection 0.2500000
shida problem 0.7777778
kujidhibiti problem 0.0101010
usuluhishi problem 0.0101010
tatizo problem 0.0303030
itatumbuliwa problem 0.0101010
la problem 0.0606061
NULL problem 0.0202020
kutilia problem 0.0101010
hiyo problem 0.0707071
Wakisikitishwa deeply 0.0312500
iliyoingia deeply 0.0312500
lina deeply 0.0312500
undani deeply 0.0312500
kuthibitisha deeply 0.0312500
NULL deeply 0.1250000
kupendwa deeply 0.0312500
sana deeply 0.3750000
ujingaji deeply 0.0312500
wamesikitishwa deeply 0.0312500
yaliyofikiriwa deeply 0.0312500
wamejikita deeply 0.0312500
unatambuliwa deeply 0.0312500
walidhoofisha deeply 0.0312500
akijua deeply 0.0312500
zimejaa deeply 0.0312500
waliohusika deeply 0.0312500
amesikitishwa deeply 0.0312500
maadhimisho 60th 0.2000000
kumbukumbu 60th 0.2000000
60 60th 0.6000000
yaliyosababisha cemented 1.0000000
wako doctors 0.2500000
madaktari doctors 0.7500000
trilioni multi-trillion 0.5000000
nyingi multi-trillion 0.5000000
mkondo stream 0.7500000
NULL stream 0.2500000
ugaidi terror 0.8571429
kigaidi terror 0.1428571
quagmire quagmire 1.0000000
wanaendelea continue 0.0877193
kuendelea continue 0.2982456
itaendelea continue 0.0701754
yanaendelea continue 0.0175439
wataendelea continue 0.0526316
yataendelea continue 0.0175439
haikuendelea continue 0.0175439
tuendelee continue 0.0175439
ziendelee continue 0.0175439
zinaendelea continue 0.1052632
tunaendelea continue 0.0526316
kutaendelea continue 0.0175439
zitaendelea continue 0.0526316
utaendelea continue 0.0701754
NULL continue 0.0175439
tutaendelea continue 0.0526316
ingeendelea continue 0.0175439
endelea continue 0.0175439
itashinda personalities 0.5000000
haiba personalities 0.5000000
waandamanaji protesters 1.0000000
la conception 0.1428571
lililokuzwa conception 0.1428571
pana conception 0.1428571
hii conception 0.1428571
dhana conception 0.1428571
wazo conception 0.1428571
inaimarisha conception 0.1428571
ambayo revolt 0.3333333
ndio revolt 0.3333333
yataasi revolt 0.3333333
Madina Medina 1.0000000
yanapaswa tough 0.0625000
watashinikiza tough 0.0625000
wanazungumza tough 0.0625000
magumu tough 0.3125000
ulifanywa tough 0.0625000
nikiongea tough 0.0625000
bidii tough 0.0625000
kali tough 0.0625000
majadiliano tough 0.0625000
ngumu tough 0.0625000
mgumu tough 0.1250000
ingeweza inflict 0.5000000
kuleta inflict 0.5000000
magurudumu wheeling 1.0000000
kukatisha discouraging 0.5000000
itairudisha discouraging 0.5000000
kunaweza free-fall 0.2000000
mwanzoni free-fall 0.2000000
bure free-fall 0.2000000
kuanguka free-fall 0.2000000
kuonekana free-fall 0.2000000
mbaya grimmer 1.0000000
kupumzika superstate 0.3333333
wanaweza superstate 0.3333333
ushirikina superstate 0.3333333
matakwa impose 0.1428571
kuweka impose 0.0714286
kunalazimisha impose 0.0714286
kulazimisha impose 0.5000000
italazimisha impose 0.0714286
ingeweka impose 0.0714286
ungelazimisha impose 0.0714286
utajiri sovereign 0.0666667
chaguo-msingi sovereign 0.0666667
NULL sovereign 0.2000000
zinazoendelea sovereign 0.0666667
huru sovereign 0.6000000
vibaya harshly 0.5000000
anakemea harshly 0.5000000
inashughulikia recapitulates 1.0000000
na cap-and-trade 0.2857143
biashara cap-and-trade 0.7142857
kawaida mundane 1.0000000
hivyo unrecorded 0.5000000
havipatikani unrecorded 0.5000000
makala articles 0.1666667
nakala articles 0.8333333
kupunguza anti-malarial 0.5000000
dawa anti-malarial 0.5000000
utakapoanzishwa established 0.0588235
kuanzishwa established 0.0588235
ilianzisha established 0.1176471
wa established 0.0588235
lililowekwa established 0.0588235
iliyoanzishwa established 0.1176471
unaacha established 0.0588235
uliowekwa established 0.0588235
yaliyowekwa established 0.0588235
uliamua established 0.0588235
ilianzishwa established 0.0588235
NULL established 0.0588235
iliyoanzisha established 0.0588235
yaliyoanzishwa established 0.0588235
PCO established 0.0588235
kuongezeka non-proliferation 0.0833333
uenezi non-proliferation 0.0833333
kutokuongezeka non-proliferation 0.0833333
zisizo non-proliferation 0.0833333
kwa non-proliferation 0.0833333
kuenea non-proliferation 0.0833333
isiyo non-proliferation 0.1666667
usio non-proliferation 0.0833333
kueneza non-proliferation 0.0833333
kutokua non-proliferation 0.0833333
kutokuongeza non-proliferation 0.0833333
unaokadiriwa fortune 1.0000000
alipoona midwife 0.2500000
mkunga midwife 0.5000000
Mzalisha midwife 0.2500000
Panglossian Panglossian 1.0000000
kitabia categorical 1.0000000
atakabidhiwa entrusted 1.0000000
kupeperusha twist 1.0000000
iliyorekodiwa recorded 0.2500000
itarekodiwa recorded 0.2500000
ilirekodi recorded 0.5000000
uwezekano presumably 0.5000000
labda presumably 0.5000000
ukusanyaji collections 1.0000000
inamaanisha imply 0.7500000
NULL imply 0.2500000
kosa error 0.6666667
makosa error 0.3333333
renminbi renminbi 1.0000000
ufundi high-tech 0.3333333
hali high-tech 0.3333333
athari high-tech 0.3333333
kuchorea whitewashing 1.0000000
kuchafuliwa debunked 1.0000000
NULL denounce 0.5000000
kukemea denounce 0.5000000
kufuata pursue 0.7142857
hufuata pursue 0.1428571
kutekeleza pursue 0.1428571
Euro Euroskepticism 0.3333333
Eurlajepticism Euroskepticism 0.3333333
wa Euroskepticism 0.3333333
mtu manor 1.0000000
cha sneer 0.5000000
kishawishi sneer 0.5000000
asije lest 0.6666667
zikapoteza lest 0.3333333
vya equipped 0.2000000
vifaa equipped 0.2000000
kuwekwa equipped 0.2000000
kushughulikiwa equipped 0.2000000
huna equipped 0.2000000
hizo manifested 0.5000000
zilijidhihirisha manifested 0.5000000
zitakazopatikana short-run 0.1428571
mfupi short-run 0.2857143
muda short-run 0.2857143
nzito short-run 0.1428571
yenye short-run 0.1428571
Zealand Zealand 1.0000000
Wahejazis Hejazis 1.0000000
karaha cutbacks 1.0000000
milango autos 1.0000000
kupata acquire 0.3333333
wasipate acquire 0.1666667
ambazo acquire 0.1666667
wanaopata acquire 0.1666667
angepata acquire 0.1666667
skir skirted 1.0000000
viboreshaji permafrost 1.0000000
Peres Peres 1.0000000
Dunia earth 0.0833333
duniani earth 0.3333333
ulimwengu earth 0.0833333
iliyochafuliwa earth 0.0833333
ardhini earth 0.0833333
dunia earth 0.1666667
hali earth 0.0833333
anga earth 0.0833333
la dragon 0.3333333
kulala dragon 0.3333333
Joka dragon 0.3333333
makubwa improvements 0.3750000
maboresho improvements 0.6250000
majirani neighbours 0.6666667
wenye neighbours 0.3333333
unaomilikiwa renewable-energy 0.5000000
na renewable-energy 0.5000000
mitatu three 0.2363636
NULL three 0.0363636
watatu three 0.1090909
tatu three 0.4909091
vitatu three 0.0727273
matatu three 0.0545455
walioshiriki engaged 0.0588235
wanahusika engaged 0.0588235
walijishughulisha engaged 0.1176471
vilijihusisha engaged 0.0588235
kushiriki engaged 0.0588235
farasi engaged 0.0588235
zinazojihusisha engaged 0.0588235
tumejihusisha engaged 0.0588235
wanajishughulisha engaged 0.0588235
nguvu engaged 0.0588235
wanajihusisha engaged 0.0588235
na engaged 0.2941176
zilizo open-ended 0.2500000
wazi open-ended 0.2500000
NULL open-ended 0.2500000
sindano open-ended 0.2500000
bodi board 0.7500000
bweni board 0.1250000
yote board 0.1250000
filibuster filibuster 1.0000000
kubaini deconstruct 0.5000000
kuijenga deconstruct 0.5000000
uliopewa given 0.0101010
kwa given 0.1818182
hazipewi given 0.0101010
imeipa given 0.0101010
utapewa given 0.0101010
imewapa given 0.0101010
waliyopewa given 0.0101010
ametoa given 0.0101010
zingeweza given 0.0101010
ikipewa given 0.0101010
kuzingatia given 0.1212121
watapewa given 0.0101010
wakipewa given 0.0101010
kutolewa given 0.0202020
ulitolewa given 0.0101010
ruhusu given 0.0101010
ukizingatia given 0.0101010
na given 0.0101010
ukampa given 0.0101010
ikizingatiwa given 0.1313131
zimewapa given 0.0101010
kupewa given 0.0909091
alipotembelea given 0.0101010
meno given 0.0101010
umepewa given 0.0101010
hawajatoa given 0.0101010
waliopewa given 0.0101010
NULL given 0.1010101
kutokana given 0.0707071
kinachoonekana given 0.0101010
atapewa given 0.0101010
imetupa given 0.0101010
kujizuia given 0.0101010
hawapewi given 0.0101010
haipewi given 0.0101010
kupunguza alleviating 1.0000000
asilimia 10.2 0.5000000
10.2 10.2 0.5000000
mfalme ephemeral 0.5000000
kudhibitisha ephemeral 0.5000000
na worthless 0.3750000
isiyo worthless 0.3750000
dhamana worthless 0.2500000
sumu toxins 1.0000000
kizuizi sterile 1.0000000
Tan Tan 1.0000000
chache minutes 0.2500000
badilisha minutes 0.2500000
dakika minutes 0.5000000
kimapenzi sexual 0.1428571
ngono sexual 0.2857143
tabia sexual 0.1428571
kijinsia sexual 0.4285714
mauaji suicide 0.2000000
kujiua suicide 0.2000000
ya suicide 0.6000000
ushuru tariffs 0.8571429
zinatoza tariffs 0.1428571
kumuondoa remove 0.2500000
ingeondoa remove 0.2500000
haitaondoa remove 0.1250000
kuondoa remove 0.3750000
waaminifu entourage 1.0000000
NULL China 0.0064103
China China 0.4615385
Uchina China 0.5256410
Bwawa China 0.0064103
zilizoko situated 1.0000000
ng Creutzfeldt-Jakob 0.3333333
wazimu Creutzfeldt-Jakob 0.3333333
Creutzfeldt-Jakob Creutzfeldt-Jakob 0.3333333
NULL remarks 0.2500000
matamshi remarks 0.2500000
ufunguzi remarks 0.2500000
aliwaambia remarks 0.2500000
Lehman Brothers 0.5000000
hakuhusiani Brothers 0.2500000
Brothers Brothers 0.2500000
28,000 28,000 1.0000000
vilivyo inflation-indexed 1.0000000
wanaotumika personnel 0.2000000
lina personnel 0.2000000
wanafanya personnel 0.2000000
wafanyikazi personnel 0.4000000
anatarajia expects 0.6666667
inatarajia expects 0.3333333
hayasumbui havoc 0.5000000
hitaji havoc 0.5000000
ISI ISI 1.0000000
mijadala debates 0.4444444
inavyojadili debates 0.1111111
linarekebisha debates 0.1111111
mjadala debates 0.3333333
zinazoitwa so-called 0.0750000
kinachojulikana so-called 0.2500000
ile so-called 0.0500000
ulihitimishwa so-called 0.0250000
zinazojulikana so-called 0.0500000
utaitwa so-called 0.0250000
inayojulikana so-called 0.0250000
kama so-called 0.3000000
inayoitwa so-called 0.0750000
NULL so-called 0.0500000
zinajihusisha so-called 0.0250000
wanaoitwa so-called 0.0500000
kutoroka escape 0.9000000
utaepuka escape 0.1000000
za fish 0.1111111
samaki fish 0.8888889
kamili full-employment 0.5000000
unalingana full-employment 0.5000000
kuwashikilia reporting 0.1111111
kutoa reporting 0.1111111
kuripoti reporting 0.4444444
taarifa reporting 0.2222222
isiyopuuzwa reporting 0.1111111
hauna weightless 0.2500000
ukilinganisha weightless 0.2500000
ungekuwa weightless 0.2500000
uzito weightless 0.2500000
kuongezeka swift 1.0000000
Afghani Afghani 1.0000000
hali unpleasant 1.0000000
haionyeshi no 0.0030120
hazitumii no 0.0030120
haitaki no 0.0030120
nilifikiria no 0.0030120
haitapata no 0.0030120
majuto no 0.0030120
GDP no 0.0030120
hauna no 0.0120482
NULL no 0.0813253
haikuwa no 0.0090361
sio no 0.0753012
kupewa no 0.0030120
hawajapata no 0.0030120
Sikupoteza no 0.0030120
hakuonyesha no 0.0030120
haukuacha no 0.0030120
haishangazi no 0.0180723
na no 0.0030120
usifanye no 0.0030120
kuangaliwa no 0.0030120
halipo no 0.0030120
no no 0.0030120
haijalishi no 0.0180723
hakukuwa no 0.0150602
haikukabili no 0.0030120
haina no 0.0180723
tena no 0.0813253
haisaidii no 0.0030120
hayako no 0.0030120
hakuwezi no 0.0030120
hakubeba no 0.0030120
hazionekani no 0.0030120
hawaoni no 0.0030120
haileti no 0.0030120
hana no 0.0150602
haufanyi no 0.0030120
hakuchukua no 0.0030120
yaliyopanuliwa no 0.0030120
haikuhusika no 0.0030120
hatuko no 0.0030120
haifanyi no 0.0060241
kunyoa no 0.0030120
haishikilia no 0.0030120
hawawezi no 0.0030120
kuhimili no 0.0030120
hayatishii no 0.0030120
hakuna no 0.3373494
hazina no 0.0030120
hazikuwa no 0.0030120
haitatumia no 0.0030120
hazishangazi no 0.0030120
hakujali no 0.0030120
mchana no 0.0030120
hailingani no 0.0030120
mwema no 0.0030120
hakina no 0.0030120
yoyote no 0.0060241
hawakujenga no 0.0030120
kukumbatiana no 0.0030120
2,172 no 0.0030120
hawasemi no 0.0030120
hayaonekani no 0.0030120
hawana no 0.0090361
hayajatoa no 0.0030120
hazifai no 0.0030120
bila no 0.0512048
haukuwa no 0.0030120
kilikuta no 0.0030120
haijapoteza no 0.0030120
Kujisimamia no 0.0030120
hazitawala no 0.0030120
kuogofya no 0.0030120
furaha no 0.0030120
haizingatiwi no 0.0030120
zana no 0.0030120
sina no 0.0090361
kutosheleza no 0.0030120
haitaji no 0.0030120
kujadili no 0.0030120
hawakuwa no 0.0030120
hakukumbwa no 0.0030120
hapana no 0.0180723
ulio no 0.0030120
leseni no 0.0030120
yule no 0.0030120
hayakuwa no 0.0060241
haizuii no 0.0030120
hawawekeza no 0.0030120
shaka no 0.0030120
kupindua overthrowing 1.0000000
ubaguzi uninformed 1.0000000
Israeli Israel-Palestine 1.0000000
wingi bulk 1.0000000
samahani ‘ 0.1428571
Chirac ‘ 0.1428571
NULL ‘ 0.1428571
&apos;s ‘ 0.1428571
&apos; ‘ 0.4285714
anapinga vehemently 0.5000000
wasiokuwa vehemently 0.5000000
kunyonya absorb 0.2857143
kuchukua absorb 0.5714286
kunyakua absorb 0.1428571
amp amp 1.0000000
alitoroka escaped 1.0000000
zitabidi substitute 0.3333333
mbadala substitute 0.3333333
abadilishe substitute 0.3333333
miji capitals 0.6666667
mikuu capitals 0.3333333
wakati timing 1.0000000
kipagani pagan 1.0000000
juu warn 0.3333333
mzozo warn 0.3333333
kuonya warn 0.3333333
upya recapitalizing 0.1666667
za recapitalizing 0.1666667
kufadhili recapitalizing 0.1666667
tena recapitalizing 0.1666667
kupanga recapitalizing 0.1666667
kulipia recapitalizing 0.1666667
marejeo references 0.2000000
NULL references 0.2000000
za references 0.2000000
ukoloni references 0.2000000
kumbukumbu references 0.2000000
NULL waging 0.2500000
kupigana waging 0.5000000
haipigani waging 0.2500000
unaokaribia approaching 0.1250000
Tunakaribia approaching 0.1250000
inakaribia approaching 0.3750000
unakaribia approaching 0.1250000
ukikaribia approaching 0.1250000
zinazowakaribia approaching 0.1250000
mishipa nerves 1.0000000
zilizofanywa translations 0.5000000
tafsiri translations 0.5000000
katika positioned 0.5000000
kuwekwa positioned 0.5000000
zimeripotiwa funds 0.0144928
taka funds 0.0144928
pesa funds 0.1304348
za funds 0.3043478
fedha funds 0.4347826
zisizotumiwa funds 0.0144928
zingewawezesha funds 0.0144928
ua funds 0.0289855
inagharimu funds 0.0144928
ingewaacha funds 0.0144928
hizo funds 0.0144928
kuingiza inject 1.0000000
mteremko slippery 0.5000000
kuteleza slippery 0.5000000
maji watershed 0.6666667
utaftaji watershed 0.0833333
ungefanikiwa watershed 0.0833333
machafu watershed 0.0833333
yaliyosababishwa watershed 0.0833333
kifafa seizures 0.5000000
mshtuko seizures 0.2500000
cha seizures 0.2500000
kuiweka concentrating 0.5000000
katika concentrating 0.5000000
ameomba Duhalde 0.2500000
Duhalde Duhalde 0.7500000
Navtej Navtej 1.0000000
linapinga vehement 1.0000000
kusababisha prompting 1.0000000
za companies 0.3055556
ya companies 0.0138889
kampuni companies 0.6666667
makampuni companies 0.0138889
sana hard 0.0243902
NULL hard 0.0487805
magumu hard 0.0487805
walipigana hard 0.0243902
ikigonga hard 0.0243902
kumetoa hard 0.0243902
wake-wanakufa hard 0.0243902
bidii hard 0.0243902
hazikuangushwa hard 0.0243902
zinazoonyesha hard 0.0243902
mgumu hard 0.0731707
tumejitahidi hard 0.0243902
ngumu hard 0.6097561
kabisa worst-off 1.0000000
kukwama stampede 1.0000000
lishe energy 0.0090909
nguvu energy 0.0272727
iliyoonyeshwa energy 0.0090909
kupelekwa energy 0.0090909
nishati energy 0.8909091
NULL energy 0.0363636
kiroho energy 0.0090909
kuwa energy 0.0090909
mwaka annually 0.4444444
zinaelekezwa annually 0.1111111
kila annually 0.4444444
hifadhi reserve 0.4444444
cha reserve 0.1111111
akiba reserve 0.3333333
hazitumii reserve 0.1111111
balbu energy-efficient 0.1666667
ufanisi energy-efficient 0.3333333
nishati energy-efficient 0.1666667
zenye energy-efficient 0.1666667
yenye energy-efficient 0.1666667
baroque eighteenth-century 1.0000000
Brezhnev Brezhnev 1.0000000
ganda hollow 0.3333333
lenye hollow 0.3333333
mashiko hollow 0.3333333
wameimarisha suffocated 1.0000000
Rongi Rongi 1.0000000
uthabiti stability 0.0212766
utulivu stability 0.9574468
wa stability 0.0212766
kutusaidia arguments 0.0769231
hoja arguments 0.6923077
za arguments 0.2307692
ukarimu generous 0.4285714
mkarimu generous 0.1428571
wanapokea generous 0.1428571
mishahara generous 0.1428571
malipo generous 0.1428571
maana meaning 0.4615385
ikimaanisha meaning 0.2307692
Maana meaning 0.0769231
wakimaanisha meaning 0.0769231
maanisha meaning 0.0769231
juu meaning 0.0769231
Qiang Guo 0.5000000
Cai Guo 0.5000000
pili second-order 0.3333333
la second-order 0.3333333
kuhusu second-order 0.3333333
wape bear 0.0833333
wachukue bear 0.0833333
anapaswa bear 0.0833333
haina bear 0.0833333
wanabeba bear 0.0833333
tunabeba bear 0.0833333
itashuhudia bear 0.0833333
kubeba bear 0.3333333
kustahimili bear 0.0833333
tena relapse 0.5000000
kurudi relapse 0.5000000
iliyogawanywa States 0.0097087
ikapata States 0.0097087
ilibadilisha States 0.0097087
NULL States 0.1553398
imehalalisha States 0.0097087
hutumia States 0.0097087
Merika States 0.7864078
inajikwaa States 0.0097087
mpatanishi paternalist 1.0000000
vilivyoinuliwa currently 0.0149254
zinatosha currently 0.0149254
inafurahiya currently 0.0149254
inaendana currently 0.0149254
inayo currently 0.0149254
hazijasimamiwa currently 0.0149254
unaodhoofisha currently 0.0149254
wanapanda currently 0.0149254
zinazopatikana currently 0.0149254
wanapuuzwa currently 0.0149254
kwa currently 0.3582090
inateswa currently 0.0149254
sasa currently 0.3731343
hauwezekani currently 0.0149254
zinagusa currently 0.0149254
yanayotumiwa currently 0.0149254
zinazozalishwa currently 0.0447761
wanazuiliwa currently 0.0149254
la Ugandan 0.4000000
Uganda Ugandan 0.6000000
shida unplanned 0.5000000
zisizopangwa unplanned 0.5000000
Istanbul Istanbul 1.0000000
wakati respite 1.0000000
itasita hesitates 1.0000000
Saddam Saddam 1.0000000
ujanja purchased 0.5000000
kununuliwa purchased 0.5000000
Johnson Johnson 1.0000000
matangazo ads 1.0000000
mbali alternative-energy 1.0000000
mapokeo tradition 0.2222222
tamaduni tradition 0.2222222
mila tradition 0.2222222
kiutamaduni tradition 0.1111111
utamaduni tradition 0.2222222
walipoanza butchering 0.5000000
kuwaua butchering 0.5000000
ukali severity 1.0000000
mavuno yielding 0.3333333
kutoa yielding 0.3333333
zinazoonyesha. yielding 0.3333333
muingiliano interconnection 0.5000000
unaongezeka interconnection 0.5000000
serikali federal 0.1785714
mwenyekiti federal 0.0357143
kofia federal 0.0357143
shirikisho federal 0.7500000
muhimu ecologies 0.5000000
volkano ecologies 0.5000000
Aires Buenos 1.0000000
kuhatarisha jeopardize 0.8571429
maisha jeopardize 0.1428571
ulikuwa stadium 0.5000000
Nest stadium 0.5000000
kukopesha re-lend 0.5000000
tena re-lend 0.5000000
wakilalamika complaining 0.5000000
wanalalamika complaining 0.5000000
utaifa nationhood 1.0000000
la pipeline 0.3333333
bomba pipeline 0.6666667
brittle guarantor 1.0000000
viashiria indicators 0.3333333
vikali indicators 0.1666667
vya indicators 0.1666667
vyote indicators 0.1666667
muhimu indicators 0.1666667
ubadhirifu profligacy 1.0000000
upya euphoric 0.5000000
kuibuka euphoric 0.5000000
UKIMWI AIDS 0.7500000
na AIDS 0.2000000
Ukimwi AIDS 0.0500000
nacho finite 0.5000000
safi finite 0.5000000
lililodokeza implied 0.2000000
iliyoonyeshwa implied 0.2000000
unaonyeshwa implied 0.2000000
NULL implied 0.2000000
vilivyoainishwa implied 0.2000000
ratiba timetable 1.0000000
msingi baseline 0.3333333
kimsingi baseline 0.3333333
watagundua baseline 0.3333333
wanaotafuta searching 0.1428571
ukitafuta searching 0.1428571
wanatafuta searching 0.2857143
za searching 0.1428571
kutafuta searching 0.1428571
zinatafuta searching 0.1428571
tunahatarisha winning 0.1666667
nikishinda winning 0.1666667
akishinda winning 0.1666667
ikishinda winning 0.1666667
kushinda winning 0.3333333
cha unit 0.3333333
kutoa unit 0.1111111
kitengo unit 0.4444444
NULL unit 0.1111111
ambayo evacuated 1.0000000
utatokeaje and 0.0002064
1956 and 0.0002064
nao and 0.0002064
NULL and 0.0026837
mimea and 0.0002064
and and 0.0004129
Mara and 0.0002064
kidete and 0.0002064
halafu and 0.0012386
na and 0.9911230
ukomo and 0.0002064
Adriatic and 0.0002064
kiburi and 0.0002064
unavyozidi and 0.0002064
hadi and 0.0002064
tulishirikiana and 0.0002064
mara and 0.0004129
ungegawanya and 0.0002064
kuongezeka and 0.0002064
kujaribu and 0.0002064
kwa and 0.0008258
imeshamiriwa and 0.0002064
wanalinda defend 0.1111111
kutetea defend 0.5555556
kujitetea defend 0.2222222
hutetea defend 0.1111111
bila unavoidably 0.3333333
zinashirikiwa unavoidably 0.3333333
shida unavoidably 0.3333333
viongozi leaders 0.9900000
wa leaders 0.0100000
mikataba offensive 0.1428571
ni offensive 0.1428571
kukasirisha offensive 0.1428571
Israel offensive 0.1428571
inayodhalilisha offensive 0.1428571
kukera offensive 0.2857143
madaraja bridges 1.0000000
umilele extremism 0.0625000
msimamo extremism 0.4375000
mkali extremism 0.4375000
ukikutana extremism 0.0625000
uchungu pain 0.1428571
kiasi pain 0.1428571
kupita pain 0.1428571
maumivu pain 0.5714286
huku self-respect 0.2000000
kibinafsi self-respect 0.2000000
Kujiheshimu self-respect 0.2000000
heshima self-respect 0.2000000
inayotokana self-respect 0.2000000
kupanga Reorganizing 0.3333333
upya Reorganizing 0.3333333
mpangilio Reorganizing 0.3333333
Mzaliwa Born 1.0000000
wafungwa detainees 1.0000000
wanapata WHO 0.5000000
WHO WHO 0.5000000
makosa errors 1.0000000
azimio overdue 0.2000000
kwa overdue 0.4000000
muafaka overdue 0.4000000
hujitokeza reappear 1.0000000
ndani Intravenous 0.5000000
dawa Intravenous 0.5000000
anuwai variants 1.0000000
njia manner 0.6000000
ubaguzi manner 0.2000000
isiyojibika manner 0.2000000
ikishuka ahead 0.0476190
hukimbilia ahead 0.0476190
zimepita ahead 0.0476190
uliongezeka ahead 0.0476190
ijayo ahead 0.1904762
inayokuja ahead 0.0476190
kuendelea ahead 0.0952381
kitakachotangulia ahead 0.0476190
zilionyesha ahead 0.0476190
kabla ahead 0.0952381
mbele ahead 0.2380952
yalilipia ahead 0.0476190
wanalalamika complain 0.7500000
atakayelalamika complain 0.2500000
1947 1947 0.6666667
mnamo 1947 0.3333333
aliyechomwa ravaged 0.3333333
ziliharibu ravaged 0.3333333
eneo ravaged 0.3333333
mezani table 0.3333333
mkate table 0.0833333
meza table 0.5833333
hatujaandaa ill-prepared 0.5000000
vizuri ill-prepared 0.5000000
ujasusi bygone 1.0000000
nguvu vigour 1.0000000
kurudishwa reinstatement 0.6666667
inayotaka reinstatement 0.3333333
milele after 0.0055249
baada after 0.9171271
kunaonekana after 0.0055249
kwa after 0.0276243
inafuatia after 0.0055249
NULL after 0.0055249
maana after 0.0220994
. after 0.0055249
utunze after 0.0055249
kujitenga detachment 1.0000000
huwafanya lets 1.0000000
kuegesha park 0.6666667
kuweka park 0.3333333
Skip Skip 1.0000000
Mkuu Leader 1.0000000
huvunwa harvested 1.0000000
ilisisimka simmered 1.0000000
Waliruhusu condoned 1.0000000
motisha motivations 1.0000000
kutazama looking 0.1333333
wakiangalia looking 0.0666667
ukiwatazama looking 0.0666667
kuangalia looking 0.1333333
kunaonekana looking 0.0666667
ukiangalia looking 0.0666667
mbaya looking 0.0666667
anaangalia looking 0.0666667
Wafaransa looking 0.0666667
pande looking 0.0666667
wakimwangalia looking 0.0666667
NULL looking 0.1333333
tunasahau sometimes 0.0175439
limeanguka sometimes 0.0175439
mwingine sometimes 0.4912281
wakati sometimes 0.4736842
harakati Abbas 0.2000000
Abbas Abbas 0.8000000
ngumu contingent 0.5000000
sanjari contingent 0.5000000
mnamo 1980 0.0500000
Chevy 1980 0.0500000
1980 1980 0.7000000
miaka 1980 0.1500000
&apos;s 1980 0.0500000
yanahusu composition 0.3333333
muundo composition 0.6666667
inayoonyeshwa typified 1.0000000
kukubalika narratives 0.3333333
simulizi narratives 0.6666667
uingiliaji importation 0.1428571
wa importation 0.2857143
usaidizi importation 0.1428571
uuzaji importation 0.1428571
kuingilia importation 0.1428571
kati importation 0.1428571
kupendekeza prop 0.5000000
hatua prop 0.5000000
kuguswa react 0.2000000
nini react 0.2000000
itafanya react 0.2000000
itaitikia react 0.2000000
wangefanya react 0.2000000
Westminster Westminster 1.0000000
Kinshasa Kinshasa 1.0000000
miradi project-based 0.5000000
itafungwa project-based 0.5000000
sana poster 0.3333333
kuwaandikia poster 0.3333333
ngumu poster 0.3333333
uhamiaji systems 0.0120482
hii systems 0.0240964
ya systems 0.4096386
haijulikani systems 0.0120482
mifumo systems 0.5421687
HIPCs Countries 1.0000000
Kiebrania appellation 1.0000000
kwamba re-enactment 1.0000000
wa choices 0.3333333
uliosababisha choices 0.0833333
uchaguzi choices 0.2500000
NULL choices 0.0833333
chaguo choices 0.2500000
hayajafundishwa taught 0.1428571
yalitufundisha taught 0.1428571
alivyotufundisha taught 0.1428571
Tumefundishwa taught 0.1428571
alifundisha taught 0.2857143
alilonifundisha taught 0.1428571
NULL falling 0.0454545
yakipotea falling 0.0454545
iliyoanguka falling 0.0454545
unaangukia falling 0.0454545
watatoka falling 0.0454545
kurudi falling 0.0454545
kuanguka falling 0.1363636
kushiriki falling 0.0454545
yanaanguka falling 0.0454545
kuaminiwa falling 0.0454545
yanayopungua falling 0.0454545
yako falling 0.0454545
mishahara falling 0.0454545
ikianguka falling 0.0454545
inayopungua falling 0.0454545
inayoanguka falling 0.0454545
zinaanguka falling 0.0454545
kupungua falling 0.0454545
inaanguka falling 0.0909091
Zagreb Zagreb 1.0000000
dawa prescription 1.0000000
wakijitahidi strive 0.3333333
zinajitahidi strive 0.3333333
wanajitahidi strive 0.3333333
Kyoto Kyoto 1.0000000
makali euphoria 1.0000000
inayotatiza Timor 1.0000000
wafuasi followers 0.5000000
kufuata followers 0.2500000
hamu followers 0.2500000
vikundi groupings 0.3333333
vingi groupings 0.3333333
vya groupings 0.3333333
haiwezekani intractable 0.2500000
zitatatuliwa intractable 0.2500000
yasiyoweza intractable 0.2500000
isiyowezekana intractable 0.2500000
kufanya-au-kuvunja ordeal 0.5000000
shida ordeal 0.5000000
inayoimarisha strengthening 0.0909091
kuimarisha strengthening 0.5454545
uimarishaji strengthening 0.3636364
linahitaji requires 0.0333333
NULL requires 0.0333333
yanahitaji requires 0.1000000
inahitaji requires 0.5000000
unahitaji requires 0.2666667
inayohitaji requires 0.0333333
hauhitaji requires 0.0333333
kusimama tall 0.3333333
mrefu tall 0.6666667
Henry Henry 0.7500000
alinukuu Henry 0.2500000
iliyoendelezwa West 0.0175439
usafiri West 0.0175439
Magharibi West 0.9649123
raia subjects 0.3636364
yalitishia subjects 0.0909091
masomo subjects 0.5454545
wa Vice 0.6250000
Makamu Vice 0.3750000
&apos; Muslims 0.1000000
Waislamu Muslims 0.7000000
Waislam Muslims 0.1000000
Waisilamu Muslims 0.1000000
za machinery 0.3636364
mashine machinery 0.5454545
siasa machinery 0.0909091
semina seminar 1.0000000
Uwekezaji Investing 1.0000000
wa candidate 0.1666667
NULL candidate 0.0333333
za candidate 0.2333333
mgombea candidate 0.4000000
wagombea candidate 0.1666667
ufujaji punditry 0.3333333
wa punditry 0.3333333
la punditry 0.3333333
michezo gaming 1.0000000
amekuwa Karimov 0.5000000
Karimov Karimov 0.5000000
ulileta fatal 0.3333333
kufa fatal 0.3333333
kuu fatal 0.3333333
wamekuwa cognizant 0.5000000
wakitambua cognizant 0.5000000
kutunza girl 0.1250000
huyo girl 0.2500000
msichana girl 0.6250000
nchini levers 0.2500000
jiografia levers 0.2500000
wahasibu levers 0.2500000
washirika levers 0.2500000
unataja mentions 0.5000000
kinawataja mentions 0.5000000
milango fearsome 0.5000000
kutisha fearsome 0.5000000
EBRD EBRD 1.0000000
uamuzi decisiveness 1.0000000
lagi lagging 1.0000000
umoja coalitions 1.0000000
kuheshimu respecting 1.0000000
kulipiza retaliation 1.0000000
waliinua red 0.0909091
nyekundu red 0.8181818
mwekundu red 0.0909091
Atatürk Atatürk 0.5000000
kilianzishwa Atatürk 0.5000000
matibabu treatment 0.7692308
kadiri treatment 0.0769231
mzuri treatment 0.0769231
udhalilishaji treatment 0.0769231
Wadadisi strategists 0.5000000
wa strategists 0.5000000
mchekeshaji mover 1.0000000
sana acute 0.2000000
kali acute 0.2000000
zinaonyeshwa acute 0.2000000
kubwa acute 0.2000000
mkubwa acute 0.2000000
Washirika victorious 0.3333333
waliwaahidi victorious 0.3333333
walioshinda victorious 0.3333333
kugonga crashed 1.0000000
riwaya novels 1.0000000
KONG KONG 1.0000000
asili instinctively 1.0000000
huondoa drains 1.0000000
27 27 1.0000000
ushauri advisory 1.0000000
GFCRP Response 1.0000000
hutegemea rely 0.1000000
hautegemei rely 0.1000000
kutegemea rely 0.6000000
wanategemea rely 0.1000000
zinategemea rely 0.1000000
walitangaza hailed 0.2500000
barani hailed 0.2500000
Alisherehekea hailed 0.2500000
yalipongezwa hailed 0.2500000
kupotosha misleading 0.3333333
potofu misleading 0.6666667
ndogo-na-agizo law-and-order 0.5000000
sheria law-and-order 0.5000000
unahitaji case-by-case 0.5000000
hakiki-kwa-kesi case-by-case 0.5000000
kutawala reign 1.0000000
uchukizaji denotes 1.0000000
shenanigans shenanigans 0.5000000
ya shenanigans 0.5000000
PALO PALO 1.0000000
yalichochea prompted 0.3333333
Iliyotokana prompted 0.3333333
ulimchochea prompted 0.3333333
II II 0.2600000
ametoa II 0.0200000
pili II 0.3600000
Kidunia II 0.3600000
hawajasimamiwa unassisted 1.0000000
kupambana combatting 1.0000000
inayoongezeka strength 0.0769231
Jim strength 0.0769231
nguvu strength 0.7692308
waraka strength 0.0769231
wale subordinate 0.1666667
ndogo subordinate 0.1666667
kupeana subordinate 0.1666667
hautaweza subordinate 0.1666667
Itawadhibiti subordinate 0.1666667
kupungua subordinate 0.1666667
walianzisha initiated 0.4000000
waliyoianzisha initiated 0.2000000
kuanzishwa initiated 0.2000000
alianzisha initiated 0.2000000
Wipro Wipro 1.0000000
kikomunisti communist 0.6153846
iliyokufa communist 0.0769231
ukomunisti communist 0.1538462
wakomunisti communist 0.1538462
Wakomunisti unreformed 0.5000000
ambao unreformed 0.5000000
zilizojaa sprawling 1.0000000
yaliyotabiriwa hastening 0.3333333
kuharakisha hastening 0.3333333
wamependekeza hastening 0.3333333
akikumbatia embracing 0.3333333
kukumbatia embracing 0.6666667
1,200 1,200 1.0000000
wasanifu architects 1.0000000
tumekosa lacked 0.5000000
imepoteza lacked 0.5000000
ratings meriting 0.5000000
kuunganisha meriting 0.5000000
wapiga turnout 0.1250000
kugeuka turnout 0.1250000
47 turnout 0.1250000
nyingine turnout 0.1250000
NULL turnout 0.1250000
njia turnout 0.1250000
wapigakura turnout 0.1250000
kuibuka turnout 0.1250000
tunapata re 1.0000000
zinaepukwa artfully 1.0000000
sababu consequence 0.4000000
matokeo consequence 0.4000000
kusambaza consequence 0.2000000
Jedwali Table 1.0000000
kutafakari contemplate 0.6000000
ninatafakari contemplate 0.2000000
NULL contemplate 0.2000000
lilitokeza predictably 1.0000000
kuhama bet 0.2000000
sana bet 0.2000000
bet bet 0.6000000
unaotawala cohesiveness 1.0000000
kuona sight 0.2000000
NULL sight 0.2000000
ya sight 0.3000000
mara sight 0.3000000
NULL ironically 0.1666667
kwa ironically 0.4166667
kushangaza ironically 0.4166667
kupunguza downplay 1.0000000
kazi careers 1.0000000
kutokua unpredictability 0.2500000
kwa unpredictability 0.5000000
kutarajia unpredictability 0.2500000
Menem Menem 1.0000000
kwa competence 0.1428571
shirikisho competence 0.2857143
wa competence 0.2857143
uwezo competence 0.2857143
Disraeli phrase 0.2000000
cha phrase 0.4000000
maneno phrase 0.2000000
kifungu phrase 0.2000000
opiamu opium 0.6000000
opium opium 0.2500000
wataachishwa opium 0.0500000
ya opium 0.1000000
haitoi prescribe 1.0000000
Jean-Marie Le 0.5000000
Pen Le 0.5000000
uwezekano possibilities 1.0000000
Angelica Angelica 1.0000000
wanaumia hurt 0.4000000
huumiza hurt 0.2000000
utaumiza hurt 0.2000000
zitaumiza hurt 0.2000000
zinazowasiliana &apos; 0.0149254
NULL &apos; 0.1194030
`` &apos; 0.0298507
kitaifa &apos; 0.0149254
wakiashiria &apos; 0.0149254
turejeshe &apos; 0.0149254
&apos; &apos; 0.7014925
uliwachochea &apos; 0.0149254
Allies &apos; 0.0149254
iligonga &apos; 0.0149254
hautasimama &apos; 0.0149254
unazidisha &apos; 0.0149254
Britons &apos; 0.0149254
unapoteza loses 1.0000000
mbili twice 0.4000000
iliibuka twice 0.1000000
mara twice 0.5000000
Thatcher Thatcher 0.5000000
alifanya Thatcher 0.5000000
epithe epithets 1.0000000
mbuga recreational 1.0000000
usoni facial 1.0000000
akiwa home 0.0217391
NULL home 0.0869565
nyumba home 0.1521739
kwa home 0.0217391
nyumbani home 0.7173913
21 21 0.6666667
kati 21 0.3333333
duniani emitter 0.5000000
chapa emitter 0.5000000
maalum specialized 1.0000000
UNEP UNEP 1.0000000
kwa partial 0.2857143
ubadilishaji partial 0.1428571
kutangaza partial 0.1428571
waligonga partial 0.1428571
sehemu partial 0.2857143
wamekubaliana warily 0.3333333
wawili warily 0.3333333
umejiona warily 0.3333333
ulijumuisha consisted 0.3333333
imejumuisha consisted 0.3333333
hotuba consisted 0.3333333
walipelekwa dispatched 1.0000000
NULL obtain 0.2500000
kupata obtain 0.7500000
kuzika abrogate 0.5000000
mikataba abrogate 0.5000000
uwekezaji investment-grade 0.2500000
kiwango investment-grade 0.7500000
wawili candidates 0.0833333
wagombea candidates 0.7500000
wa candidates 0.0416667
wagombeaji candidates 0.1250000
kupigia ostentatious 1.0000000
ulikuwa Lankan 0.5000000
Lankan Lankan 0.5000000
250 250 1.0000000
unashangaa wonders 0.3333333
maajabu wonders 0.6666667
Paso residents 0.3333333
wakaazi residents 0.6666667
hubadilisha forcibly 0.2000000
kuwazuia forcibly 0.2000000
nguvu forcibly 0.2000000
wamewahamisha forcibly 0.2000000
kubadilishwa forcibly 0.2000000
kuleta unbalance 0.2500000
usio unbalance 0.2500000
kati unbalance 0.2500000
sawa unbalance 0.2500000
udhaifu subjectively 1.0000000
magereza prisons 1.0000000
Opium corrupting 0.5000000
inaharibu corrupting 0.5000000
zilizobadilishwa genetically 1.0000000
Hess Hess 1.0000000
0.05 0.05 1.0000000
Durão Durão 1.0000000
waliohusika implicated 0.5000000
na implicated 0.5000000
nyuzi Celsius 1.0000000
zilifikia totaled 0.2500000
yalikuwa totaled 0.2500000
NULL totaled 0.2500000
uliogharimu totaled 0.2500000
blunders blunders 0.2500000
za blunders 0.5000000
blibers blunders 0.2500000
mithali proverbial 0.2500000
kidokezo proverbial 0.2500000
cha proverbial 0.2500000
kipepeo proverbial 0.2500000
adui ur-enemy 0.5000000
karibu ur-enemy 0.5000000
wenyeji natives 1.0000000
hupunguza limits 0.0476190
mipaka limits 0.9047619
unapunguza limits 0.0476190
watetezi defenders 0.6666667
vile defenders 0.3333333
virtual commons 1.0000000
kwenye trapped 0.2857143
waliyenaswa trapped 0.1428571
na trapped 0.1428571
wameshikwa trapped 0.2857143
wamekamatwa trapped 0.1428571
cream cream 1.0000000
IBM IBM 0.5000000
ili IBM 0.5000000
zote almighty 0.3333333
mtumiaji almighty 0.3333333
nguvu almighty 0.3333333
Mchana afternoon 0.5000000
adhuhuri afternoon 0.5000000
mkubwa extreme 0.0833333
kali extreme 0.0833333
iliyokithiri extreme 0.0833333
uliokithiri extreme 0.1666667
mbaya extreme 0.1666667
hafla extreme 0.0833333
waliokithiri extreme 0.0833333
NULL extreme 0.1666667
kubwa extreme 0.0833333
damu bloodshed 0.5000000
umwagaji bloodshed 0.5000000
kutenga allocated 0.2500000
yatalazimika allocated 0.2500000
Tuligawa allocated 0.2500000
kugawiwa allocated 0.2500000
hiki automatic 0.2000000
cha automatic 0.2000000
utulivu automatic 0.2000000
kiimarishaji automatic 0.2000000
yanaanguka automatic 0.2000000
yamevuja leaked 0.5000000
iliyovuja leaked 0.5000000
kujikuta somewhat 0.0833333
na somewhat 0.1666667
kiasi somewhat 0.0833333
sumu somewhat 0.0833333
maoni somewhat 0.0833333
zilikatisha somewhat 0.0833333
fulani somewhat 0.1666667
mpatanishi somewhat 0.0833333
NULL somewhat 0.0833333
inaimarisha somewhat 0.0833333
kugawa allocating 1.0000000
VeriSign VeriSign 1.0000000
zilitengwa life 0.0166667
maishani life 0.0166667
NULL life 0.0333333
uhai life 0.0166667
maisha life 0.9166667
hawatamaliza finish 1.0000000
ushindani slack 0.3333333
dhaifu slack 0.3333333
utabaki slack 0.3333333
Ushirikiano Cooperation 0.5000000
zimetaka Cooperation 0.5000000
kufutwa cancellation 0.5000000
kwa cancellation 0.5000000
hadithi-hadithi blockbuster 1.0000000
kipekee exceptional 0.6000000
kawaida exceptional 0.1000000
za exceptional 0.3000000
Croats Croats 1.0000000
Mabomu bombs 0.2000000
mabomu bombs 0.6000000
150,000 bombs 0.2000000
kipindupindu cholera 1.0000000
wamebuni zapped 1.0000000
kutaingiza usher 0.2500000
kuleta usher 0.2500000
wakati usher 0.2500000
itaongeza usher 0.2500000
lishe dietary 1.0000000
kidemokrasia democratically 0.5000000
waliochaguliwa democratically 0.1666667
aliyechaguliwa democratically 0.3333333
Warumi deporting 1.0000000
NULL public 0.0056180
umma public 0.9719101
wanaothaminiwa public 0.0056180
hadhara public 0.0112360
walionekana public 0.0056180
kupunguza dampening 1.0000000
extradition extradition 1.0000000
kwenye donkey 0.5000000
punda donkey 0.5000000
hifadhi reserves 0.1538462
hazina reserves 0.0769231
akiba reserves 0.6923077
ya reserves 0.0769231
dereva driver 0.7500000
mkuu driver 0.2500000
ilileta unintended 1.0000000
Uwezo ability 0.0344828
uwezo ability 0.8620690
Dreamliner ability 0.0344828
kuzishughulikia ability 0.0344828
walipaji ability 0.0344828
kutafuta sought 0.1538462
ulitaka sought 0.0769231
walitafuta sought 0.2307692
waliwachana sought 0.0769231
vikitafuta sought 0.0769231
walitaka sought 0.0769231
alitaka sought 0.1538462
ametafuta sought 0.0769231
ametaka sought 0.0769231
muktadha subtext 1.0000000
kuanzia-mwaka kick-starting 1.0000000
kushuka recession-induced 1.0000000
kinachozidi worrisome 0.3333333
mbaya worrisome 0.6666667
ambalo wastelands 0.5000000
lililoharibiwa wastelands 0.5000000
mimba conceive 0.5000000
tunachukua conceive 0.5000000
kukusanya collect 0.5000000
itakusanya collect 0.5000000
itatoa undertakes 1.0000000
kuwa stable 0.0625000
imara stable 0.0625000
NULL stable 0.1250000
wa stable 0.1250000
zenye stable 0.1875000
ufafanuzi stable 0.0625000
utulivu stable 0.1250000
thabiti stable 0.2500000
Hungary Hungary 1.0000000
duka supermarket 0.5000000
kubwa supermarket 0.5000000
Jim Jim 1.0000000
Palestina Palestine 0.9523810
kuigawa Palestine 0.0476190
sasa meantime 0.2000000
huu meantime 0.3000000
wakati meantime 0.4000000
huo meantime 0.1000000
ubinafsi individualism 0.3333333
usiojitokeza individualism 0.3333333
binafsi individualism 0.3333333
zenye originally 0.1428571
iliyobuniwa originally 0.1428571
walionyatia originally 0.1428571
ilitumiwa originally 0.1428571
walipewa originally 0.1428571
awali originally 0.2857143
miaka 150-year 0.3333333
150 150-year 0.3333333
bahati 150-year 0.3333333
haitaangushwa torpedoed 1.0000000
kiwanda solar-power 1.0000000
kurudia armies 1.0000000
30 30-40 1.0000000
95,000 95,000 0.5000000
zilifutwa 95,000 0.5000000
matope muddle 1.0000000
misaada aids 0.6666667
inaendelea aids 0.3333333
linafanya misbehaves 0.5000000
vibaya misbehaves 0.5000000
kwa crackdown 1.0000000
Mafundisho Doctrine 0.5000000
Kutawanywa Doctrine 0.5000000
wanaume males 1.0000000
kupalilia weed 1.0000000
za swaths 0.5000000
zilizopuuzwa swaths 0.2500000
likizo swaths 0.2500000
Kifaransa French 0.0357143
wafaransa French 0.0178571
Wafaransa French 0.0892857
Ufaransa French 0.7678571
mwenyeji French 0.0178571
Semiti French 0.0178571
Mfaransa French 0.0357143
kifaransa French 0.0178571
haki dues 1.0000000
mazao high-quality 1.0000000
kukuza nurture 0.5000000
ili nurture 0.5000000
Matruk Matruk 1.0000000
na instrumental 0.5000000
msaada instrumental 0.5000000
mjanja. clever 1.0000000
ripoti distressing 0.5000000
vinavyosumbua distressing 0.5000000
profesa gentle 1.0000000
scapegoat scapegoat 0.5000000
muhimu scapegoat 0.5000000
hawajasumbuka bothered 1.0000000
afanye constitutionally 0.3333333
Mfalme constitutionally 0.3333333
hayo constitutionally 0.3333333
sheria conform 0.3333333
walilazimishwa conform 0.3333333
watafuata conform 0.3333333
kukubali accept 0.6923077
zinakubali accept 0.0384615
kuwakubali accept 0.0384615
ukubali accept 0.0769231
wangekubali accept 0.0384615
akubali accept 0.0384615
ikubali accept 0.0384615
NULL accept 0.0384615
hautatokea whoever 0.3333333
mtu whoever 0.3333333
yeyote whoever 0.3333333
Amerika-wa pro-American 1.0000000
inayoelekeza directed 0.1666667
kuelekezwa directed 0.3333333
iliyoelekezwa directed 0.1666667
vilielekeza directed 0.1666667
umeelekezwa directed 0.1666667
tena renegotiations 0.5000000
upatanishi renegotiations 0.5000000
upatanishi polarization 1.0000000
uwanja fielding 1.0000000
inasikitisha dismaying 1.0000000
wazungu whites 1.0000000
kuvunja bridge 0.3333333
kuziba bridge 0.1666667
daraja bridge 0.3333333
ambalo bridge 0.1666667
za overdoses 0.5000000
kulevya overdoses 0.5000000
kwamba thoughts 0.5000000
maoni thoughts 0.5000000
waridi warrants 0.5000000
itasababisha warrants 0.5000000
hali alarming 0.5000000
12 alarming 0.5000000
kambi camp 1.0000000
1956 1956 1.0000000
iligundua 22 0.3333333
22 22 0.6666667
vimegunduliwa discover 0.5000000
hugundua discover 0.5000000
kuzuia restrain 1.0000000
wanajali concerned 0.0454545
alijali concerned 0.0454545
inayohusika concerned 0.0454545
vinajali concerned 0.0454545
NULL concerned 0.0454545
wanaohusika concerned 0.0909091
sana concerned 0.0909091
wasiwasi concerned 0.0909091
na concerned 0.1363636
zinajali concerned 0.0454545
haionekani concerned 0.0454545
yanavyohusika concerned 0.0454545
anayejali concerned 0.0454545
ilihusu concerned 0.0454545
zinazohusika concerned 0.0909091
unahusika concerned 0.0454545
NGOs NGOs 1.0000000
watangazaji broadcasters 1.0000000
njia land-management 1.0000000
huruma charity 0.3333333
Oxfam-Kimataifa charity 0.3333333
mkuu charity 0.3333333
upungufu food-deficit 1.0000000
kibinafsi toll 0.1666667
ushuru toll 0.1666667
NULL toll 0.1666667
akiunga toll 0.1666667
barabara toll 0.1666667
zilizofadhiliwa toll 0.1666667
ugunduzi discovery 1.0000000
zinajihusisha engage 0.0769231
kujiingiza engage 0.2307692
tuishirikishe engage 0.0769231
kuhusika engage 0.1538462
Tunapojishughulisha engage 0.0769231
utahusika engage 0.0769231
na engage 0.1538462
kushirikisha engage 0.1538462
hadi Oxfam-International 0.3333333
hisani Oxfam-International 0.3333333
Oxfam-Kimataifa Oxfam-International 0.3333333
ODS ties 0.0833333
utambulisho ties 0.0833333
uhusiano ties 0.5000000
hauna ties 0.0833333
tumeunganishwa ties 0.0833333
mahusiano ties 0.0833333
na ties 0.0833333
wahamiaji expatriate 0.3333333
ushiriki expatriate 0.3333333
Waafghanistan expatriate 0.3333333
NULL window 0.2500000
punguzo window 0.2500000
dirisha window 0.5000000
cha nervous 0.2000000
na nervous 0.2000000
neva nervous 0.6000000
NULL commit 0.1428571
kuifanya commit 0.1428571
wanaotenda commit 0.1428571
haikuifanya commit 0.1428571
kujitolea commit 0.2857143
yanafanya commit 0.1428571
wameazimia resolute 1.0000000
udhaifu weaknesses 1.0000000
idhini approvals 1.0000000
Archie Archie 1.0000000
la renunciation 1.0000000
cha Article 0.6000000
Kifungu Article 0.4000000
Iran Iran 0.4285714
Irani Iran 0.5510204
NULL Iran 0.0204082
ubunifu innovations 0.1666667
uvumbuzi innovations 0.6666667
wa innovations 0.1666667
ukuaji economic-growth 1.0000000
Mahakama Criminal 0.4000000
Jinai Criminal 0.2000000
Korti Criminal 0.2000000
kimataifa Criminal 0.2000000
haki highlights 0.5000000
inaangazia highlights 0.5000000
uandishi write-downs 1.0000000
Eunice Eunice 1.0000000
kila infrastructure 0.0222222
miundombinu infrastructure 0.9777778
Sura Chapter 1.0000000
alipohusika Corzine 0.2500000
Corzine Corzine 0.5000000
ukiukwaji Corzine 0.2500000
kuyeyuka melt 0.3333333
ingeyeyuka melt 0.3333333
kuyeyusha melt 0.3333333
maoni standpoint 1.0000000
kwake disenchantment 0.5000000
kufurahishwa disenchantment 0.5000000
yasiyopigwa no-take 0.1666667
hayatekelezwi no-take 0.1666667
yasiyokuwa no-take 0.1666667
yasiyoweza no-take 0.1666667
hayatapona no-take 0.1666667
kuchukua no-take 0.1666667
Wanadhalilishwa reviled 1.0000000
kupanga organize 0.7500000
kuandaa organize 0.2500000
waliopotea losers 0.5000000
wakosefu losers 0.5000000
Kusaidia Plan 0.3333333
wa Plan 0.3333333
Schuman Plan 0.3333333
mtu fairer 0.3333333
mzuri fairer 0.6666667
darasani classroom 1.0000000
akikataa rejecting 0.5000000
wanakataa rejecting 0.5000000
wateule appointees 1.0000000
kali tighter 0.1666667
vilivyo tighter 0.1666667
kiambatisho tighter 0.1666667
kona tighter 0.1666667
zaidi tighter 0.1666667
kadiri tighter 0.1666667
vifaa water-treatment 0.3333333
kutibu water-treatment 0.3333333
maji water-treatment 0.3333333
mapapa apes 0.1250000
nyani apes 0.8125000
hai apes 0.0625000
aliingia entered 0.1428571
unaingizwa entered 0.1428571
umeanza entered 0.1428571
walipoingia entered 0.1428571
katika entered 0.1428571
kutumika entered 0.1428571
imeingia entered 0.1428571
ipasavyo appropriately 0.2500000
vile appropriately 0.2500000
yametiliwa appropriately 0.2500000
vikielekezwa appropriately 0.2500000
uchoraji carve-up 1.0000000
NULL control 0.0652174
ikaletwa control 0.0217391
wanadhibiti control 0.0652174
udhibiti control 0.6304348
kuidhibiti control 0.0217391
wa control 0.0217391
kudhibiti control 0.1739130
aina kinds 0.7000000
gani kinds 0.1000000
kila kinds 0.2000000
Blogi Bloc 1.0000000
firework Cai 0.5000000
Guo Cai 0.5000000
itaanza reason 0.0250000
sababu reason 0.9750000
kawaida asymmetrical 1.0000000
Kiongozi Majority 1.0000000
mhamiaji immigrant 0.2500000
wahamiaji immigrant 0.5000000
anayeishi immigrant 0.2500000
za videos 0.5000000
video videos 0.5000000
haifanyi worked 0.0303030
ilifanya worked 0.0909091
masaa worked 0.0303030
yaliyofanya worked 0.0606061
umefanya worked 0.0303030
tumejitahidi worked 0.0303030
kimefanya worked 0.0303030
kutekelezwa worked 0.0303030
waliofanya worked 0.0303030
kazi worked 0.4848485
Thatcher worked 0.0303030
haujafanya worked 0.0303030
hakujafanya worked 0.0303030
zilifanya worked 0.0303030
uliyotekelezwa worked 0.0303030
ingekuwa todisplace 0.5000000
za todisplace 0.5000000
msomi scholar 0.6666667
mkuu scholar 0.3333333
concoction tooth-eroding 0.5000000
inayojaza tooth-eroding 0.5000000
Saudia counteroffensive 1.0000000
burudani parks 0.5000000
za parks 0.5000000
FTA Korea 0.0500000
Korea Korea 0.9500000
arifu notification 1.0000000
iliyokufa dying 0.5000000
kufa dying 0.5000000
wakirudishwa gossip 1.0000000
NULL milieu 1.0000000
! devotion 1.0000000
kuandika illiteracy 0.4000000
kusoma illiteracy 0.2000000
kutojua illiteracy 0.2000000
ukosefu illiteracy 0.2000000
kukosea offend 1.0000000
mvutano tension 0.7500000
huonekana tension 0.2500000
1860s 1860s 1.0000000
Jaji Justice 0.2727273
Harakati Justice 0.0909091
haki Justice 0.0909091
Justice Justice 0.1818182
Juu Justice 0.0909091
kilikuta Justice 0.0909091
Sheria Justice 0.1818182
mgawanyiko fragmentation 0.5000000
kugawanyika fragmentation 0.5000000
zina ages 1.0000000
ya corrective 0.2500000
marekebisho corrective 0.5000000
kusahihisha corrective 0.2500000
kufanikiwa prosper 1.0000000
zilikatisha teams 0.0833333
timu teams 0.4166667
za teams 0.5000000
ya generational 0.5000000
kipindi generational 0.5000000
Ds Ds 1.0000000
Marseilles Marseilles 1.0000000
mjadala debacle 0.4000000
iliyobaki debacle 0.2000000
NULL debacle 0.2000000
sehemu debacle 0.2000000
vita interwar 1.0000000
kibinafsi. highly 0.0270270
yamegawanyika highly 0.0270270
Mbwau highly 0.0270270
zinalisha highly 0.0270270
mkubwa highly 0.0270270
alianzisha highly 0.0270270
hayatabiriki highly 0.0270270
chanjo highly 0.0270270
hayatakuwa highly 0.0270270
dhima highly 0.0270270
tete highly 0.0270270
inajeshi highly 0.0270270
inaangamiza highly 0.0270270
sana highly 0.3513514
NULL highly 0.1621622
ni highly 0.0270270
inayofanikiwa highly 0.0270270
unatumika highly 0.0270270
waelimishaji highly 0.0270270
SDR highly 0.0270270
karanga nuts 1.0000000
Waholanzi Dutch 0.0666667
Uholanzi Dutch 0.9333333
Deutsche Deutsche 1.0000000
mazingira ecological 0.2000000
kiikolojia ecological 0.6000000
uendelevu ecological 0.2000000
za allowances 0.5000000
posho allowances 0.5000000
unaohitajika much-needed 0.2000000
sana much-needed 0.4000000
yanayohitajika much-needed 0.2000000
kituo much-needed 0.2000000
utulivu Market-stabilizing 0.5000000
kuleta Market-stabilizing 0.5000000
asilimia percent 1.0000000
of Gang 0.5000000
Gang Gang 0.5000000
utajiri uranium 0.2000000
NULL uranium 0.1000000
urani uranium 0.7000000
kumwomba petitioning 1.0000000
Orontes Orontes 1.0000000
lambast lambast 1.0000000
ulihitimishwa Hitler-Stalin 1.0000000
jukumu responsibilities 0.1000000
yaliyokubaliwa responsibilities 0.1000000
majukumu responsibilities 0.8000000
ujazo fluid 0.5000000
Tunawezaje fluid 0.5000000
tani ton 1.0000000
wa budgetary 0.2857143
bajeti budgetary 0.5714286
Bajeti budgetary 0.1428571
hamsini Fifty-four 1.0000000
Mpango G-8 0.1111111
tangazo G-8 0.1111111
G-8 G-8 0.7777778
ziliongezea tomatoes 0.2000000
ya tomatoes 0.2000000
nyanya tomatoes 0.6000000
wagonjwa patients 1.0000000
inafurahiya enjoying 0.1428571
wanafurahiya enjoying 0.1428571
hakuifurahia enjoying 0.1428571
hivi enjoying 0.1428571
anafurahia enjoying 0.1428571
chini enjoying 0.1428571
dhahiri enjoying 0.1428571
yaliyoainishwa outlined 1.0000000
mradi prudently 0.5000000
inadhibitiwa prudently 0.5000000
vibaya bitterly 0.5000000
iliyogawanywa bitterly 0.5000000
za defects 0.5000000
kasoro defects 0.5000000
NULL neutralizing 0.5000000
kukosa neutralizing 0.5000000
dhiki tribulations 1.0000000
wa blossom 0.5000000
peach blossom 0.5000000
inasisitiza insists 1.0000000
wakilalamisha aping 1.0000000
Ukombozi Liberation 1.0000000
njia upside 0.2000000
ushuru upside 0.2000000
kukabili upside 0.2000000
kugharimia upside 0.2000000
kichwa upside 0.2000000
iliyoonyeshwa marked 0.1000000
alama marked 0.2000000
ilikuwa marked 0.1000000
kulikuwa marked 0.1000000
NULL marked 0.1000000
uliashiria marked 0.2000000
iliyo marked 0.1000000
lilionyesha marked 0.1000000
huenea spill 0.3333333
kuteleza spill 0.3333333
zinamwagika spill 0.3333333
yataleta engender 1.0000000
alisema provision 0.1000000
cha provision 0.3000000
utoaji provision 0.4000000
upeanaji provision 0.2000000
kura ballot 0.4000000
sanduku ballot 0.3000000
la ballot 0.3000000
mazao delicacies 1.0000000
isiyo opaque 0.5000000
opaque opaque 0.5000000
Petersburg Petersburg 1.0000000
tena rein 0.2500000
Afadhali rein 0.2500000
kushindwa rein 0.2500000
kuongeza rein 0.2500000
wanaoteseka suffered 0.0909091
haukulipwa suffered 0.0909091
NULL suffered 0.3636364
wameteseka suffered 0.0909091
ziliteseka suffered 0.0909091
wamepata suffered 0.0909091
imepata suffered 0.0909091
zilipata suffered 0.0909091
kujadiliwa debatable 0.5000000
inajadiliwa debatable 0.5000000
maelewano harmony 1.0000000
unaoongozwa spearheaded 0.3333333
inayoongozwa spearheaded 0.3333333
waliongoza spearheaded 0.3333333
imeendelea continued 0.0333333
iliendelea continued 0.0333333
kuungwa continued 0.0333333
inayoendelea continued 0.1000000
kutokuendelea continued 0.0333333
kuendelea continued 0.2000000
wameendelea continued 0.0333333
na continued 0.0333333
inaendelea continued 0.0333333
aliendelea continued 0.0666667
kutengwa continued 0.0333333
unaoendelea continued 0.1333333
NULL continued 0.0666667
ameendelea continued 0.0333333
msaada continued 0.0333333
Tumeendelea continued 0.0333333
endelevu continued 0.0333333
uliendelea continued 0.0333333
kulazimishwa isforced 1.0000000
ushirika cooperative 0.2222222
vya cooperative 0.1111111
na cooperative 0.1111111
kushirikiana cooperative 0.4444444
vyama cooperative 0.1111111
kukosoa criticize 0.6000000
hakuwakosoa criticize 0.2000000
wanakosoa criticize 0.2000000
bomoa buffer 1.0000000
inajikuta finds 0.5000000
haina finds 0.2500000
kinapata finds 0.2500000
kuharibiwa damaged 0.1428571
zilizoharibika damaged 0.1428571
zimeharibiwa damaged 0.2857143
vibaya damaged 0.2857143
zilizoharibiwa damaged 0.1428571
yamepuuzwa. been 0.0031746
zimekuwa been 0.0190476
hazijawahi been 0.0031746
tumekuwa been 0.0063492
umeandaliwa been 0.0031746
wamekuwa been 0.0285714
waliwekwa been 0.0031746
haujafikishwa been 0.0031746
imesemwa been 0.0031746
umekuwa been 0.0222222
umepewa been 0.0031746
walidhani been 0.0031746
kuteuliwa been 0.0031746
iliahidiwa been 0.0031746
zimebadilishwa been 0.0031746
imekosolewa been 0.0031746
kuandikwa been 0.0031746
zimepuuzwa been 0.0031746
imeshindwa been 0.0031746
wamepewa been 0.0063492
kumepuuzwa been 0.0031746
kuepukwa been 0.0031746
umepatikana been 0.0031746
zimeharibiwa been 0.0031746
wameungwa been 0.0031746
yamepuuzwa been 0.0031746
imebadilishwa been 0.0031746
ungekuwa been 0.0031746
haijafikiwa been 0.0031746
wamefufuliwa been 0.0031746
zimeonekana been 0.0031746
ingekuwa been 0.0063492
imewakilishwa been 0.0031746
umejikita been 0.0031746
umezingatia been 0.0031746
kungewezekana been 0.0063492
amechaguliwa been 0.0031746
zimevunjwa been 0.0031746
yakiongozwa been 0.0031746
haijawa been 0.0031746
wamesikitishwa been 0.0031746
0.7 been 0.0031746
wangetangazwa been 0.0031746
yamebadilishwa been 0.0031746
wameachwa been 0.0031746
kilichotamkwa been 0.0031746
umekataliwa been 0.0031746
zikikua been 0.0031746
vimejengwa been 0.0031746
haijawahi been 0.0095238
umehojiwa been 0.0031746
imeshachukuliwa been 0.0031746
vimeongezwa been 0.0031746
na been 0.0222222
kumepotea been 0.0031746
wameshindwa been 0.0031746
umechoshwa been 0.0031746
haijabadilishwa been 0.0031746
limekuwa been 0.0063492
kungekuwa been 0.0063492
wamehifadhiwa been 0.0031746
NULL been 0.0698413
imeelekezwa been 0.0031746
kinachoonekana been 0.0031746
limechukuliwa been 0.0031746
isingekubalika been 0.0031746
zimehamasishwa been 0.0031746
mzito been 0.0031746
haujaathiriwa been 0.0031746
imetokea been 0.0031746
unakadiriwa been 0.0031746
hayajawahi been 0.0031746
umeahidiwa been 0.0031746
mguu been 0.0031746
yamefikiwa been 0.0031746
umedhamiriwa been 0.0031746
imechorwa been 0.0031746
zimerekebishwa been 0.0031746
zimeripotiwa been 0.0031746
umechelewa been 0.0031746
Imeinuliwa been 0.0031746
zimeshikwa been 0.0031746
vimetokana been 0.0031746
kimefanywa been 0.0031746
umetumika been 0.0031746
msingi been 0.0031746
imekuwa been 0.1523810
ameshtumiwa been 0.0031746
akifanya been 0.0063492
zimeachwa been 0.0031746
imejitolea been 0.0063492
amekuwa been 0.0222222
wamepumbazwa been 0.0031746
kimekuwa been 0.0158730
limepunguzwa been 0.0031746
yametolewa been 0.0031746
isingekuwa been 0.0031746
imefanywa been 0.0031746
vimewekwa been 0.0031746
wamejitolea been 0.0031746
hakuweza been 0.0031746
yamepatikana been 0.0063492
kingefikiwa been 0.0031746
ungeweza been 0.0031746
yamekuwa been 0.0253968
umefanywa been 0.0031746
yamekwisha been 0.0031746
yakidai been 0.0031746
zimetekelezwa been 0.0063492
imeshatolewa been 0.0031746
zimewajibika been 0.0031746
kuwasilisha been 0.0031746
ilikuwa been 0.0031746
wamefanywa been 0.0031746
limekataliwa been 0.0031746
wameuawa been 0.0031746
kuwa been 0.0222222
yameandikwa been 0.0031746
ilivyodhaniwa been 0.0031746
amezuiliwa been 0.0031746
Imekuwa been 0.0031746
mpendwa been 0.0031746
imetokana been 0.0031746
kimekatwa been 0.0031746
umekadiriwa been 0.0031746
yameegemea been 0.0031746
umeendeshwa been 0.0031746
kumekuwa been 0.0349206
umeongezewa been 0.0031746
zimechaguliwa been 0.0031746
umeibuka been 0.0031746
wamerudia been 0.0031746
lingezinduliwa been 0.0031746
iliyokukatisha been 0.0031746
hakukuwa been 0.0031746
angeweza been 0.0031746
ingewezekana been 0.0031746
imeshambuliwa been 0.0031746
yamejazwa been 0.0031746
Nimekuwa been 0.0031746
wakifanya been 0.0031746
umekusanywa been 0.0031746
zimekamilika been 0.0031746
likiwa been 0.0031746
limeshindwa been 0.0031746
umechomwa been 0.0031746
iliyofanyika been 0.0031746
zimefadhiliwa been 0.0031746
umehesabiwa been 0.0031746
angekuwa been 0.0063492
zimejeruhiwa been 0.0031746
haujaenea been 0.0031746
hakijafanywa been 0.0031746
anafadhili been 0.0031746
imeshamiriwa been 0.0031746
kilivyokuwa been 0.0031746
kimefanikiwa been 0.0031746
imekiukwa been 0.0031746
haijafanikiwa been 0.0031746
yamevuja been 0.0031746
angalikuwa been 0.0031746
halijapata been 0.0031746
zimeondolewa been 0.0031746
imeonekana been 0.0031746
imefanikiwa been 0.0031746
ilivyokuwa been 0.0063492
yamefikia been 0.0031746
umekaribishwa been 0.0031746
haijapata been 0.0031746
yametokana been 0.0031746
viwili been 0.0031746
wahasiriwa been 0.0031746
limeshughulikiwa been 0.0031746
kudharauliwa been 0.0031746
wamealikwa been 0.0031746
kazi weaned 0.5000000
wataachishwa weaned 0.5000000
nyigu wasps 1.0000000
zitahitaji need 0.0096154
itahitaji need 0.0336538
hawahitaji need 0.0096154
hazihitaji need 0.0096154
haitaji need 0.0048077
hauitaji need 0.0048077
ingehitajika need 0.0048077
haziitaji need 0.0144231
wanapowahitaji need 0.0048077
tutahitaji need 0.0096154
mahitaji need 0.0096154
zinahitaji need 0.0865385
watahitaji need 0.0144231
utahitaji need 0.0096154
haimaanishi need 0.0048077
hatuitaji need 0.0096154
ninayohitaji need 0.0048077
kujengwa need 0.0048077
unahitaji need 0.0144231
kubuniwa need 0.0048077
haifai need 0.0048077
yanahitaji need 0.0240385
hitaji need 0.1538462
wanaohitaji need 0.0048077
Tunastahili need 0.0048077
NULL need 0.0721154
anahitaji need 0.0048077
ilihitaji need 0.0048077
Tunapaswa need 0.0048077
wanaihitaji need 0.0096154
tunayohitaji need 0.0048077
tunahitaji need 0.1346154
kuhitaji need 0.0240385
haiitaji need 0.0096154
la need 0.1346154
unaohitaji need 0.0048077
wanahitaji need 0.0625000
atahitaji need 0.0192308
huhitaji need 0.0048077
haja need 0.0432692
hatari menacing 0.5000000
kubwa menacing 0.5000000
kutegemea hang 0.5000000
kunyongwa hang 0.5000000
fidia compensation 1.0000000
maporomoko landslide 0.5000000
ardhi landslide 0.5000000
seli cells 1.0000000
AAA AAA-rated 0.5000000
zilizo AAA-rated 0.5000000
NULL chief 0.1333333
kosa chief 0.0666667
mtendaji chief 0.0666667
mkuu chief 0.5333333
mchumi chief 0.1333333
kuu chief 0.0666667
hati script 1.0000000
McVeigh McVeigh 1.0000000
unaozidisha multipolar 0.5000000
kimataifa multipolar 0.5000000
baraza council 0.4000000
la council 0.6000000
Midwest Midwest 1.0000000
Domingo Domingo 1.0000000
mfupi temporary 0.3200000
kuhimili temporary 0.0400000
L-1 temporary 0.0400000
kibadilisho temporary 0.0400000
posho temporary 0.0400000
kiraka temporary 0.0400000
uchangamano temporary 0.0400000
ilitangaza temporary 0.0400000
muda temporary 0.4000000
huleta ushers 1.0000000
Rio Rio 1.0000000
tunapotumia distasteful 0.5000000
mbaya distasteful 0.5000000
kufunga closing 0.7000000
kufungwa closing 0.1000000
ikifunga closing 0.1000000
kujifungia closing 0.1000000
. Weizmann 0.3333333
Weizmann Weizmann 0.6666667
Ulimwengu Hemisphere 1.0000000
atakuwa whomever 1.0000000
mchanganyiko mixture 1.0000000
aina sorts 0.2222222
mashaka sorts 0.1111111
unavyoibuka sorts 0.1111111
inachagua sorts 0.1111111
wakati sorts 0.1111111
kuwekewa sorts 0.1111111
kila sorts 0.2222222
Hamas Hamas 1.0000000
yote containing 0.2500000
iliyo containing 0.5000000
na containing 0.2500000
kutolewa siphoned 0.5000000
zimeripotiwa siphoned 0.5000000
Lanka Lanka 1.0000000
- else--fear 0.3333333
hofu else--fear 0.3333333
kingine else--fear 0.3333333
inatupa gives 0.1428571
inatoa gives 0.4285714
inawapa gives 0.1428571
inapea gives 0.1428571
kunawapa gives 0.1428571
aonyesha expresses 1.0000000
kuvaa wearing 0.3333333
kutovaa wearing 0.3333333
amevaa wearing 0.3333333
NULL fringe 1.0000000
Nest Nest 1.0000000
vifurushi bubbles 0.2500000
Bubble bubbles 0.1250000
vya bubbles 0.3750000
vifaa bubbles 0.1250000
vifaru bubbles 0.1250000
yamepungua median 1.0000000
ombi endorse 0.5000000
alikubaliana endorse 0.5000000
ujumbe deploying 0.1666667
kazi deploying 0.1666667
unapeleka deploying 0.1666667
tunatoa deploying 0.1666667
kupeleka deploying 0.3333333
kuna there 0.5552050
alikuwa there 0.0031546
panapokuwa there 0.0031546
huko there 0.0315457
na there 0.0157729
hakutakuwa there 0.0031546
uwezeshaji there 0.0031546
kulikuwa there 0.0536278
Wahutu there 0.0031546
makubaliano there 0.0031546
hakuna there 0.1104101
haijawahi there 0.0031546
hakukuwa there 0.0189274
kunawezaje there 0.0031546
kunapaswa there 0.0031546
hakujawahi there 0.0031546
kunakuwa there 0.0031546
kumekuwa there 0.0347003
unavyokuwa there 0.0031546
kutakuwa there 0.0378549
wanadamu there 0.0031546
haipaswi there 0.0031546
hakuwezi there 0.0063091
pale there 0.0063091
kunaweza there 0.0220820
hawapo there 0.0031546
ilivyokuwa there 0.0031546
hapo there 0.0189274
waliokaa there 0.0031546
NULL there 0.0283912
kungekuwa there 0.0063091
Mageuzi Reform 0.2000000
Marekebisho Reform 0.6000000
yenye Reform 0.2000000
mabaya evil 0.2000000
maovu evil 0.2000000
uovu evil 0.4000000
huo evil 0.2000000
dhabiti firm 0.3333333
madhubuti firm 0.3333333
kampuni firm 0.3333333
watu persons 0.5000000
uliyotekelezwa persons 0.2500000
kutoweka persons 0.2500000
ukali rudimentary 1.0000000
mbinguni abode 1.0000000
Honni Honni 1.0000000
mara horizon 0.1666667
karibu horizon 0.1666667
zote horizon 0.1666667
macho horizon 0.1666667
upeo horizon 0.3333333
msukumo impetus 1.0000000
sheria laws 0.8571429
za laws 0.1428571
inajumuisha incorporates 0.3333333
unajumuisha incorporates 0.3333333
kuingiza incorporates 0.3333333
kikubwa macro 0.3333333
ungethibitisha macro 0.3333333
kutumia macro 0.3333333
jambo crucially 0.5000000
sana crucially 0.5000000
idy idyll 1.0000000
maandishi textbook 0.5000000
zikawa textbook 0.5000000
Warsaw WARSAW 1.0000000
kuanza edgy 1.0000000
Simone Simone 1.0000000
, live 0.0277778
zilitumika live 0.0277778
huishi live 0.0277778
wanayoishi live 0.0555556
iishi live 0.0277778
itimize live 0.0277778
tunaishi live 0.1111111
kulingana live 0.0277778
kuishi live 0.4166667
wanaishi live 0.2500000
tena reassessed 0.5000000
yamepatikana reassessed 0.5000000
Europa Pax 0.5000000
Pax Pax 0.5000000
tena reassess 1.0000000
ya interests 0.3013699
maslahi interests 0.1917808
masilahi interests 0.4246575
NULL interests 0.0410959
Uturuki interests 0.0136986
mashauri interests 0.0136986
zako interests 0.0136986
kutisha tragic 0.3750000
mbaya tragic 0.2500000
kilisababisha tragic 0.1250000
cha tragic 0.2500000
upungufu contagion 0.5000000
upitishaji contagion 0.2500000
usumbufu contagion 0.2500000
kazi undertake 0.1000000
sikuweza undertake 0.1000000
hufanya undertake 0.1000000
kufanya undertake 0.5000000
kuchukua undertake 0.1000000
zitahitaji undertake 0.1000000
hazikuwekwa lay 0.1666667
wafanyakazi lay 0.1666667
wanapanga lay 0.1666667
kuweka lay 0.5000000
tunachoweza mitigate 0.2000000
ulipatikana mitigate 0.2000000
kupunguza mitigate 0.6000000
wanavyowatii obey 0.3333333
watawatii obey 0.3333333
baba obey 0.3333333
hujaribu de-legitimize 1.0000000
mikopo lending 0.0625000
NULL lending 0.0625000
watawala lending 0.0625000
kukopesha lending 0.8125000
NULL bloc 0.3333333
kambi bloc 0.6666667
silaha weapons 0.5825243
za weapons 0.4174757
mchezaji forceful 0.5000000
nguvu forceful 0.5000000
misiba tragedies 0.5000000
kuliambatana tragedies 0.5000000
Dragoslav Dragoslav 1.0000000
anakiri admits 1.0000000
1973 1973 1.0000000
psychopaths psychopaths 1.0000000
huko Berlin 0.0588235
Berlin Berlin 0.9411765
za domestic 0.0816327
itashuka domestic 0.0204082
kusanyiko domestic 0.0204082
nguvu domestic 0.0204082
imehalalisha domestic 0.0204082
inakuza domestic 0.0204082
NULL domestic 0.0612245
nyumbani domestic 0.1836735
hufafanua domestic 0.0204082
wa domestic 0.0408163
ndani domestic 0.4897959
mingi domestic 0.0204082
ulichukuliwa seriously 0.0322581
uzito seriously 0.1290323
sana seriously 0.0967742
kubwa seriously 0.0322581
umakini seriously 0.1935484
NULL seriously 0.0645161
kwa seriously 0.2903226
mzito seriously 0.0322581
kimeenda seriously 0.0322581
kinawalazimisha seriously 0.0322581
aliyewahi seriously 0.0322581
kuharibiwa seriously 0.0322581
Mkataba ABM-Treaty 0.2500000
ABM ABM-Treaty 0.7500000
bahari marine 0.2000000
yaliyolindwa marine 0.2000000
baharini marine 0.6000000
inapunguza curtails 1.0000000
huchukuliwa borne 0.5000000
inayopigwa borne 0.5000000
kuongeza tipped 0.5000000
wangeweza tipped 0.5000000
anachoita republic 0.5000000
jamhuri republic 0.5000000
cha unblock 0.2500000
kufungua unblock 0.2500000
kizuizi unblock 0.2500000
mfumo unblock 0.2500000
la fundamental 0.0526316
kabisa fundamental 0.0526316
cha fundamental 0.0526316
kimsingi fundamental 0.2631579
msingi fundamental 0.5789474
Kisiasa Intergovernmental 0.1428571
Serikali Intergovernmental 0.5714286
Jopo Intergovernmental 0.1428571
Kitaifa Intergovernmental 0.1428571
utangazaji hoc 1.0000000
unazidi intensifies 1.0000000
Wakaenda departed 0.5000000
hajaondoka departed 0.5000000
zilijiona saw 0.0526316
tulizoona saw 0.0526316
tulivyoona saw 0.1052632
mwanaume saw 0.0526316
waliona saw 0.2105263
Alimuona saw 0.0526316
hiyo saw 0.0526316
hawakuwahi saw 0.0526316
iliona saw 0.1052632
alipoona saw 0.0526316
NULL saw 0.1052632
aliona saw 0.0526316
elektroniki saw 0.0526316
tutawekeza invest 0.0625000
kuwekeza invest 0.8750000
hawawekeza invest 0.0625000
mwa onset 0.2500000
mwanzo onset 0.7500000
kamili incomplete 0.5000000
haujakamilika incomplete 0.5000000
ubaguzi Racism 1.0000000
mitazamo attitudes 0.8000000
mitizamo attitudes 0.2000000
Le Jean-Marie 1.0000000
hatua stage 0.6666667
uchumi stage 0.0666667
NULL stage 0.1333333
kuu stage 0.0666667
kituo stage 0.0666667
Silaha Reduction 0.2500000
za Reduction 0.2500000
Mikakati Reduction 0.5000000
kupitisha transcend 1.0000000
maoni opinion 0.8823529
za opinion 0.0882353
upigaji opinion 0.0294118
roho souls 1.0000000
fainali final 0.1538462
mwisho final 0.7692308
kuliacha final 0.0769231
vitafunio snouts 1.0000000
ukweli realities 0.0769231
hali realities 0.3846154
halisi realities 0.3076923
wanajibu realities 0.0769231
haikuonyesha realities 0.0769231
iliyoteswa realities 0.0769231
huo moments 0.1666667
Tunawezaje moments 0.1666667
wakati moments 0.3333333
vipindi moments 0.1666667
vya moments 0.1666667
ujamaa sanity 0.5000000
hali sanity 0.5000000
utaratibu systematically 0.2500000
inapotosha systematically 0.2500000
tulilinganisha systematically 0.2500000
mifumo systematically 0.2500000
kupata profitability 0.1666667
faida profitability 0.8333333
Alesina Alesina 1.0000000
laini elastic 1.0000000
zitaongezeka escalate 0.5000000
ikiwa escalate 0.5000000
wanabiolojia evolutionary 0.3333333
mabadiliko evolutionary 0.6666667
Zhu Zhu 1.0000000
Je With 0.3333333
na With 0.3333333
Pamoja With 0.3333333
Janus-wanakabiliwa Janus-faced 1.0000000
15-24 15-24 1.0000000
wanahatarisha risking 0.3333333
kuhatarisha risking 0.6666667
chakula cook 0.5000000
kupika cook 0.5000000
kilikuwa stimuli 1.0000000
dada youngest 0.3333333
wachanga youngest 0.3333333
mdogo youngest 0.3333333
visivyo non-tariff 0.5000000
vizuizi non-tariff 0.5000000
Islamabad Islamabad 1.0000000
kukabiliana adapting 0.3333333
kuzoea adapting 0.6666667
wapatao admit 0.2000000
ikubali admit 0.2000000
wanavyokubali admit 0.2000000
tukubali admit 0.2000000
kukubali admit 0.2000000
Zhang Zhang 1.0000000
collar blue-collar 0.6666667
bluu blue-collar 0.3333333
unakusaliti betray 1.0000000
hautamaanisha ABM 0.2000000
kupotea ABM 0.2000000
ABM ABM 0.6000000
kukataza forbid 1.0000000
kuanzisha introduce 0.4285714
zinaanzisha introduce 0.1428571
Wangeanzisha introduce 0.1428571
itaanzisha introduce 0.1428571
tutaanzisha introduce 0.1428571
kazi task 0.5714286
jukumu task 0.2142857
haitakuwa task 0.0714286
uliyonayo task 0.0714286
Cheki task 0.0714286
kuamua determining 1.0000000
nzuri effusive 1.0000000
hazishangazi flaws 0.2000000
dosari flaws 0.6000000
ambazo flaws 0.2000000
kinyama interruption 0.3333333
wa interruption 0.3333333
ujira interruption 0.3333333
mzuri disposed 0.5000000
kubadilika disposed 0.5000000
inashikilia embraces 0.3333333
inajumuisha embraces 0.6666667
ulimwenguni M. 0.1666667
M. M. 0.5000000
Nixon M. 0.1666667
tunaonyesha M. 0.1666667
ushirika unholy 0.5000000
usio unholy 0.5000000
umwagikaji Hamas-Hezbollah 1.0000000
anayeshughulikia life-support 1.0000000
msikilizaji listener 1.0000000
viboreshaji climbers 0.5000000
na climbers 0.5000000
hivi sequestering 1.0000000
dini recruiting 0.5000000
wanaounda recruiting 0.5000000
huongezeka mounts 0.5000000
huongeza mounts 0.5000000
mizozo schism 1.0000000
kelele screaming 0.5000000
kupiga screaming 0.5000000
mwanahistoria historian 1.0000000
kiasi ferocity 0.5000000
ukali ferocity 0.5000000
wasio unsecured 0.3333333
wadai unsecured 0.3333333
wasiohifadhiwa unsecured 0.3333333
itaongezeka disorderly 0.0909091
kusimamishwa disorderly 0.0909091
utulivu disorderly 0.0909091
kwa disorderly 0.0909091
kukimbilia disorderly 0.0909091
isiyo disorderly 0.0909091
NULL disorderly 0.0909091
kuvunjika disorderly 0.0909091
mbaya disorderly 0.1818182
lisilofaa disorderly 0.0909091
wanyama animal 0.1666667
mnyama animal 0.8333333
walilinganisha likened 1.0000000
nitrati nitrates 1.0000000
yakisonga PCA 0.1111111
wakati PCA 0.1111111
PCA PCA 0.7777778
Merkel Merkel 1.0000000
wanathamini cherish 0.5000000
tunathamini cherish 0.5000000
vizuri well-managed 0.5000000
inayosimamiwa well-managed 0.5000000
mauaji carnage 1.0000000
jumla freeing 1.0000000
Kupingana monarchism 1.0000000
itazidi situation 0.0370370
kushinda-kushinda situation 0.0185185
hiyo situation 0.1111111
hali situation 0.7962963
alizingatia situation 0.0185185
ilipungua situation 0.0185185
Wati Dispute 1.0000000
Ethiopia Ethiopian 0.6666667
la Ethiopian 0.3333333
itashikilia attach 1.0000000
NULL violated 0.1666667
kadhaa violated 0.1666667
imekiukwa violated 0.1666667
alikiuka violated 0.1666667
walikiuka violated 0.1666667
vilikiuka violated 0.1666667
Silicon Silicon 1.0000000
Baldwin Baldwin 1.0000000
kutuliza forestalling 1.0000000
Wakurds Kurds 0.1666667
Wakurdi Kurds 0.6666667
kujiamulia Kurds 0.1666667
qui qui 1.0000000
asiyetubu psychopath 0.5000000
akili psychopath 0.5000000
Darnton Darnton 0.6666667
unapungukiwa Darnton 0.3333333
ujanja deductive 0.5000000
kujitoa deductive 0.5000000
itakayokuwa 1945 0.1111111
1945 1945 0.8888889
ukarimu settlement 0.0833333
wa settlement 0.0833333
makazi settlement 0.2500000
ya settlement 0.0833333
italeta settlement 0.0833333
NULL settlement 0.0833333
hayatafikishwa settlement 0.0833333
yaliyojadiliwa settlement 0.0833333
nchi settlement 0.0833333
kufungia settlement 0.0833333
utadhoofisha belt-tightening 1.0000000
kumepuuzwa modification 0.5000000
muundo modification 0.5000000
kudai claim 0.1250000
wanaodai claim 0.0416667
madai claim 0.6250000
wanadai claim 0.0833333
zinadai claim 0.0833333
vidae claim 0.0416667
ya depreciation 0.6666667
malipo depreciation 0.3333333
kusababisha spark 1.0000000
Endelevu Sustainable 1.0000000
waya wiring 1.0000000
kuheshimu honoring 1.0000000
bei lower-price 1.0000000
hadithi mystique 1.0000000
wanatoa pose 0.1250000
matanzi pose 0.1250000
huwa pose 0.1250000
yanaleta pose 0.1250000
haionyeshi pose 0.1250000
kutaleta pose 0.1250000
huleta pose 0.1250000
watatoa pose 0.1250000
nzuri ideal 0.1818182
ubora ideal 0.0909091
mzuri ideal 0.0909091
wasipoteze ideal 0.0909091
bora ideal 0.4545455
taifa-jimbo ideal 0.0909091
Tunatumahi hope 0.0188679
Tunatumai hope 0.0377358
Natumai hope 0.0188679
matumaini hope 0.3773585
kutumaini hope 0.0377358
wanatumaini hope 0.0188679
tunatarajia hope 0.0188679
ninatumahi hope 0.0188679
wanatarajia hope 0.0188679
tutegemee hope 0.0377358
tumaini hope 0.3584906
kuwa hope 0.0377358
inayoitwa Roadmap 0.3333333
njia Roadmap 0.3333333
Njia Roadmap 0.3333333
mabadiliko transition 0.4074074
yanapoanza transition 0.0370370
ubadilishaji transition 0.0370370
mpito transition 0.4444444
tulipitia transition 0.0370370
postcommunist transition 0.0370370
mabadiliko adevolution 1.0000000
habeas habeas 0.5000000
uhuru habeas 0.5000000
kukandamiza repressive 1.0000000
angalia check 0.2857143
nawe check 0.1428571
kuangalia check 0.2857143
NULL check 0.1428571
mwani check 0.1428571
busara inept 1.0000000
unaopanuka widening 0.3333333
mapana widening 0.3333333
kupanua widening 0.3333333
Waco Waco 1.0000000
njia familiar 0.1428571
yataonekana familiar 0.1428571
wakijua familiar 0.1428571
inajulikana familiar 0.1428571
kawaida familiar 0.4285714
robo quarter-century 0.5000000
karne quarter-century 0.5000000
makusudi theonlyreal 0.5000000
la theonlyreal 0.5000000
akabuni overstretched 0.5000000
tena overstretched 0.5000000
marudio repetition 1.0000000
inasababisha underlies 1.0000000
lenye destabilized 0.3333333
eneo destabilized 0.3333333
utulivu destabilized 0.3333333
kuleta tap 0.3333333
ya tap 0.3333333
kupata tap 0.3333333
NULL swell 1.0000000
kuachana repelling 1.0000000
Austria Austria 1.0000000
wawekezaji investors 1.0000000
kumlaumu criticizes 1.0000000
cha Currency 0.3333333
Maeneo Currency 0.3333333
Fedha Currency 0.3333333
Melanne Melanne 1.0000000
Ilizungumzia referred 0.1666667
anatajwa referred 0.1666667
lilipeleka referred 0.1666667
kilirejelewa referred 0.1666667
amewahi referred 0.1666667
kusema referred 0.1666667
Ureno Portugal 1.0000000
kumi decade 0.0126582
mmoja decade 0.3924051
NULL decade 0.0126582
muongo decade 0.5696203
uliopita decade 0.0126582
kaskazini north 0.7142857
mwa north 0.2857143
biashara free-trade 0.3333333
