! ) ||| ! ) Ni ||| 0.6 0.2 0.2 0.2 0.2 0.6
! ) ||| ! ) ||| 0.777778 0.111111 0.111111 0.555556 0.111111 0.333333
! ||| ! ||| 0.674419 0.0232558 0.302326 0.953488 0.0232558 0.0232558
! ||| hivyo ! ||| 0.714286 0.142857 0.142857 0.714286 0.142857 0.142857
# 160 ; ||| # 160 ; ||| 0.968254 0.015873 0.015873 0.936508 0.015873 0.047619
# 160 ||| # 160 ||| 0.968254 0.015873 0.015873 0.968254 0.015873 0.015873
# 45 ; &amp; # 45 ; ||| # 45 ; &amp; # 45 ; ||| 0.777778 0.111111 0.111111 0.777778 0.111111 0.111111
# 45 ; &amp; # 45 ||| # 45 ; &amp; # 45 ||| 0.777778 0.111111 0.111111 0.777778 0.111111 0.111111
# 45 ; &amp; # ||| # 45 ; &amp; # ||| 0.777778 0.111111 0.111111 0.777778 0.111111 0.111111
# 45 ; &amp; ||| # 45 ; &amp; ||| 0.777778 0.111111 0.111111 0.777778 0.111111 0.111111
# 45 ; ||| # 45 ; ||| 0.866667 0.0666667 0.0666667 0.866667 0.0666667 0.0666667
# 45 ||| # 45 ||| 0.866667 0.0666667 0.0666667 0.866667 0.0666667 0.0666667
# ||| # ||| 0.974026 0.012987 0.012987 0.974026 0.012987 0.012987
$ 1.4 ||| $ 1.4 ||| 0.6 0.2 0.2 0.6 0.2 0.2
$ 35 ||| $ 35 ||| 0.6 0.2 0.2 0.6 0.2 0.2
$ ||| $ ||| 0.850932 0.00621118 0.142857 0.888199 0.00621118 0.10559
$ ||| cha dola ||| 0.6 0.2 0.2 0.2 0.2 0.6
$ ||| dola ||| 0.714286 0.00680272 0.278912 0.0340136 0.0204082 0.945578
$ ||| kuvunja rekodi ya dola ||| 0.2 0.2 0.6 0.2 0.2 0.6
$ ||| mizani zaidi ya $ ||| 0.2 0.2 0.6 0.6 0.2 0.2
$ ||| rekodi ya dola ||| 0.2 0.2 0.6 0.2 0.2 0.6
$ ||| ya $ ||| 0.454545 0.0909091 0.454545 0.636364 0.0909091 0.272727
$ ||| ya dola ||| 0.692308 0.0769231 0.230769 0.0769231 0.0769231 0.846154
$ ||| zaidi ya $ ||| 0.2 0.2 0.6 0.6 0.2 0.2
$ ||| ziada ya $ ||| 0.2 0.2 0.6 0.2 0.2 0.6
% ) ||| % ) ||| 0.6 0.2 0.2 0.6 0.2 0.2
% , respectively ||| % , mtawaliwa ||| 0.714286 0.142857 0.142857 0.714286 0.142857 0.142857
% , ||| % , ||| 0.942857 0.0285714 0.0285714 0.828571 0.0285714 0.142857
% , ||| % tu , ||| 0.714286 0.142857 0.142857 0.714286 0.142857 0.142857
% . ||| % . ||| 0.95122 0.0243902 0.0243902 0.95122 0.0243902 0.0243902
% . ||| % ||| 0.6 0.2 0.2 0.6 0.2 0.2
% and ||| % na ||| 0.846154 0.0769231 0.0769231 0.846154 0.0769231 0.0769231
% annual ||| % ya kila mwaka ||| 0.6 0.2 0.2 0.2 0.2 0.6
% annual ||| % ya kila ||| 0.6 0.2 0.2 0.2 0.2 0.6
% of GDP , ||| % ya Pato la Taifa , ||| 0.866667 0.0666667 0.0666667 0.866667 0.0666667 0.0666667
% of GDP . ||| % ya Pato la Taifa . ||| 0.818182 0.0909091 0.0909091 0.818182 0.0909091 0.0909091
% of GDP ||| % ya Pato la Taifa ||| 0.953488 0.0232558 0.0232558 0.953488 0.0232558 0.0232558
% of the ||| % ya ||| 0.882353 0.0588235 0.0588235 0.529412 0.0588235 0.411765
% of ||| % ya ||| 0.984 0.008 0.008 0.456 0.008 0.536
% of ||| % ||| 0.6 0.2 0.2 0.6 0.2 0.2
% of ||| asilimia ||| 0.2 0.2 0.6 0.2 0.6 0.2
% to 25 % ||| % hadi 25 % ||| 0.6 0.2 0.2 0.6 0.2 0.2
% to 25 ||| % hadi 25 ||| 0.6 0.2 0.2 0.6 0.2 0.2
% to ||| % hadi ||| 0.777778 0.111111 0.111111 0.777778 0.111111 0.111111
% to ||| % ||| 0.714286 0.142857 0.142857 0.714286 0.142857 0.142857
% ||| % pande zote za ||| 0.6 0.2 0.2 0.2 0.2 0.6
% ||| % pande zote ||| 0.6 0.2 0.2 0.2 0.2 0.6
% ||| % pande ||| 0.6 0.2 0.2 0.2 0.2 0.6
% ||| % tu ||| 0.714286 0.142857 0.142857 0.714286 0.142857 0.142857
% ||| % ya kila mwaka ||| 0.2 0.2 0.6 0.2 0.2 0.6
% ||| % ya kila ||| 0.2 0.2 0.6 0.2 0.2 0.6
% ||| % ya kushangaza ||| 0.6 0.2 0.2 0.6 0.2 0.2
% ||| % ya uzalishaji wa ||| 0.6 0.2 0.2 0.2 0.2 0.6
% ||| % ya uzalishaji ||| 0.6 0.2 0.2 0.2 0.2 0.6
% ||| % ya ||| 0.809524 0.047619 0.142857 0.333333 0.047619 0.619048
% ||| % ||| 0.960707 0.00196464 0.0373281 0.709234 0.0373281 0.253438
% ||| asilimia 100 ya ||| 0.2 0.2 0.6 0.2 0.2 0.6
% ||| asilimia 100 ||| 0.2 0.2 0.6 0.2 0.2 0.6
% ||| asilimia ||| 0.0526316 0.0175439 0.929825 0.0175439 0.894737 0.0877193
% ||| cha asilimia ||| 0.2 0.2 0.6 0.2 0.2 0.6
% ||| mahindi ||| 0.2 0.2 0.6 0.2 0.6 0.2
% ||| ni asilimia ||| 0.2 0.2 0.6 0.2 0.6 0.2
% ||| wa % ||| 0.2 0.2 0.6 0.2 0.6 0.2
% ||| wa asilimia ||| 0.142857 0.428571 0.428571 0.142857 0.714286 0.142857
% ||| wa mahindi ||| 0.2 0.6 0.2 0.2 0.6 0.2
% ||| ya asilimia 100 ya ||| 0.2 0.2 0.6 0.2 0.2 0.6
% ||| ya asilimia 100 ||| 0.2 0.2 0.6 0.2 0.2 0.6
% ||| ya asilimia ||| 0.142857 0.142857 0.714286 0.142857 0.428571 0.428571
&amp; # 160 ; ||| &amp; # 160 ; ||| 0.968254 0.015873 0.015873 0.936508 0.015873 0.047619
&amp; # 160 ||| &amp; # 160 ||| 0.968254 0.015873 0.015873 0.968254 0.015873 0.015873
&amp; # 45 ; &amp; # 45 ||| &amp; # 45 ; &amp; # 45 ||| 0.777778 0.111111 0.111111 0.777778 0.111111 0.111111
&amp; # 45 ; &amp; # ||| &amp; # 45 ; &amp; # ||| 0.777778 0.111111 0.111111 0.777778 0.111111 0.111111
&amp; # 45 ; &amp; ||| &amp; # 45 ; &amp; ||| 0.777778 0.111111 0.111111 0.777778 0.111111 0.111111
&amp; # 45 ; ||| &amp; # 45 ; ||| 0.866667 0.0666667 0.0666667 0.866667 0.0666667 0.0666667
&amp; # 45 ||| &amp; # 45 ||| 0.866667 0.0666667 0.0666667 0.866667 0.0666667 0.0666667
&amp; # ||| &amp; # ||| 0.974026 0.012987 0.012987 0.974026 0.012987 0.012987
&amp; ||| &amp; ||| 0.988701 0.00564972 0.00564972 0.988701 0.00564972 0.00564972
&amp; ||| zaidi ||| 0.2 0.2 0.6 0.2 0.6 0.2
&apos; &apos; ||| &apos; &apos; ||| 0.866667 0.0222222 0.111111 0.955556 0.0222222 0.0222222
&apos; ||| &apos; &apos; ||| 0.2 0.2 0.6 0.2 0.2 0.6
&apos; ||| &apos; ||| 0.915789 0.0105263 0.0736842 0.915789 0.0105263 0.0736842
&apos; ||| `` kitu chochote ||| 0.2 0.2 0.6 0.2 0.6 0.2
&apos; ||| `` kitu ||| 0.2 0.2 0.6 0.2 0.2 0.6
&apos; ||| `` ||| 0.2 0.2 0.6 0.2 0.2 0.6
&apos;s President ||| Rais wa ||| 0.142857 0.142857 0.714286 0.142857 0.714286 0.142857
&apos;s are ||| ni ||| 0.2 0.2 0.6 0.6 0.2 0.2
&apos;s government ||| serikali ya ||| 0.0666667 0.0666667 0.866667 0.0666667 0.866667 0.0666667
&apos;s government ||| wa serikali ||| 0.2 0.2 0.6 0.2 0.2 0.6
&apos;s great ||| kubwa ||| 0.2 0.6 0.2 0.6 0.2 0.2
&apos;s internal ||| ndani ya ||| 0.2 0.2 0.6 0.2 0.6 0.2
&apos;s most ||| ya ||| 0.2 0.2 0.6 0.2 0.2 0.6
&apos;s most ||| zaidi ||| 0.2 0.6 0.2 0.2 0.2 0.6
&apos;s ||| . ||| 0.6 0.2 0.2 0.2 0.2 0.6
&apos;s ||| 50 ya ||| 0.2 0.2 0.6 0.6 0.2 0.2
&apos;s ||| Sharon za ||| 0.2 0.2 0.6 0.6 0.2 0.2
&apos;s ||| Sharon ||| 0.2 0.2 0.6 0.2 0.2 0.6
&apos;s ||| baada ya ||| 0.2 0.2 0.6 0.6 0.2 0.2
&apos;s ||| cha ||| 0.6 0.2 0.2 0.6 0.2 0.2
&apos;s ||| fikira za ||| 0.2 0.2 0.6 0.2 0.6 0.2
&apos;s ||| fikira ||| 0.2 0.2 0.6 0.2 0.2 0.6
&apos;s ||| gani wa ||| 0.2 0.2 0.6 0.2 0.2 0.6
&apos;s ||| hiyo ||| 0.818182 0.0909091 0.0909091 0.0909091 0.0909091 0.818182
&apos;s ||| kawaida ya ||| 0.2 0.2 0.6 0.6 0.2 0.2
&apos;s ||| kutekelezwa tena kwa mkutano wa ||| 0.2 0.2 0.6 0.6 0.2 0.2
&apos;s ||| kwa mkutano wa ||| 0.2 0.2 0.6 0.6 0.2 0.2
&apos;s ||| kwa mzunguko wa biashara uliofanikiwa na ||| 0.2 0.2 0.6 0.6 0.2 0.2
&apos;s ||| kwa mzunguko wa biashara uliofanikiwa ||| 0.2 0.2 0.6 0.2 0.2 0.6
&apos;s ||| kwa mzunguko wa biashara ||| 0.2 0.2 0.6 0.2 0.2 0.6
&apos;s ||| kwa mzunguko wa ||| 0.2 0.2 0.6 0.2 0.2 0.6
&apos;s ||| kwa mzunguko ||| 0.2 0.2 0.6 0.2 0.2 0.6
&apos;s ||| kwa ||| 0.0769231 0.0769231 0.846154 0.538462 0.0769231 0.384615
&apos;s ||| la ||| 0.428571 0.428571 0.142857 0.428571 0.428571 0.142857
&apos;s ||| maafisa wa ||| 0.2 0.2 0.6 0.2 0.6 0.2
&apos;s ||| mfano wa Uturuki ||| 0.2 0.2 0.6 0.2 0.2 0.6
&apos;s ||| mfano wa ||| 0.2 0.2 0.6 0.2 0.2 0.6
&apos;s ||| mkutano wa ||| 0.2 0.2 0.6 0.6 0.2 0.2
&apos;s ||| mwanajeshi wa ||| 0.2 0.2 0.6 0.2 0.6 0.2
&apos;s ||| ni kutekelezwa tena kwa mkutano wa ||| 0.2 0.2 0.6 0.6 0.2 0.2
&apos;s ||| nje wa ||| 0.2 0.2 0.6 0.2 0.6 0.2
&apos;s ||| operesheni ya ||| 0.2 0.2 0.6 0.2 0.6 0.2
&apos;s ||| operesheni ||| 0.2 0.2 0.6 0.2 0.2 0.6
&apos;s ||| tena kwa mkutano wa ||| 0.2 0.2 0.6 0.6 0.2 0.2
&apos;s ||| upanuzi ||| 0.2 0.2 0.6 0.2 0.2 0.6
&apos;s ||| uuzaji wa ||| 0.2 0.2 0.6 0.6 0.2 0.2
&apos;s ||| vinatokana ||| 0.6 0.2 0.2 0.2 0.2 0.6
&apos;s ||| wa Eban ||| 0.2 0.2 0.6 0.2 0.2 0.6
&apos;s ||| wa Uturuki ||| 0.2 0.2 0.6 0.2 0.2 0.6
&apos;s ||| wa Wajerumani ||| 0.2 0.6 0.2 0.2 0.2 0.6
&apos;s ||| wa maafisa wa ||| 0.2 0.6 0.2 0.2 0.6 0.2
&apos;s ||| wa mfano wa Uturuki ||| 0.2 0.2 0.6 0.2 0.2 0.6
&apos;s ||| wa mfano wa ||| 0.2 0.2 0.6 0.2 0.2 0.6
&apos;s ||| wa ||| 0.0463576 0.496689 0.456954 0.377483 0.483444 0.139073
&apos;s ||| washirika wa ||| 0.2 0.2 0.6 0.6 0.2 0.2
&apos;s ||| ya Eban ||| 0.2 0.2 0.6 0.2 0.2 0.6
&apos;s ||| ya maoni ||| 0.2 0.6 0.2 0.2 0.2 0.6
&apos;s ||| ya nje ya ||| 0.2 0.6 0.2 0.2 0.6 0.2
&apos;s ||| ya nyumbani mwa ||| 0.2 0.6 0.2 0.2 0.6 0.2
&apos;s ||| ya nyumbani ||| 0.2 0.6 0.2 0.2 0.2 0.6
&apos;s ||| ya wapinzani ||| 0.2 0.6 0.2 0.2 0.2 0.6
&apos;s ||| ya ||| 0.0860927 0.470199 0.443709 0.377483 0.456954 0.165563
&quot; and the ||| &quot; na ||| 0.6 0.2 0.2 0.6 0.2 0.2
&quot; and ||| &quot; na ||| 0.818182 0.0909091 0.0909091 0.636364 0.0909091 0.272727
&quot; as ||| &quot; kama ||| 0.555556 0.111111 0.333333 0.555556 0.111111 0.333333
&quot; was ||| &quot; alikuwa ||| 0.2 0.2 0.6 0.6 0.2 0.2
&quot; ||| &quot; hali ||| 0.2 0.2 0.6 0.2 0.6 0.2
&quot; ||| &quot; huyo ||| 0.6 0.2 0.2 0.2 0.2 0.6
&quot; ||| &quot; jirani yako ||| 0.6 0.2 0.2 0.2 0.2 0.6
&quot; ||| &quot; jirani ||| 0.6 0.2 0.2 0.2 0.2 0.6
&quot; ||| &quot; na ||| 0.2 0.6 0.2 0.2 0.2 0.6
&quot; ||| &quot; wa ||| 0.692308 0.0769231 0.230769 0.538462 0.0769231 0.384615
&quot; ||| &quot; ya ||| 0.714286 0.142857 0.142857 0.428571 0.142857 0.428571
&quot; ||| &quot; ||| 0.591182 0.0260521 0.382766 0.619238 0.0380762 0.342685
&quot; ||| jirani yako &quot; ||| 0.2 0.2 0.6 0.6 0.2 0.2
&quot; ||| jumla &quot; ||| 0.2 0.2 0.6 0.6 0.2 0.2
&quot; ||| kuwa &quot; ||| 0.2 0.2 0.6 0.2 0.2 0.6
&quot; ||| madhumuni ya &quot; ||| 0.6 0.2 0.2 0.2 0.2 0.6
&quot; ||| mbaya &quot; ||| 0.2 0.2 0.6 0.2 0.6 0.2
&quot; ||| wa &quot; ||| 0.6 0.2 0.2 0.6 0.2 0.2
&quot; ||| wa jumla &quot; ||| 0.6 0.2 0.2 0.6 0.2 0.2
&quot; ||| ya &quot; ||| 0.411765 0.0588235 0.529412 0.529412 0.0588235 0.411765
&quot; ||| yako &quot; ||| 0.2 0.2 0.6 0.6 0.2 0.2
( 2.5 acres ) or less . ||| ( ekari 2.5 ) au chini . ||| 0.2 0.2 0.6 0.6 0.2 0.2
( 2.5 acres ) or less ||| ( ekari 2.5 ) au chini ||| 0.2 0.2 0.6 0.6 0.2 0.2
( 2.5 acres ) or ||| ( ekari 2.5 ) au ||| 0.2 0.2 0.6 0.6 0.2 0.2
( 2.5 acres ) ||| ( ekari 2.5 ) ||| 0.2 0.2 0.6 0.6 0.2 0.2
( 2.5 acres ||| ( ekari 2.5 ||| 0.2 0.2 0.6 0.6 0.2 0.2
( China ||| ( China ||| 0.2 0.2 0.6 0.6 0.2 0.2
( China ||| ( Uchina ||| 0.2 0.2 0.6 0.2 0.2 0.6
( China ||| kazi ( China ||| 0.6 0.2 0.2 0.6 0.2 0.2
( and the ||| ( na la ||| 0.2 0.2 0.6 0.6 0.2 0.2
( and the ||| ( na ||| 0.6 0.2 0.2 0.6 0.2 0.2
( and ||| ( na filamu ya ||| 0.6 0.2 0.2 0.6 0.2 0.2
( and ||| ( na filamu ||| 0.6 0.2 0.2 0.2 0.2 0.6
( and ||| ( na ya ||| 0.6 0.2 0.2 0.6 0.2 0.2
( and ||| ( na ||| 0.559322 0.0169492 0.423729 0.694915 0.0169492 0.288136
( and ||| uwazi ( na ||| 0.2 0.2 0.6 0.6 0.2 0.2
( as ||| ( kama ilivyo ||| 0.428571 0.142857 0.428571 0.714286 0.142857 0.142857
( as ||| ( kama vile ||| 0.428571 0.142857 0.428571 0.428571 0.142857 0.428571
( as ||| ( kama ||| 0.714286 0.047619 0.238095 0.619048 0.047619 0.333333
( but not ||| ( lakini sio ||| 0.6 0.2 0.2 0.6 0.2 0.2
( but ||| ( lakini ||| 0.714286 0.142857 0.142857 0.714286 0.142857 0.142857
( even ||| ( hata ||| 0.272727 0.0909091 0.636364 0.636364 0.0909091 0.272727
( even ||| Amerika ( hata ||| 0.2 0.2 0.6 0.6 0.2 0.2
( including ||| ( pamoja na ||| 0.714286 0.142857 0.142857 0.428571 0.142857 0.428571
( including ||| ( pamoja ||| 0.2 0.2 0.6 0.6 0.2 0.2
( or ||| ( au ||| 0.575758 0.030303 0.393939 0.818182 0.030303 0.151515
( such as ||| ( kama vile ||| 0.555556 0.111111 0.333333 0.777778 0.111111 0.111111
( such as ||| ( kama ||| 0.6 0.2 0.2 0.6 0.2 0.2
( such ||| ( kama ||| 0.555556 0.111111 0.333333 0.777778 0.111111 0.111111
( that is , ||| ( ambayo ni , ||| 0.428571 0.142857 0.428571 0.714286 0.142857 0.142857
( that is ||| ( ambayo ni ||| 0.428571 0.142857 0.428571 0.714286 0.142857 0.142857
( that ||| ( ambayo ||| 0.428571 0.142857 0.428571 0.714286 0.142857 0.142857
( the ||| ( mashtaka ya ||| 0.6 0.2 0.2 0.6 0.2 0.2
( the ||| ( mgombeaji ||| 0.6 0.2 0.2 0.2 0.2 0.6
( the ||| ( wa ||| 0.6 0.2 0.2 0.6 0.2 0.2
( the ||| ( ||| 0.517241 0.0344828 0.448276 0.655172 0.0344828 0.310345
( the ||| damu isiyo safi ( ||| 0.2 0.2 0.6 0.2 0.2 0.6
( the ||| isiyo safi ( ||| 0.2 0.2 0.6 0.2 0.2 0.6
( the ||| safi ( ||| 0.2 0.2 0.6 0.2 0.2 0.6
( the ||| usimamizi wa ardhi ( ||| 0.2 0.2 0.6 0.2 0.2 0.6
( the ||| wa ardhi ( ||| 0.2 0.2 0.6 0.2 0.2 0.6
( the ||| za usimamizi wa ardhi ( ||| 0.2 0.2 0.6 0.2 0.2 0.6
( ||| ( mashtaka ||| 0.6 0.2 0.2 0.6 0.2 0.2
( ||| ( mgombeaji ||| 0.6 0.2 0.2 0.2 0.2 0.6
( ||| ( wa ||| 0.6 0.2 0.2 0.6 0.2 0.2
( ||| ( ||| 0.535865 0.00421941 0.459916 0.83685 0.00984529 0.153305
( ||| Amerika ( ||| 0.2 0.2 0.6 0.6 0.2 0.2
( ||| Chakula duniani ( ||| 0.2 0.2 0.6 0.2 0.2 0.6
( ||| Mazingira ( ||| 0.2 0.2 0.6 0.6 0.2 0.2
( ||| Mgogoro wa Chakula duniani ( ||| 0.2 0.2 0.6 0.2 0.2 0.6
( ||| ardhi ( ||| 0.2 0.6 0.2 0.2 0.6 0.2
( ||| biashara ya upendeleo ( ||| 0.2 0.2 0.6 0.2 0.2 0.6
( ||| chini ( ||| 0.2 0.2 0.6 0.6 0.2 0.2
( ||| damu isiyo safi ( ||| 0.2 0.2 0.6 0.2 0.6 0.2
( ||| duni zaidi ( ||| 0.2 0.2 0.6 0.2 0.2 0.6
( ||| duniani ( ||| 0.2 0.2 0.6 0.2 0.2 0.6
( ||| isiyo safi ( ||| 0.2 0.2 0.6 0.2 0.6 0.2
( ||| jinsia moja ( ||| 0.2 0.2 0.6 0.6 0.2 0.2
( ||| juu ( ||| 0.2 0.2 0.6 0.6 0.2 0.2
( ||| kati ( ||| 0.2 0.2 0.6 0.6 0.2 0.2
( ||| kawaida ( ||| 0.2 0.2 0.6 0.6 0.2 0.2
( ||| kazi ( ||| 0.6 0.2 0.2 0.6 0.2 0.2
( ||| kibinafsi ( ||| 0.2 0.2 0.6 0.2 0.2 0.6
( ||| kuzuia ( ||| 0.6 0.2 0.2 0.6 0.2 0.2
( ||| madeni duni zaidi ( ||| 0.2 0.2 0.6 0.2 0.2 0.6
( ||| makubaliano ya biashara ya upendeleo ( ||| 0.2 0.2 0.6 0.2 0.2 0.6
( ||| mkopo ( ||| 0.2 0.2 0.6 0.6 0.2 0.2
( ||| moja ( ||| 0.2 0.2 0.6 0.6 0.2 0.2
( ||| mwamba ( ||| 0.2 0.2 0.6 0.6 0.2 0.2
( ||| mwenzi wa jinsia moja ( ||| 0.2 0.2 0.6 0.6 0.2 0.2
( ||| na Mgogoro wa Chakula duniani ( ||| 0.2 0.2 0.6 0.2 0.2 0.6
( ||| na madeni duni zaidi ( ||| 0.2 0.2 0.6 0.2 0.2 0.6
( ||| na mwenzi wa jinsia moja ( ||| 0.6 0.2 0.2 0.6 0.2 0.2
( ||| safi ( ||| 0.2 0.2 0.6 0.2 0.6 0.2
( ||| soko ( ||| 0.2 0.2 0.6 0.6 0.2 0.2
( ||| upendeleo ( ||| 0.2 0.2 0.6 0.2 0.2 0.6
( ||| uwazi ( ||| 0.2 0.2 0.6 0.6 0.2 0.2
( ||| wa Chakula duniani ( ||| 0.2 0.2 0.6 0.2 0.2 0.6
( ||| wa chini ( ||| 0.6 0.2 0.2 0.6 0.2 0.2
( ||| wa jinsia moja ( ||| 0.2 0.2 0.6 0.6 0.2 0.2
( ||| wa kawaida ( ||| 0.2 0.2 0.6 0.6 0.2 0.2
( ||| wa mwamba ( ||| 0.2 0.2 0.6 0.6 0.2 0.2
( ||| wa soko ( ||| 0.2 0.2 0.6 0.6 0.2 0.2
( ||| wa ||| 0.6 0.2 0.2 0.2 0.2 0.6
( ||| ya biashara ya upendeleo ( ||| 0.2 0.2 0.6 0.2 0.2 0.6
( ||| ya juu ( ||| 0.2 0.2 0.6 0.6 0.2 0.2
( ||| ya kati ( ||| 0.6 0.2 0.2 0.6 0.2 0.2
( ||| ya kibinafsi ( ||| 0.2 0.2 0.6 0.2 0.2 0.6
( ||| ya upendeleo ( ||| 0.2 0.2 0.6 0.2 0.2 0.6
( ||| za mkopo ( ||| 0.6 0.2 0.2 0.6 0.2 0.2
( ||| zaidi ( ||| 0.2 0.2 0.6 0.2 0.2 0.6
( ||| zilizo na madeni duni zaidi ( ||| 0.2 0.2 0.6 0.2 0.2 0.6
( ||| ​ ( ||| 0.2 0.2 0.6 0.6 0.2 0.2
( ||| ​ ​ ( ||| 0.6 0.2 0.2 0.6 0.2 0.2
) , and ||| ) , na vizuizi ||| 0.6 0.2 0.2 0.6 0.2 0.2
) , and ||| ) , na ||| 0.515152 0.030303 0.454545 0.575758 0.030303 0.393939
) , but ||| ) , lakini ||| 0.333333 0.111111 0.555556 0.777778 0.111111 0.111111
) , but ||| na vizuizi vingi ) , lakini ||| 0.6 0.2 0.2 0.6 0.2 0.2
) , but ||| vingi ) , lakini ||| 0.2 0.2 0.6 0.6 0.2 0.2
) , but ||| vizuizi vingi ) , lakini ||| 0.2 0.2 0.6 0.6 0.2 0.2
) , which ||| ) , ambao ||| 0.555556 0.111111 0.333333 0.777778 0.111111 0.111111
) , which ||| ) , ambayo ||| 0.636364 0.0909091 0.272727 0.818182 0.0909091 0.0909091
) , who ||| ) , ambao ||| 0.6 0.2 0.2 0.6 0.2 0.2
) , who ||| ) , ambaye ||| 0.6 0.2 0.2 0.6 0.2 0.2
) , who ||| ) , ambayo inatilia mkazo ||| 0.6 0.2 0.2 0.2 0.2 0.6
) , who ||| ) , ambayo inatilia ||| 0.6 0.2 0.2 0.2 0.2 0.6
) , ||| ) , ambayo ||| 0.6 0.2 0.2 0.6 0.2 0.2
) , ||| ) , dhamana ya ||| 0.2 0.2 0.6 0.2 0.2 0.6
) , ||| ) , dhamana ||| 0.2 0.2 0.6 0.2 0.2 0.6
) , ||| ) , ||| 0.636364 0.00534759 0.358289 0.764706 0.00534759 0.229947
) , ||| iliyofuata ) , ||| 0.6 0.2 0.2 0.6 0.2 0.2
) , ||| juu ) , ||| 0.2 0.2 0.6 0.2 0.2 0.6
) , ||| na vizuizi vingi ) , ||| 0.6 0.2 0.2 0.6 0.2 0.2
) , ||| pesa ) , ||| 0.2 0.2 0.6 0.2 0.2 0.6
) , ||| sasa ) , ||| 0.6 0.2 0.2 0.2 0.2 0.6
) , ||| vingi ) , ||| 0.2 0.2 0.6 0.6 0.2 0.2
) , ||| vizuizi vingi ) , ||| 0.2 0.2 0.6 0.6 0.2 0.2
) , ||| wafanyikazi ) , ||| 0.2 0.2 0.6 0.6 0.2 0.2
) , ||| ya juu ) , ||| 0.2 0.2 0.6 0.2 0.2 0.6
) , ||| ya wafanyikazi ) , ||| 0.6 0.2 0.2 0.6 0.2 0.2
) . ||| ) . ||| 0.731092 0.00840336 0.260504 0.983193 0.00840336 0.00840336
) and ||| ) na Mradi ||| 0.6 0.2 0.2 0.2 0.2 0.6
) and ||| ) na visa vya kazi ya muda ||| 0.6 0.2 0.2 0.2 0.2 0.6
) and ||| ) na visa vya kazi ya ||| 0.6 0.2 0.2 0.2 0.2 0.6
) and ||| ) na visa vya kazi ||| 0.6 0.2 0.2 0.2 0.2 0.6
) and ||| ) na visa vya ||| 0.6 0.2 0.2 0.2 0.2 0.6
) and ||| ) na visa ||| 0.6 0.2 0.2 0.2 0.2 0.6
) and ||| ) na ||| 0.878788 0.030303 0.0909091 0.454545 0.030303 0.515152
) and ||| Kidemokrasia na ||| 0.2 0.2 0.6 0.6 0.2 0.2
) and ||| ya Kidemokrasia na ||| 0.2 0.6 0.2 0.6 0.2 0.2
) can ||| ) inaweza ||| 0.6 0.2 0.2 0.6 0.2 0.2
) can ||| ) yanaweza ||| 0.6 0.2 0.2 0.6 0.2 0.2
) in ||| ) huko ||| 0.714286 0.142857 0.142857 0.714286 0.142857 0.142857
) in ||| ) katika ||| 0.333333 0.111111 0.555556 0.333333 0.111111 0.555556
) in ||| ) kwa ||| 0.428571 0.142857 0.428571 0.428571 0.142857 0.428571
) in ||| ) mnamo ||| 0.6 0.2 0.2 0.6 0.2 0.2
) is ||| ) ||| 0.6 0.2 0.2 0.2 0.6 0.2
) or less . ||| ) au chini . ||| 0.6 0.2 0.2 0.6 0.2 0.2
) or less ||| ) au chini ||| 0.6 0.2 0.2 0.6 0.2 0.2
) or ||| ) au wa ||| 0.6 0.2 0.2 0.2 0.2 0.6
) or ||| ) au ||| 0.913043 0.0434783 0.0434783 0.73913 0.0434783 0.217391
) that ||| ) ambayo ||| 0.555556 0.111111 0.333333 0.777778 0.111111 0.111111
) that ||| ) ambazo ||| 0.6 0.2 0.2 0.6 0.2 0.2
) the ||| ) ||| 0.6 0.2 0.2 0.6 0.2 0.2
) to ||| ) hadi ||| 0.6 0.2 0.2 0.6 0.2 0.2
) to ||| ) ili kuunga mkono ||| 0.2 0.2 0.6 0.2 0.2 0.6
) to ||| ) ili kuunga ||| 0.2 0.2 0.6 0.2 0.2 0.6
) to ||| ) ili ||| 0.428571 0.142857 0.428571 0.428571 0.142857 0.428571
) to ||| ) kwa ||| 0.6 0.2 0.2 0.6 0.2 0.2
) to ||| ) ||| 0.818182 0.0909091 0.0909091 0.636364 0.0909091 0.272727
) ||| ) Ni ||| 0.6 0.2 0.2 0.2 0.2 0.6
) ||| ) haramu ||| 0.6 0.2 0.2 0.6 0.2 0.2
) ||| ) imekuwa ||| 0.2 0.2 0.6 0.6 0.2 0.2
) ||| ) mapato ya juu ||| 0.6 0.2 0.2 0.2 0.2 0.6
) ||| ) mapato ya ||| 0.6 0.2 0.2 0.2 0.2 0.6
) ||| ) mapato ||| 0.6 0.2 0.2 0.2 0.2 0.6
) ||| ) ya ||| 0.6 0.2 0.2 0.6 0.2 0.2
) ||| ) ||| 0.721519 0.00421941 0.274262 0.848101 0.0126582 0.139241
) ||| Kidemokrasia ||| 0.2 0.2 0.6 0.6 0.2 0.2
) ||| iliyofuata ) ||| 0.6 0.2 0.2 0.6 0.2 0.2
) ||| juu ) ||| 0.2 0.2 0.6 0.6 0.2 0.2
) ||| na vizuizi vingi ) ||| 0.6 0.2 0.2 0.6 0.2 0.2
) ||| pesa ) ||| 0.2 0.2 0.6 0.6 0.2 0.2
) ||| sasa ) ||| 0.6 0.2 0.2 0.6 0.2 0.2
) ||| vingi ) ||| 0.2 0.2 0.6 0.6 0.2 0.2
) ||| vizuizi vingi ) ||| 0.2 0.2 0.6 0.6 0.2 0.2
) ||| wafanyikazi ) ||| 0.2 0.2 0.6 0.6 0.2 0.2
) ||| ya ) ||| 0.2 0.2 0.6 0.6 0.2 0.2
) ||| ya Kidemokrasia ||| 0.2 0.2 0.6 0.6 0.2 0.2
) ||| ya juu ) ||| 0.2 0.2 0.6 0.6 0.2 0.2
) ||| ya wafanyikazi ) ||| 0.6 0.2 0.2 0.6 0.2 0.2
, &apos; &apos; ||| , &apos; &apos; ||| 0.6 0.2 0.2 0.6 0.2 0.2
, &apos; ||| , &apos; ||| 0.6 0.2 0.2 0.6 0.2 0.2
, &quot; ||| , &quot; ||| 0.351351 0.027027 0.621622 0.72973 0.027027 0.243243
, 2001 , ||| , 2001 , ||| 0.866667 0.0666667 0.0666667 0.733333 0.0666667 0.2
, 2001 ||| , 2001 ||| 0.882353 0.0588235 0.0588235 0.882353 0.0588235 0.0588235
, America ||| , Amerika ||| 0.44 0.04 0.52 0.84 0.04 0.12
, America ||| , makoloni ||| 0.6 0.2 0.2 0.6 0.2 0.2
, America ||| , mazoea ||| 0.6 0.2 0.2 0.2 0.2 0.6
, America ||| ajira , Amerika ||| 0.2 0.2 0.6 0.6 0.2 0.2
, America ||| wa ajira , Amerika ||| 0.2 0.2 0.6 0.6 0.2 0.2
, Americans ||| , Wamarekani ||| 0.391304 0.0434783 0.565217 0.913043 0.0434783 0.0434783
, Canada , and ||| , Canada , na ||| 0.6 0.2 0.2 0.2 0.2 0.6
, Canada , ||| , Canada , ||| 0.777778 0.111111 0.111111 0.777778 0.111111 0.111111
, Canada ||| , Canada ||| 0.777778 0.111111 0.111111 0.777778 0.111111 0.111111
, DC ||| , DC ||| 0.846154 0.0769231 0.0769231 0.846154 0.0769231 0.0769231
, Egypt , ||| , Misiri , ||| 0.714286 0.142857 0.142857 0.714286 0.142857 0.142857
, Egypt , ||| , Wamisri , ||| 0.6 0.2 0.2 0.6 0.2 0.2
, Egypt ||| , Misiri ||| 0.714286 0.142857 0.142857 0.714286 0.142857 0.142857
, Egypt ||| , Wamisri ||| 0.6 0.2 0.2 0.6 0.2 0.2
, Europe must ||| , Ulaya lazima ||| 0.6 0.2 0.2 0.6 0.2 0.2
, Europe ||| , Ulaya ||| 0.617021 0.0212766 0.361702 0.957447 0.0212766 0.0212766
, Europe ||| serikali , Ulaya ||| 0.2 0.2 0.6 0.6 0.2 0.2
, Europe ||| ya serikali , Ulaya ||| 0.6 0.2 0.2 0.6 0.2 0.2
, Germany ||| , Ujerumani ||| 0.882353 0.0588235 0.0588235 0.882353 0.0588235 0.0588235
, Ghana , ||| , Ghana , ||| 0.6 0.2 0.2 0.2 0.2 0.6
, Ghana ||| , Ghana ||| 0.714286 0.142857 0.142857 0.714286 0.142857 0.142857
, Goldman Sachs ||| , Goldman Sachs ||| 0.428571 0.142857 0.428571 0.714286 0.142857 0.142857
, I ||| , mimi ||| 0.777778 0.111111 0.111111 0.777778 0.111111 0.111111
, I ||| , napata ||| 0.6 0.2 0.2 0.6 0.2 0.2
, I ||| , nilikuja ||| 0.6 0.2 0.2 0.6 0.2 0.2
, I ||| , nilikuwa ||| 0.6 0.2 0.2 0.6 0.2 0.2
, I ||| , nilimuunga ||| 0.2 0.2 0.6 0.6 0.2 0.2
, I ||| , nilishangaa ||| 0.6 0.2 0.2 0.6 0.2 0.2
, I ||| , nilisikia sauti ndogo ya ||| 0.2 0.2 0.6 0.2 0.2 0.6
, I ||| , nilisikia sauti ndogo ||| 0.2 0.2 0.6 0.2 0.2 0.6
, I ||| , nilisikia sauti ||| 0.2 0.2 0.6 0.2 0.2 0.6
, I ||| , nilisikia ||| 0.2 0.2 0.6 0.2 0.2 0.6
, India , ||| , India , ||| 0.84 0.04 0.12 0.92 0.04 0.04
, India , ||| , Uhindi , ||| 0.714286 0.142857 0.142857 0.428571 0.142857 0.428571
, India ||| , India ||| 0.851852 0.037037 0.111111 0.925926 0.037037 0.037037
, India ||| , Uhindi ||| 0.714286 0.142857 0.142857 0.714286 0.142857 0.142857
, Iran ||| , Iran ||| 0.555556 0.111111 0.333333 0.777778 0.111111 0.111111
, Iran ||| , Irani ||| 0.636364 0.0909091 0.272727 0.818182 0.0909091 0.0909091
, Iraq , ||| , Iraq , ||| 0.428571 0.142857 0.428571 0.428571 0.142857 0.428571
, Iraq , ||| , Iraqi , ||| 0.714286 0.142857 0.142857 0.714286 0.142857 0.142857
, Iraq ||| , Iraq ||| 0.333333 0.111111 0.555556 0.777778 0.111111 0.111111
, Iraq ||| , Iraqi ||| 0.714286 0.142857 0.142857 0.714286 0.142857 0.142857
, Ireland , and ||| , Ireland , na ||| 0.777778 0.111111 0.111111 0.777778 0.111111 0.111111
, Ireland , ||| , Ireland , ||| 0.846154 0.0769231 0.0769231 0.846154 0.0769231 0.0769231
, Ireland ||| , Ireland ||| 0.866667 0.0666667 0.0666667 0.866667 0.0666667 0.0666667
, Israel , and ||| , Israeli , na ||| 0.6 0.2 0.2 0.6 0.2 0.2
, Israel , ||| , Israeli , ||| 0.636364 0.0909091 0.272727 0.636364 0.0909091 0.272727
, Israel ||| , Israeli ||| 0.52381 0.047619 0.428571 0.904762 0.047619 0.047619
, Italy , ||| , Italia , ||| 0.555556 0.111111 0.333333 0.777778 0.111111 0.111111
, Italy ||| , Italia ||| 0.555556 0.111111 0.333333 0.777778 0.111111 0.111111
, Japan , and the US ||| , Japan , na Amerika ||| 0.6 0.2 0.2 0.6 0.2 0.2
, Japan , and the ||| , Japan , na ||| 0.714286 0.142857 0.142857 0.714286 0.142857 0.142857
, Japan , and ||| , Japan , na ||| 0.818182 0.0909091 0.0909091 0.272727 0.0909091 0.636364
, Japan , and ||| , Japani , na ||| 0.6 0.2 0.2 0.2 0.2 0.6
, Japan , ||| , Japan , ||| 0.866667 0.0666667 0.0666667 0.866667 0.0666667 0.0666667
, Japan , ||| , Japani , ||| 0.6 0.2 0.2 0.6 0.2 0.2
, Japan ||| , Japan ||| 0.68 0.04 0.28 0.92 0.04 0.04
, Japan ||| , Japani ||| 0.6 0.2 0.2 0.6 0.2 0.2
, Kenya , ||| , Kenya , ||| 0.6 0.2 0.2 0.6 0.2 0.2
, Kenya ||| , Kenya ||| 0.6 0.2 0.2 0.6 0.2 0.2
, Mexico , ||| , Mexico , ||| 0.6 0.2 0.2 0.6 0.2 0.2
, Mexico ||| , Mexico ||| 0.777778 0.111111 0.111111 0.777778 0.111111 0.111111
, NGOs ||| , NGOs ||| 0.6 0.2 0.2 0.6 0.2 0.2
, North Korea ||| , Korea Kaskazini ||| 0.714286 0.142857 0.142857 0.714286 0.142857 0.142857
, Palestine ||| , Palestina ||| 0.714286 0.142857 0.142857 0.714286 0.142857 0.142857
, Portugal , ||| , Ureno , nchi ||| 0.6 0.2 0.2 0.6 0.2 0.2
, Portugal , ||| , Ureno , ||| 0.866667 0.0666667 0.0666667 0.733333 0.0666667 0.2
, Portugal ||| , Ureno ||| 0.882353 0.0588235 0.0588235 0.882353 0.0588235 0.0588235
, President George W. Bush ||| , Rais George W. Bush ||| 0.6 0.2 0.2 0.6 0.2 0.2
, President George W. ||| , Rais George W. ||| 0.6 0.2 0.2 0.6 0.2 0.2
, President George ||| , Rais George ||| 0.714286 0.142857 0.142857 0.714286 0.142857 0.142857
, President ||| , Rais ||| 0.84 0.04 0.12 0.92 0.04 0.04
, Robert ||| , Robert ||| 0.6 0.2 0.2 0.6 0.2 0.2
, Romania ||| , Romania ||| 0.6 0.2 0.2 0.6 0.2 0.2
, Russia ||| , Russia ||| 0.6 0.2 0.2 0.6 0.2 0.2
, Russia ||| , Urusi ||| 0.931034 0.0344828 0.0344828 0.862069 0.0344828 0.103448
, South Korea , and ||| , Korea Kusini , na ||| 0.6 0.2 0.2 0.6 0.2 0.2
, South Korea , ||| , Korea Kusini , ||| 0.6 0.2 0.2 0.6 0.2 0.2
, South Korea ||| , Korea Kusini ||| 0.6 0.2 0.2 0.6 0.2 0.2
, Spain , and ||| , Uhispania , na ||| 0.555556 0.111111 0.333333 0.777778 0.111111 0.111111
, Spain , and ||| , Uhispania na ||| 0.6 0.2 0.2 0.6 0.2 0.2
, Spain , ||| , Uhispania , ||| 0.692308 0.0769231 0.230769 0.846154 0.0769231 0.0769231
, Spain , ||| , Uhispania ||| 0.6 0.2 0.2 0.6 0.2 0.2
, Spain ||| , Uhispania ||| 0.789474 0.0526316 0.157895 0.789474 0.0526316 0.157895
, Texas ||| , Texas ||| 0.6 0.2 0.2 0.6 0.2 0.2
, Turkey ||| , Uturuki ||| 0.555556 0.111111 0.333333 0.777778 0.111111 0.111111
, Yemen ||| , Yemen ||| 0.6 0.2 0.2 0.6 0.2 0.2
, a dedicated ||| , wakili wa kujitolea ||| 0.6 0.2 0.2 0.6 0.2 0.2
, a woman ||| , mwanamke ||| 0.6 0.2 0.2 0.6 0.2 0.2
, a ||| , Ujerumani , ||| 0.6 0.2 0.2 0.6 0.2 0.2
, a ||| , chombo ||| 0.6 0.2 0.2 0.2 0.2 0.6
, a ||| , idadi ||| 0.6 0.2 0.2 0.6 0.2 0.2
, a ||| , kifungu ||| 0.6 0.2 0.2 0.6 0.2 0.2
, a ||| , mahali pa ||| 0.6 0.2 0.2 0.6 0.2 0.2
, a ||| , mahali ||| 0.6 0.2 0.2 0.2 0.2 0.6
, a ||| , meneja ||| 0.6 0.2 0.2 0.6 0.2 0.2
, a ||| , mkutano wa ||| 0.6 0.2 0.2 0.2 0.2 0.6
, a ||| , msukumo wa kutengwa wa ||| 0.6 0.2 0.2 0.2 0.2 0.6
, a ||| , msukumo wa kutengwa ||| 0.6 0.2 0.2 0.2 0.2 0.6
, a ||| , msukumo wa ||| 0.6 0.2 0.2 0.2 0.2 0.6
, a ||| , mtu ||| 0.714286 0.142857 0.142857 0.714286 0.142857 0.142857
, a ||| , mwandishi wa ||| 0.6 0.2 0.2 0.2 0.2 0.6
, a ||| , ni ||| 0.2 0.2 0.6 0.6 0.2 0.2
, a ||| , ripoti ya usimamizi wa ||| 0.6 0.2 0.2 0.2 0.2 0.6
, a ||| , ripoti ya usimamizi ||| 0.6 0.2 0.2 0.2 0.2 0.6
, a ||| , ripoti ya ||| 0.6 0.2 0.2 0.2 0.2 0.6
, a ||| , wakili wa ||| 0.6 0.2 0.2 0.6 0.2 0.2
, a ||| , watazamaji wa ||| 0.6 0.2 0.2 0.6 0.2 0.2
, a ||| , wazo ||| 0.6 0.2 0.2 0.6 0.2 0.2
, a ||| , ||| 0.72973 0.00900901 0.261261 0.657658 0.00900901 0.333333
, a ||| hali ya hewa , ||| 0.2 0.2 0.6 0.6 0.2 0.2
, a ||| kujiamini , ||| 0.2 0.2 0.6 0.6 0.2 0.2
, a ||| kwa hali ya hewa , ||| 0.2 0.2 0.6 0.6 0.2 0.2
, a ||| wa kujiamini , ||| 0.2 0.2 0.6 0.6 0.2 0.2
, a ||| ya hewa , ||| 0.2 0.2 0.6 0.6 0.2 0.2
, about ||| , juu ya ||| 0.714286 0.142857 0.142857 0.428571 0.142857 0.428571
, about ||| , juu ||| 0.777778 0.111111 0.111111 0.333333 0.111111 0.555556
, about ||| , karibu ||| 0.636364 0.0909091 0.272727 0.454545 0.0909091 0.454545
, about ||| , kuhusu ||| 0.428571 0.142857 0.428571 0.142857 0.142857 0.714286
, accompanied by ||| , ikifuatana na kudhoofisha kwa ||| 0.2 0.2 0.6 0.2 0.2 0.6
, accompanied by ||| , ikifuatana na kudhoofisha ||| 0.2 0.2 0.6 0.2 0.2 0.6
, accompanied by ||| , ikifuatana na ||| 0.2 0.2 0.6 0.2 0.2 0.6
, after all , ||| , baada ya yote , ||| 0.466667 0.0666667 0.466667 0.866667 0.0666667 0.0666667
, after all ||| , baada ya yote ||| 0.411765 0.0588235 0.529412 0.882353 0.0588235 0.0588235
, after the ||| , baada ya ||| 0.636364 0.0909091 0.272727 0.454545 0.0909091 0.454545
, after ||| , baada ya ||| 0.62963 0.037037 0.333333 0.777778 0.037037 0.185185
, after ||| , baada ||| 0.641026 0.025641 0.333333 0.333333 0.025641 0.641026
, all of which ||| , yote ambayo ||| 0.2 0.2 0.6 0.6 0.2 0.2
, all of ||| , sote ||| 0.2 0.2 0.6 0.2 0.2 0.6
, all of ||| , yote ||| 0.2 0.2 0.6 0.6 0.2 0.2
, all ||| , njia zote ||| 0.2 0.2 0.6 0.6 0.2 0.2
, all ||| , wote ||| 0.6 0.2 0.2 0.6 0.2 0.2
, all ||| , yote ||| 0.538462 0.0769231 0.384615 0.846154 0.0769231 0.0769231
, all ||| , zote ||| 0.2 0.2 0.6 0.2 0.2 0.6
, almost ||| , karibu ||| 0.777778 0.111111 0.111111 0.777778 0.111111 0.111111
, along with ||| , pamoja na kazi ||| 0.6 0.2 0.2 0.6 0.2 0.2
, along with ||| , pamoja na ||| 0.764706 0.0588235 0.176471 0.411765 0.0588235 0.529412
, along with ||| hayo mara kwa mara , pamoja na ||| 0.6 0.2 0.2 0.6 0.2 0.2
, along with ||| kwa mara , pamoja na ||| 0.2 0.2 0.6 0.6 0.2 0.2
, along with ||| mara , pamoja na ||| 0.2 0.2 0.6 0.6 0.2 0.2
, along with ||| mara kwa mara , pamoja na ||| 0.2 0.2 0.6 0.6 0.2 0.2
, along ||| , pamoja ||| 0.764706 0.0588235 0.176471 0.882353 0.0588235 0.0588235
, along ||| hayo mara kwa mara , pamoja ||| 0.6 0.2 0.2 0.6 0.2 0.2
, along ||| kwa mara , pamoja ||| 0.2 0.2 0.6 0.6 0.2 0.2
, along ||| mara , pamoja ||| 0.2 0.2 0.6 0.6 0.2 0.2
, along ||| mara kwa mara , pamoja ||| 0.2 0.2 0.6 0.6 0.2 0.2
, also ||| , pia ||| 0.2 0.2 0.6 0.2 0.2 0.6
, although ||| , ingawa ||| 0.771429 0.0285714 0.2 0.828571 0.0285714 0.142857
, although ||| juu , ingawa ||| 0.2 0.2 0.6 0.6 0.2 0.2
, although ||| ya juu , ingawa ||| 0.2 0.2 0.6 0.6 0.2 0.2
, an ||| , baraza ||| 0.6 0.2 0.2 0.2 0.2 0.6
, an ||| , mahakama ya ||| 0.714286 0.142857 0.142857 0.714286 0.142857 0.142857
, an ||| , mahakama ||| 0.714286 0.142857 0.142857 0.142857 0.142857 0.714286
, an ||| , mazingira ya ||| 0.2 0.2 0.6 0.2 0.2 0.6
, an ||| , mtaalam wa ||| 0.6 0.2 0.2 0.2 0.2 0.6
, an ||| , nafasi ya ||| 0.6 0.2 0.2 0.6 0.2 0.2
, an ||| , ||| 0.142857 0.142857 0.714286 0.428571 0.142857 0.428571
, an ||| Anga , ||| 0.6 0.2 0.2 0.2 0.2 0.6
, and , ||| , na , ||| 0.575758 0.030303 0.393939 0.878788 0.030303 0.0909091
, and , ||| , na ||| 0.6 0.2 0.2 0.6 0.2 0.2
, and American ||| , na Amerika ||| 0.6 0.2 0.2 0.6 0.2 0.2
, and Canada . ||| , na Canada . ||| 0.6 0.2 0.2 0.6 0.2 0.2
, and Canada ||| , na Canada ||| 0.6 0.2 0.2 0.6 0.2 0.2
, and Greece ||| , na Ugiriki ||| 0.6 0.2 0.2 0.6 0.2 0.2
, and I ||| , na mimi ||| 0.6 0.2 0.2 0.6 0.2 0.2
, and Mexico ||| , na Mexico ||| 0.714286 0.142857 0.142857 0.714286 0.142857 0.142857
, and Russia ||| , na Urusi ||| 0.333333 0.111111 0.555556 0.777778 0.111111 0.111111
, and Spain ||| , na Uhispania ||| 0.692308 0.0769231 0.230769 0.692308 0.0769231 0.230769
, and a ||| , na maoni ||| 0.6 0.2 0.2 0.6 0.2 0.2
, and a ||| , na mfumo ||| 0.428571 0.142857 0.428571 0.428571 0.142857 0.428571
, and a ||| , na ||| 0.586207 0.0344828 0.37931 0.37931 0.0344828 0.586207
, and all of ||| , na zote ||| 0.2 0.2 0.6 0.6 0.2 0.2
, and all ||| , na zote ||| 0.2 0.2 0.6 0.2 0.2 0.6
, and all ||| , na ||| 0.6 0.2 0.2 0.2 0.2 0.6
, and an ||| , na kocha wa mpira wa ||| 0.2 0.2 0.6 0.6 0.2 0.2
, and an ||| , na kocha wa mpira ||| 0.2 0.2 0.6 0.2 0.2 0.6
, and an ||| , na kocha wa ||| 0.2 0.2 0.6 0.2 0.2 0.6
, and an ||| , na ||| 0.2 0.2 0.6 0.6 0.2 0.2
, and by ||| , na kwa ||| 0.555556 0.111111 0.333333 0.555556 0.111111 0.333333
, and by ||| tu , na kwa ||| 0.6 0.2 0.2 0.6 0.2 0.2
, and called ||| , na kupiga ||| 0.6 0.2 0.2 0.2 0.2 0.6
, and certainly ||| , na kwa hakika ||| 0.2 0.2 0.6 0.6 0.2 0.2
, and certainly ||| Amerika na Kiarabu , na kwa hakika ||| 0.2 0.2 0.6 0.6 0.2 0.2
, and certainly ||| Kiarabu , na kwa hakika ||| 0.2 0.2 0.6 0.6 0.2 0.2
, and certainly ||| na Kiarabu , na kwa hakika ||| 0.2 0.2 0.6 0.6 0.2 0.2
, and climate change ||| , na mabadiliko ya hali ya hewa ||| 0.333333 0.111111 0.555556 0.777778 0.111111 0.111111
, and could ||| , na inaweza ||| 0.2 0.2 0.6 0.6 0.2 0.2
, and democracy ||| , na demokrasia ||| 0.6 0.2 0.2 0.6 0.2 0.2
, and economic growth ||| , na ukuaji wa uchumi ||| 0.6 0.2 0.2 0.6 0.2 0.2
, and elsewhere ||| , na kwingineko ||| 0.6 0.2 0.2 0.6 0.2 0.2
, and environmental degradation ||| , na uharibifu wa mazingira ||| 0.714286 0.142857 0.142857 0.714286 0.142857 0.142857
, and environmental ||| , na mazingira ||| 0.6 0.2 0.2 0.2 0.2 0.6
, and even the ||| , na hata ||| 0.2 0.2 0.6 0.6 0.2 0.2
, and even ||| , na hata ||| 0.62963 0.037037 0.333333 0.62963 0.037037 0.333333
, and even ||| , na uwezekano mkubwa ||| 0.6 0.2 0.2 0.2 0.2 0.6
, and even ||| , na uwezekano ||| 0.6 0.2 0.2 0.2 0.2 0.6
, and for the ||| , na kwa ||| 0.6 0.2 0.2 0.6 0.2 0.2
, and for ||| , na kwa ||| 0.454545 0.0909091 0.454545 0.454545 0.0909091 0.454545
, and have ||| , na ||| 0.2 0.2 0.6 0.2 0.2 0.6
, and in ||| , na katika ||| 0.411765 0.0588235 0.529412 0.529412 0.0588235 0.411765
, and in ||| , na kwa ||| 0.2 0.2 0.6 0.2 0.2 0.6
, and in ||| , na nchini ||| 0.6 0.2 0.2 0.6 0.2 0.2
, and in ||| , na ||| 0.6 0.2 0.2 0.6 0.2 0.2
, and it is ||| , na ni ||| 0.428571 0.142857 0.428571 0.428571 0.142857 0.428571
, and low ||| , na uzalishaji mdogo wa ||| 0.2 0.2 0.6 0.6 0.2 0.2
, and low ||| , na uzalishaji mdogo ||| 0.2 0.2 0.6 0.2 0.2 0.6
, and lower ||| , na chini ||| 0.2 0.2 0.6 0.6 0.2 0.2
, and meeting ||| , na kukutana na ||| 0.2 0.2 0.6 0.2 0.2 0.6
, and meeting ||| , na kukutana ||| 0.2 0.2 0.6 0.2 0.2 0.6
, and more . ||| , na zaidi . ||| 0.2 0.2 0.6 0.6 0.2 0.2
, and more ||| , na zaidi ||| 0.428571 0.142857 0.428571 0.714286 0.142857 0.142857
, and not ||| , na sio ||| 0.428571 0.142857 0.428571 0.714286 0.142857 0.142857
, and not ||| , na ||| 0.428571 0.142857 0.428571 0.428571 0.142857 0.428571
, and now ||| , na sasa ||| 0.333333 0.0666667 0.6 0.733333 0.0666667 0.2
, and one ||| , na moja ||| 0.6 0.2 0.2 0.6 0.2 0.2
, and others . ||| , na wengineo . ||| 0.6 0.2 0.2 0.6 0.2 0.2
, and others ||| , na wengine pia ||| 0.2 0.2 0.6 0.6 0.2 0.2
, and others ||| , na wengine ||| 0.636364 0.0909091 0.272727 0.636364 0.0909091 0.272727
, and others ||| , na wengineo ||| 0.714286 0.142857 0.142857 0.714286 0.142857 0.142857
, and perhaps ||| , na labda ||| 0.818182 0.0909091 0.0909091 0.636364 0.0909091 0.272727
, and political ||| , na kisiasa ||| 0.6 0.2 0.2 0.6 0.2 0.2
, and political ||| na kisiasa ||| 0.6 0.2 0.2 0.2 0.2 0.6
, and poor countries ||| , na nchi masikini ||| 0.6 0.2 0.2 0.6 0.2 0.2
, and possibly ||| , na labda ||| 0.6 0.2 0.2 0.6 0.2 0.2
, and promote ||| , na kukuza ||| 0.2 0.2 0.6 0.6 0.2 0.2
, and research ||| , na utafiti ||| 0.6 0.2 0.2 0.6 0.2 0.2
, and so may ||| , na kwa hivyo wanaweza ||| 0.2 0.2 0.6 0.6 0.2 0.2
, and so ||| , na hivyo ||| 0.428571 0.142857 0.428571 0.714286 0.142857 0.142857
, and so ||| , na kwa hivyo ||| 0.333333 0.111111 0.555556 0.777778 0.111111 0.111111
, and social ||| , na kijamii ||| 0.6 0.2 0.2 0.2 0.2 0.6
, and such ||| , na makubaliano kama ||| 0.2 0.2 0.6 0.2 0.2 0.6
, and that the ||| , na kwamba ||| 0.555556 0.111111 0.333333 0.777778 0.111111 0.111111
, and that the ||| fedha , na kwamba ||| 0.2 0.2 0.6 0.6 0.2 0.2
, and that the ||| ya fedha , na kwamba ||| 0.6 0.2 0.2 0.6 0.2 0.2
, and that ||| , na ambayo ||| 0.2 0.2 0.6 0.6 0.2 0.2
, and that ||| , na hiyo ||| 0.428571 0.142857 0.428571 0.714286 0.142857 0.142857
, and that ||| , na ile ||| 0.6 0.2 0.2 0.6 0.2 0.2
, and that ||| , na kwamba vifaa ||| 0.2 0.2 0.6 0.6 0.2 0.2
, and that ||| , na kwamba ||| 0.661538 0.0153846 0.323077 0.415385 0.0153846 0.569231
, and that ||| fedha , na kwamba ||| 0.2 0.2 0.6 0.2 0.2 0.6
, and that ||| kimataifa , na kwamba vifaa ||| 0.2 0.2 0.6 0.6 0.2 0.2
, and that ||| kimataifa , na kwamba ||| 0.2 0.2 0.6 0.2 0.2 0.6
, and that ||| uchumi , na kwamba ||| 0.2 0.2 0.6 0.6 0.2 0.2
, and that ||| wa kimataifa , na kwamba vifaa ||| 0.6 0.2 0.2 0.6 0.2 0.2
, and that ||| wa kimataifa , na kwamba ||| 0.6 0.2 0.2 0.2 0.2 0.6
, and that ||| wa uchumi , na kwamba ||| 0.6 0.2 0.2 0.6 0.2 0.2
, and that ||| wakati , na kwamba ||| 0.2 0.2 0.6 0.6 0.2 0.2
, and that ||| ya fedha , na kwamba ||| 0.6 0.2 0.2 0.2 0.2 0.6
, and the US ||| , na Amerika inapaswa ||| 0.2 0.2 0.6 0.2 0.2 0.6
, and the US ||| , na Amerika ||| 0.636364 0.0909091 0.272727 0.636364 0.0909091 0.272727
, and the US ||| sasa , na Amerika inapaswa ||| 0.2 0.2 0.6 0.2 0.2 0.6
, and the US ||| sasa , na Amerika ||| 0.2 0.2 0.6 0.2 0.2 0.6
, and the US ||| ya sasa , na Amerika inapaswa ||| 0.2 0.2 0.6 0.2 0.2 0.6
, and the US ||| ya sasa , na Amerika ||| 0.2 0.2 0.6 0.2 0.2 0.6
, and the United States ||| , na Amerika ||| 0.6 0.2 0.2 0.6 0.2 0.2
, and the United ||| , na Amerika ||| 0.6 0.2 0.2 0.2 0.2 0.6
, and the ||| , na mwendesha ||| 0.2 0.2 0.6 0.2 0.2 0.6
, and the ||| , na shida ||| 0.6 0.2 0.2 0.6 0.2 0.2
, and the ||| , na vizuizi vya ||| 0.6 0.2 0.2 0.6 0.2 0.2
, and the ||| , na ||| 0.568345 0.00719424 0.42446 0.856115 0.00719424 0.136691
, and the ||| kila siku , na ||| 0.2 0.2 0.6 0.6 0.2 0.2
, and the ||| kisasa , na ||| 0.2 0.2 0.6 0.6 0.2 0.2
, and the ||| sasa , na ||| 0.2 0.2 0.6 0.6 0.2 0.2
, and the ||| siku , na ||| 0.2 0.2 0.6 0.6 0.2 0.2
, and the ||| tu , na ||| 0.6 0.2 0.2 0.6 0.2 0.2
, and the ||| ya kila siku , na ||| 0.6 0.2 0.2 0.6 0.2 0.2
, and the ||| ya kisasa , na ||| 0.2 0.2 0.6 0.6 0.2 0.2
, and the ||| ya muda mrefu , na ||| 0.2 0.2 0.6 0.6 0.2 0.2
, and the ||| ya sasa , na ||| 0.2 0.2 0.6 0.6 0.2 0.2
, and their ||| , na hatua yao ||| 0.6 0.2 0.2 0.6 0.2 0.2
, and they can ||| , na wanaweza ||| 0.6 0.2 0.2 0.6 0.2 0.2
, and they will ||| , na watajikuta ||| 0.6 0.2 0.2 0.6 0.2 0.2
, and they ||| , na ||| 0.6 0.2 0.2 0.2 0.2 0.6
, and thus ||| , na hivyo ||| 0.6 0.2 0.2 0.6 0.2 0.2
, and thus ||| , na kwa hivyo ||| 0.407407 0.037037 0.555556 0.703704 0.037037 0.259259
, and to ||| , na kwa ||| 0.2 0.2 0.6 0.2 0.2 0.6
, and to ||| , na ||| 0.636364 0.0909091 0.272727 0.636364 0.0909091 0.272727
, and was ||| , na alikuwa ||| 0.2 0.2 0.6 0.2 0.2 0.6
, and was ||| , na ilikuwa ||| 0.333333 0.111111 0.555556 0.555556 0.111111 0.333333
, and water . ||| , na maji . ||| 0.6 0.2 0.2 0.2 0.2 0.6
, and water ||| , na maji ||| 0.6 0.2 0.2 0.6 0.2 0.2
, and why ||| , na kwa nini ||| 0.6 0.2 0.2 0.2 0.2 0.6
, and ||| , na Wamarekani ||| 0.6 0.2 0.2 0.6 0.2 0.2
, and ||| , na bila shaka ||| 0.6 0.2 0.2 0.2 0.2 0.6
, and ||| , na bila ||| 0.6 0.2 0.2 0.2 0.2 0.6
, and ||| , na hatua ||| 0.6 0.2 0.2 0.6 0.2 0.2
, and ||| , na kukosekana kwa ||| 0.6 0.2 0.2 0.2 0.2 0.6
, and ||| , na kukosekana ||| 0.6 0.2 0.2 0.2 0.2 0.6
, and ||| , na kuonekana ||| 0.2 0.2 0.6 0.6 0.2 0.2
, and ||| , na kwa sababu hiyo ||| 0.6 0.2 0.2 0.6 0.2 0.2
, and ||| , na kwa sababu ||| 0.6 0.2 0.2 0.2 0.2 0.6
, and ||| , na kwa ||| 0.6 0.2 0.2 0.2 0.2 0.6
, and ||| , na makubaliano ||| 0.2 0.2 0.6 0.6 0.2 0.2
, and ||| , na maoni ya ||| 0.2 0.2 0.6 0.2 0.2 0.6
, and ||| , na maoni ||| 0.2 0.2 0.6 0.2 0.2 0.6
, and ||| , na maswala ||| 0.6 0.2 0.2 0.6 0.2 0.2
, and ||| , na misaada ya ||| 0.6 0.2 0.2 0.6 0.2 0.2
, and ||| , na misaada ||| 0.6 0.2 0.2 0.2 0.2 0.6
, and ||| , na mpango ||| 0.2 0.2 0.6 0.6 0.2 0.2
, and ||| , na muujiza ||| 0.6 0.2 0.2 0.6 0.2 0.2
, and ||| , na nyota ||| 0.6 0.2 0.2 0.6 0.2 0.2
, and ||| , na ruzuku ya ||| 0.2 0.2 0.6 0.6 0.2 0.2
, and ||| , na ruzuku ||| 0.2 0.2 0.6 0.2 0.2 0.6
, and ||| , na sarafu ||| 0.6 0.2 0.2 0.6 0.2 0.2
, and ||| , na timu ||| 0.2 0.2 0.6 0.6 0.2 0.2
, and ||| , na uamuzi ||| 0.6 0.2 0.2 0.6 0.2 0.2
, and ||| , na ubunifu ||| 0.6 0.2 0.2 0.6 0.2 0.2
, and ||| , na utumiaji ||| 0.2 0.2 0.6 0.2 0.2 0.6
, and ||| , na uzalishaji ||| 0.2 0.2 0.6 0.6 0.2 0.2
, and ||| , na vikosi ||| 0.2 0.2 0.6 0.2 0.2 0.6
, and ||| , na vizuizi ||| 0.6 0.2 0.2 0.6 0.2 0.2
, and ||| , na vyanzo ||| 0.6 0.2 0.2 0.6 0.2 0.2
, and ||| , na wa ||| 0.6 0.2 0.2 0.6 0.2 0.2
, and ||| , na wadai wa ||| 0.2 0.2 0.6 0.6 0.2 0.2
, and ||| , na wadai ||| 0.2 0.2 0.6 0.2 0.2 0.6
, and ||| , na ya ||| 0.777778 0.111111 0.111111 0.777778 0.111111 0.111111
, and ||| , na zaidi nguvu nguvu ||| 0.6 0.2 0.2 0.6 0.2 0.2
, and ||| , na zaidi nguvu ||| 0.6 0.2 0.2 0.2 0.2 0.6
, and ||| , na zaidi ||| 0.6 0.2 0.2 0.2 0.2 0.6
, and ||| , na ||| 0.63875 0.000385951 0.360865 0.662679 0.00115785 0.336164
, and ||| . , na ||| 0.2 0.2 0.6 0.6 0.2 0.2
, and ||| Amerika na Kiarabu , na ||| 0.2 0.2 0.6 0.6 0.2 0.2
, and ||| Kiarabu , na ||| 0.2 0.2 0.6 0.6 0.2 0.2
, and ||| Merika , na ||| 0.6 0.2 0.2 0.6 0.2 0.2
, and ||| WWII , na ||| 0.2 0.2 0.6 0.2 0.2 0.6
, and ||| chini , na ||| 0.2 0.2 0.6 0.2 0.2 0.6
, and ||| dunia , na ||| 0.2 0.2 0.6 0.6 0.2 0.2
, and ||| fedha , na ||| 0.2 0.2 0.6 0.6 0.2 0.2
, and ||| hewa , na ||| 0.2 0.2 0.6 0.6 0.2 0.2
, and ||| huru , na ||| 0.6 0.2 0.2 0.2 0.2 0.6
, and ||| isiyohamishika , na ||| 0.2 0.2 0.6 0.6 0.2 0.2
, and ||| jadi , na ||| 0.2 0.2 0.6 0.6 0.2 0.2
, and ||| juu , na ||| 0.2 0.2 0.6 0.6 0.2 0.2
, and ||| kabla ya WWII , na ||| 0.2 0.2 0.6 0.2 0.2 0.6
, and ||| kawaida , na ||| 0.2 0.2 0.6 0.6 0.2 0.2
, and ||| kigeni , na ||| 0.6 0.2 0.2 0.6 0.2 0.2
, and ||| kila siku , na ||| 0.2 0.2 0.6 0.2 0.2 0.6
, and ||| kimataifa , na ||| 0.2 0.2 0.6 0.6 0.2 0.2
, and ||| kimkakati. na ||| 0.2 0.2 0.6 0.6 0.2 0.2
, and ||| kirefu , na ||| 0.2 0.2 0.6 0.6 0.2 0.2
, and ||| kisasa , na ||| 0.2 0.2 0.6 0.2 0.2 0.6
, and ||| kubwa , na ||| 0.6 0.2 0.2 0.6 0.2 0.2
, and ||| kweli , na ||| 0.2 0.2 0.6 0.6 0.2 0.2
, and ||| mahakama , na ||| 0.2 0.2 0.6 0.2 0.2 0.6
, and ||| mahindi , na ||| 0.2 0.2 0.6 0.6 0.2 0.2
, and ||| maji , na ||| 0.2 0.2 0.6 0.2 0.2 0.6
, and ||| mdogo , na ||| 0.2 0.2 0.6 0.6 0.2 0.2
, and ||| mfupi , na ||| 0.2 0.2 0.6 0.6 0.2 0.2
, and ||| mikataba , na ||| 0.2 0.2 0.6 0.2 0.2 0.6
, and ||| mkopo , na ||| 0.2 0.2 0.6 0.6 0.2 0.2
, and ||| mrefu , na ||| 0.2 0.2 0.6 0.2 0.2 0.6
, and ||| muda mrefu , na ||| 0.2 0.6 0.2 0.2 0.2 0.6
, and ||| mwamba , na ||| 0.2 0.2 0.6 0.2 0.2 0.6
, and ||| na Kiarabu , na ||| 0.2 0.2 0.6 0.6 0.2 0.2
, and ||| na mahindi , na ||| 0.2 0.2 0.6 0.6 0.2 0.2
, and ||| na usafirishaji , na ||| 0.2 0.2 0.6 0.6 0.2 0.2
, and ||| na ||| 0.870968 0.0322581 0.0967742 0.806452 0.0322581 0.16129
, and ||| rasilimali , na ||| 0.142857 0.142857 0.714286 0.428571 0.142857 0.428571
, and ||| sasa , na ||| 0.142857 0.142857 0.714286 0.428571 0.142857 0.428571
, and ||| siku , na ||| 0.2 0.2 0.6 0.2 0.2 0.6
, and ||| soko , na ||| 0.2 0.2 0.6 0.6 0.2 0.2
, and ||| tu , na ||| 0.555556 0.111111 0.333333 0.555556 0.111111 0.333333
, and ||| uchumi , na ||| 0.2 0.2 0.6 0.6 0.2 0.2
, and ||| ugavi , na ||| 0.2 0.2 0.6 0.2 0.2 0.6
, and ||| upungufu mdogo , na ||| 0.2 0.2 0.6 0.6 0.2 0.2
, and ||| usafirishaji , na ||| 0.2 0.2 0.6 0.6 0.2 0.2
, and ||| wa kabla ya WWII , na ||| 0.2 0.2 0.6 0.2 0.2 0.6
, and ||| wa kawaida , na ||| 0.6 0.2 0.2 0.6 0.2 0.2
, and ||| wa kimataifa , na ||| 0.6 0.2 0.2 0.6 0.2 0.2
, and ||| wa uchumi , na ||| 0.6 0.2 0.2 0.6 0.2 0.2
, and ||| wa ugavi , na ||| 0.2 0.2 0.6 0.2 0.2 0.6
, and ||| wadogo , na ||| 0.6 0.2 0.2 0.2 0.2 0.6
, and ||| wakati , na ||| 0.2 0.2 0.6 0.6 0.2 0.2
, and ||| ya WWII , na ||| 0.2 0.2 0.6 0.2 0.2 0.6
, and ||| ya chini , na ||| 0.2 0.2 0.6 0.2 0.2 0.6
, and ||| ya fedha , na ||| 0.6 0.2 0.2 0.6 0.2 0.2
, and ||| ya jadi , na ||| 0.2 0.2 0.6 0.6 0.2 0.2
, and ||| ya juu , na ||| 0.2 0.2 0.6 0.6 0.2 0.2
, and ||| ya kila siku , na ||| 0.6 0.2 0.2 0.2 0.2 0.6
, and ||| ya kisasa , na ||| 0.2 0.2 0.6 0.2 0.2 0.6
, and ||| ya kweli , na ||| 0.6 0.2 0.2 0.6 0.2 0.2
, and ||| ya mahakama , na ||| 0.6 0.2 0.2 0.2 0.2 0.6
, and ||| ya maji , na ||| 0.2 0.2 0.6 0.2 0.2 0.6
, and ||| ya mikataba , na ||| 0.2 0.2 0.6 0.2 0.2 0.6
, and ||| ya sasa , na ||| 0.2 0.2 0.6 0.2 0.2 0.6
, and ||| ya soko , na ||| 0.2 0.2 0.6 0.6 0.2 0.2
, and ||| zaidi , na ||| 0.2 0.2 0.6 0.2 0.2 0.6
, any ||| , yoyote ||| 0.2 0.2 0.6 0.6 0.2 0.2
, are the ||| , Je ! ||| 0.6 0.2 0.2 0.6 0.2 0.2
, are the ||| , ni ||| 0.2 0.2 0.6 0.6 0.2 0.2
, are ||| , Je ||| 0.6 0.2 0.2 0.6 0.2 0.2
, are ||| , hazina ||| 0.6 0.2 0.2 0.6 0.2 0.2
, are ||| , iko ||| 0.6 0.2 0.2 0.6 0.2 0.2
, are ||| , je ! ||| 0.6 0.2 0.2 0.6 0.2 0.2
, are ||| , je ||| 0.6 0.2 0.2 0.2 0.2 0.6
, are ||| , ni ||| 0.619048 0.047619 0.333333 0.52381 0.047619 0.428571
, are ||| , wanaamini ||| 0.2 0.2 0.6 0.6 0.2 0.2
, are ||| , ||| 0.6 0.2 0.2 0.6 0.2 0.2
, aren ||| , sio ||| 0.2 0.2 0.6 0.2 0.2 0.6
, arms ||| , mikono ||| 0.6 0.2 0.2 0.6 0.2 0.2
, as a matter of ||| , kama suala la ||| 0.6 0.2 0.2 0.2 0.2 0.6
, as a matter ||| , kama suala ||| 0.6 0.2 0.2 0.6 0.2 0.2
, as a ||| , kama ||| 0.6 0.2 0.2 0.6 0.2 0.2
, as a ||| , kwa ||| 0.6 0.2 0.2 0.6 0.2 0.2
, as happened ||| , kama ilivyotokea ||| 0.6 0.2 0.2 0.6 0.2 0.2
, as in ||| , kama ilivyo katika ||| 0.777778 0.111111 0.111111 0.333333 0.111111 0.555556
, as in ||| , kama ilivyo ||| 0.714286 0.142857 0.142857 0.428571 0.142857 0.428571
, as in ||| , kama katika ||| 0.428571 0.142857 0.428571 0.714286 0.142857 0.142857
, as in ||| Merika , kama katika ||| 0.2 0.2 0.6 0.6 0.2 0.2
, as in ||| na Merika , kama katika ||| 0.2 0.2 0.6 0.6 0.2 0.2
, as it did ||| , kama ilivyofanya ||| 0.2 0.2 0.6 0.6 0.2 0.2
, as it did ||| , kama ilivyokuwa ||| 0.2 0.2 0.6 0.6 0.2 0.2
, as it ||| , kwani ||| 0.6 0.2 0.2 0.2 0.2 0.6
, as part of ||| , kama sehemu ya ||| 0.6 0.2 0.2 0.2 0.2 0.6
, as part ||| , kama sehemu ||| 0.6 0.2 0.2 0.6 0.2 0.2
, as the ||| , kama vile mtaalam wa ||| 0.6 0.2 0.2 0.6 0.2 0.2
, as the ||| , kama ||| 0.555556 0.111111 0.333333 0.777778 0.111111 0.111111
, as the ||| , kwani mabadiliko ya uchumi ||| 0.6 0.2 0.2 0.2 0.2 0.6
, as the ||| , kwani mabadiliko ya ||| 0.6 0.2 0.2 0.2 0.2 0.6
, as the ||| , kwani wa ||| 0.6 0.2 0.2 0.6 0.2 0.2
, as the ||| , kwani ||| 0.428571 0.142857 0.428571 0.142857 0.142857 0.714286
, as the ||| , wakati ||| 0.2 0.2 0.6 0.6 0.2 0.2
, as the ||| pekee , kama ||| 0.2 0.2 0.6 0.6 0.2 0.2
, as the ||| ya pekee , kama ||| 0.6 0.2 0.2 0.6 0.2 0.2
, as well as a ||| , na pia ||| 0.6 0.2 0.2 0.6 0.2 0.2
, as well as ||| , na pia ||| 0.586207 0.0344828 0.37931 0.724138 0.0344828 0.241379
, as well as ||| , na vile vile ||| 0.517241 0.0344828 0.448276 0.586207 0.0344828 0.37931
, as well as ||| , na ||| 0.636364 0.0909091 0.272727 0.0909091 0.0909091 0.818182
, as well as ||| , pamoja na ||| 0.52 0.04 0.44 0.12 0.04 0.84
, as well as ||| , vile vile ||| 0.2 0.2 0.6 0.6 0.2 0.2
, as well ||| , kama vile ||| 0.6 0.2 0.2 0.6 0.2 0.2
, as well ||| , na pia ||| 0.2 0.2 0.6 0.6 0.2 0.2
, as well ||| , na vile vile ||| 0.2 0.2 0.6 0.2 0.2 0.6
, as well ||| , na ||| 0.692308 0.0769231 0.230769 0.0769231 0.0769231 0.846154
, as well ||| , pamoja ||| 0.454545 0.0909091 0.454545 0.818182 0.0909091 0.0909091
, as well ||| , vile ||| 0.2 0.2 0.6 0.6 0.2 0.2
, as ||| , ikiwa ||| 0.6 0.2 0.2 0.6 0.2 0.2
, as ||| , kama ilivyo ||| 0.692308 0.0769231 0.230769 0.846154 0.0769231 0.0769231
, as ||| , kama ilivyokuwa ||| 0.2 0.2 0.6 0.2 0.2 0.6
, as ||| , kama vile kawaida ||| 0.6 0.2 0.2 0.6 0.2 0.2
, as ||| , kama vile mtaalam ||| 0.6 0.2 0.2 0.6 0.2 0.2
, as ||| , kama vile ||| 0.846154 0.0769231 0.0769231 0.230769 0.0769231 0.692308
, as ||| , kama ||| 0.743316 0.00534759 0.251337 0.636364 0.00534759 0.358289
, as ||| , kwa jinsi ||| 0.6 0.2 0.2 0.6 0.2 0.2
, as ||| , kwa muda ||| 0.6 0.2 0.2 0.6 0.2 0.2
, as ||| , kwa vile ||| 0.6 0.2 0.2 0.6 0.2 0.2
, as ||| , kwa ||| 0.777778 0.111111 0.111111 0.333333 0.111111 0.555556
, as ||| , kwani mabadiliko ||| 0.6 0.2 0.2 0.6 0.2 0.2
, as ||| , kwani mazao ya ||| 0.6 0.2 0.2 0.2 0.2 0.6
, as ||| , kwani mazao ||| 0.6 0.2 0.2 0.2 0.2 0.6
, as ||| , kwani ||| 0.59322 0.0169492 0.389831 0.559322 0.0169492 0.423729
, as ||| , mradi tu uchumi ||| 0.2 0.2 0.6 0.2 0.2 0.6
, as ||| , mradi tu ||| 0.428571 0.142857 0.428571 0.428571 0.142857 0.428571
, as ||| , mradi ||| 0.428571 0.142857 0.428571 0.142857 0.142857 0.714286
, as ||| , na vile ||| 0.2 0.2 0.6 0.6 0.2 0.2
, as ||| , wakati ||| 0.428571 0.142857 0.428571 0.428571 0.142857 0.428571
, as ||| , ||| 0.52 0.04 0.44 0.84 0.04 0.12
, as ||| Amerika , kwani ||| 0.2 0.2 0.6 0.6 0.2 0.2
, as ||| Merika , kama ||| 0.2 0.2 0.6 0.6 0.2 0.2
, as ||| mkubwa sana , kama ||| 0.6 0.2 0.2 0.6 0.2 0.2
, as ||| na Merika , kama ||| 0.2 0.2 0.6 0.6 0.2 0.2
, as ||| pekee , kama ||| 0.2 0.2 0.6 0.2 0.2 0.6
, as ||| sana , kama ||| 0.2 0.2 0.6 0.6 0.2 0.2
, as ||| ya pekee , kama ||| 0.6 0.2 0.2 0.2 0.2 0.6
, at the end of ||| , mwisho wake ||| 0.6 0.2 0.2 0.6 0.2 0.2
, at the end ||| , mwisho ||| 0.6 0.2 0.2 0.6 0.2 0.2
, at the ||| , kwa uchache ||| 0.6 0.2 0.2 0.6 0.2 0.2
, at the ||| , kwa ||| 0.428571 0.142857 0.428571 0.428571 0.142857 0.428571
, at the ||| , ||| 0.6 0.2 0.2 0.6 0.2 0.2
, at the ||| maana , kwa ||| 0.6 0.2 0.2 0.2 0.2 0.6
, at ||| , katika ||| 0.818182 0.0909091 0.0909091 0.0909091 0.0909091 0.818182
, at ||| , kwa uchache ||| 0.6 0.2 0.2 0.2 0.2 0.6
, at ||| , kwa ||| 0.68 0.04 0.28 0.28 0.04 0.68
, at ||| , kwenye ||| 0.714286 0.142857 0.142857 0.142857 0.142857 0.714286
, at ||| , wakati ||| 0.714286 0.142857 0.142857 0.714286 0.142857 0.142857
, at ||| , ||| 0.636364 0.0909091 0.272727 0.454545 0.0909091 0.454545
, at ||| maana , kwa ||| 0.6 0.2 0.2 0.2 0.2 0.6
, be ||| , itakuwa ||| 0.6 0.2 0.2 0.6 0.2 0.2
, because , unfortunately ||| , kwa sababu , kwa bahati mbaya ||| 0.6 0.2 0.2 0.6 0.2 0.2
, because , ||| , kwa sababu , ||| 0.6 0.2 0.2 0.6 0.2 0.2
, because it is ||| , kwa sababu ni ||| 0.2 0.2 0.6 0.6 0.2 0.2
, because it ||| , kwa sababu haionekani ||| 0.2 0.2 0.6 0.2 0.2 0.6
, because it ||| , kwa sababu ||| 0.2 0.2 0.6 0.2 0.2 0.6
, because the ||| , kwa sababu ||| 0.677419 0.0322581 0.290323 0.806452 0.0322581 0.16129
, because they are ||| , kwa sababu zina ||| 0.6 0.2 0.2 0.6 0.2 0.2
, because ||| , kwa sababu vifo ||| 0.2 0.2 0.6 0.6 0.2 0.2
, because ||| , kwa sababu ||| 0.675393 0.0052356 0.319372 0.602094 0.0052356 0.39267
, because ||| Amerika , kwa sababu ||| 0.6 0.2 0.2 0.2 0.2 0.6
, because ||| chini , kwa sababu ||| 0.2 0.2 0.6 0.2 0.2 0.6
, because ||| kwa sababu ||| 0.2 0.2 0.6 0.6 0.2 0.2
, because ||| kweli , kwa sababu ||| 0.2 0.2 0.6 0.6 0.2 0.2
, because ||| lazima , kwa sababu ||| 0.2 0.2 0.6 0.6 0.2 0.2
, because ||| wa kweli , kwa sababu ||| 0.2 0.2 0.6 0.6 0.2 0.2
, because ||| wa lazima , kwa sababu ||| 0.6 0.2 0.2 0.6 0.2 0.2
, because ||| ya chini , kwa sababu ||| 0.6 0.2 0.2 0.2 0.2 0.6
, being ||| , kuwa ||| 0.6 0.2 0.2 0.2 0.2 0.6
, believing ||| , akiamini ||| 0.6 0.2 0.2 0.2 0.2 0.6
, benefited from ||| , ilifaidika na ||| 0.6 0.2 0.2 0.2 0.2 0.6
, beyond ||| , zaidi ya ||| 0.714286 0.142857 0.142857 0.714286 0.142857 0.142857
, beyond ||| , zaidi ||| 0.777778 0.111111 0.111111 0.333333 0.111111 0.555556
, bondholders ||| , wahisani ||| 0.6 0.2 0.2 0.6 0.2 0.2
, both from ||| , wote kutoka ||| 0.6 0.2 0.2 0.2 0.2 0.6
, both sides ||| , pande zote mbili ||| 0.6 0.2 0.2 0.6 0.2 0.2
, both ||| , wote ||| 0.733333 0.0666667 0.2 0.866667 0.0666667 0.0666667
, both ||| , zote mbili ||| 0.2 0.2 0.6 0.6 0.2 0.2
, both ||| , zote ||| 0.428571 0.142857 0.428571 0.714286 0.142857 0.142857
, both ||| , ||| 0.555556 0.111111 0.333333 0.777778 0.111111 0.111111
, but a ||| , lakini kushuka ||| 0.6 0.2 0.2 0.2 0.2 0.6
, but a ||| , lakini ni ||| 0.428571 0.142857 0.428571 0.714286 0.142857 0.142857
, but a ||| , lakini ||| 0.6 0.2 0.2 0.2 0.2 0.6
, but also in ||| , bali pia ||| 0.2 0.2 0.6 0.2 0.2 0.6
, but also in ||| , lakini pia katika ||| 0.428571 0.142857 0.428571 0.142857 0.142857 0.714286
, but also ||| , bali pia ||| 0.2 0.04 0.76 0.84 0.04 0.12
, but also ||| , lakini pia ni ||| 0.142857 0.142857 0.714286 0.714286 0.142857 0.142857
, but also ||| , lakini pia serikali ya watoto wachanga ||| 0.2 0.2 0.6 0.2 0.2 0.6
, but also ||| , lakini pia serikali ya watoto ||| 0.2 0.2 0.6 0.2 0.2 0.6
, but also ||| , lakini pia serikali ya ||| 0.2 0.2 0.6 0.2 0.2 0.6
, but also ||| , lakini pia serikali ||| 0.2 0.2 0.6 0.2 0.2 0.6
, but also ||| , lakini pia ||| 0.561644 0.0136986 0.424658 0.753425 0.0136986 0.232877
, but also ||| binafsi , lakini pia ||| 0.2 0.2 0.6 0.2 0.2 0.6
, but also ||| sekta binafsi , lakini pia ||| 0.2 0.2 0.6 0.2 0.2 0.6
, but also ||| ya sekta binafsi , lakini pia ||| 0.2 0.2 0.6 0.2 0.2 0.6
, but are also ||| , lakini pia ||| 0.428571 0.142857 0.428571 0.714286 0.142857 0.142857
, but are ||| , lakini ni ||| 0.2 0.2 0.6 0.2 0.2 0.6
, but are ||| , lakini ||| 0.428571 0.142857 0.428571 0.714286 0.142857 0.142857
, but from ||| , lakini kutoka ||| 0.714286 0.142857 0.142857 0.714286 0.142857 0.142857
, but if ||| , lakini ikiwa ||| 0.142857 0.142857 0.714286 0.428571 0.142857 0.428571
, but in ||| , lakini katika ||| 0.333333 0.111111 0.555556 0.333333 0.111111 0.555556
, but in ||| , lakini kwa ||| 0.538462 0.0769231 0.384615 0.384615 0.0769231 0.538462
, but in ||| , lakini mnamo ||| 0.2 0.2 0.6 0.6 0.2 0.2
, but in ||| , lakini ||| 0.6 0.2 0.2 0.6 0.2 0.2
, but instead ||| , lakini badala yake ||| 0.714286 0.142857 0.142857 0.714286 0.142857 0.142857
, but is ||| , lakini je ! ||| 0.6 0.2 0.2 0.2 0.2 0.6
, but is ||| , lakini je ||| 0.6 0.2 0.2 0.2 0.2 0.6
, but is ||| , lakini ||| 0.714286 0.142857 0.142857 0.714286 0.142857 0.142857
, but it has ||| , lakini ina ||| 0.6 0.2 0.2 0.2 0.2 0.6
, but not for ||| , lakini sio kwa ||| 0.2 0.2 0.6 0.2 0.2 0.6
, but not ||| , lakini sio ||| 0.677419 0.0322581 0.290323 0.741935 0.0322581 0.225806
, but now ||| , lakini sasa ||| 0.428571 0.142857 0.428571 0.714286 0.142857 0.142857
, but one that ||| , lakini moja ambayo ||| 0.6 0.2 0.2 0.6 0.2 0.2
, but one ||| , lakini alikuwa mmoja ||| 0.2 0.2 0.6 0.6 0.2 0.2
, but one ||| , lakini hakuna mtu ||| 0.6 0.2 0.2 0.6 0.2 0.2
, but one ||| , lakini moja ||| 0.6 0.2 0.2 0.6 0.2 0.2
, but rather ||| , bali ||| 0.6 0.2 0.2 0.6 0.2 0.2
, but rather ||| , lakini badala ya ||| 0.6 0.2 0.2 0.6 0.2 0.2
, but rather ||| , lakini badala yake ||| 0.6 0.2 0.2 0.6 0.2 0.2
, but rather ||| , lakini badala ||| 0.384615 0.0769231 0.538462 0.230769 0.0769231 0.692308
, but rather ||| , lakini ||| 0.142857 0.142857 0.714286 0.714286 0.142857 0.142857
, but still ||| , lakini bado ||| 0.6 0.2 0.2 0.6 0.2 0.2
, but that ||| , lakini ambayo ||| 0.2 0.2 0.6 0.6 0.2 0.2
, but that ||| , lakini hiyo ||| 0.6 0.2 0.2 0.6 0.2 0.2
, but that ||| , lakini kwamba ||| 0.636364 0.0909091 0.272727 0.454545 0.0909091 0.454545
, but the ||| , bali ||| 0.2 0.2 0.6 0.6 0.2 0.2
, but the ||| , lakini wale ||| 0.2 0.2 0.6 0.6 0.2 0.2
, but the ||| , lakini ya ||| 0.6 0.2 0.2 0.6 0.2 0.2
, but the ||| , lakini ||| 0.612903 0.0322581 0.354839 0.612903 0.0322581 0.354839
, but the ||| tu , bali ||| 0.6 0.2 0.2 0.6 0.2 0.2
, but they ||| , lakini ||| 0.428571 0.142857 0.428571 0.142857 0.142857 0.714286
, but this ||| , lakini hii ||| 0.692308 0.0769231 0.230769 0.692308 0.0769231 0.230769
, but to ||| , bali kwa ||| 0.6 0.2 0.2 0.6 0.2 0.2
, but to ||| , lakini kwa ||| 0.6 0.2 0.2 0.6 0.2 0.2
, but will also be ||| , lakini pia itakuwa ||| 0.6 0.2 0.2 0.6 0.2 0.2
, but without ||| , lakini bila ||| 0.428571 0.142857 0.428571 0.714286 0.142857 0.142857
, but you ||| , lakini ||| 0.2 0.2 0.6 0.6 0.2 0.2
, but ||| , bali ||| 0.225806 0.0322581 0.741935 0.870968 0.0322581 0.0967742
, but ||| , lakini alikuwa ||| 0.2 0.2 0.6 0.6 0.2 0.2
, but ||| , lakini hakuna ||| 0.6 0.2 0.2 0.6 0.2 0.2
, but ||| , lakini ilianza ||| 0.2 0.2 0.6 0.6 0.2 0.2
, but ||| , lakini kwa ||| 0.428571 0.142857 0.428571 0.428571 0.142857 0.428571
, but ||| , lakini maeneo ya ||| 0.2 0.2 0.6 0.6 0.2 0.2
, but ||| , lakini maeneo ||| 0.2 0.2 0.6 0.2 0.2 0.6
, but ||| , lakini mawazo ||| 0.2 0.2 0.6 0.6 0.2 0.2
, but ||| , lakini ni ||| 0.714286 0.142857 0.142857 0.428571 0.142857 0.428571
, but ||| , lakini usumbufu ||| 0.6 0.2 0.2 0.6 0.2 0.2
, but ||| , lakini wale ||| 0.2 0.2 0.6 0.2 0.2 0.6
, but ||| , lakini ||| 0.603345 0.00119474 0.39546 0.715651 0.00119474 0.283154
, but ||| afya , lakini ||| 0.2 0.2 0.6 0.6 0.2 0.2
, but ||| binafsi , lakini ||| 0.2 0.2 0.6 0.6 0.2 0.2
, but ||| cha katikati ya shida , lakini ||| 0.2 0.2 0.6 0.6 0.2 0.2
, but ||| deni , lakini ||| 0.2 0.2 0.6 0.2 0.2 0.6
, but ||| katikati ya shida , lakini ||| 0.2 0.2 0.6 0.6 0.2 0.2
, but ||| kumi na tisa , lakini ||| 0.2 0.2 0.6 0.6 0.2 0.2
, but ||| mwaka , lakini ||| 0.2 0.2 0.6 0.6 0.2 0.2
, but ||| na tisa , lakini ||| 0.2 0.2 0.6 0.6 0.2 0.2
, but ||| sekta binafsi , lakini ||| 0.2 0.2 0.6 0.6 0.2 0.2
, but ||| shida , lakini ||| 0.2 0.2 0.6 0.6 0.2 0.2
, but ||| tisa , lakini ||| 0.2 0.2 0.6 0.6 0.2 0.2
, but ||| tu , bali ||| 0.6 0.2 0.2 0.2 0.2 0.6
, but ||| tu , lakini ||| 0.6 0.2 0.2 0.6 0.2 0.2
, but ||| utunzaji wa deni , lakini ||| 0.2 0.2 0.6 0.2 0.2 0.6
, but ||| uzalishaji , lakini ||| 0.2 0.2 0.6 0.2 0.2 0.6
, but ||| wa deni , lakini ||| 0.2 0.2 0.6 0.2 0.2 0.6
, but ||| ya kumi na tisa , lakini ||| 0.2 0.2 0.6 0.6 0.2 0.2
, but ||| ya sekta binafsi , lakini ||| 0.2 0.2 0.6 0.6 0.2 0.2
, but ||| ya shida , lakini ||| 0.2 0.2 0.6 0.6 0.2 0.2
, but ||| ya uzalishaji , lakini ||| 0.6 0.2 0.2 0.2 0.2 0.6
, but ||| za afya , lakini ||| 0.2 0.2 0.6 0.6 0.2 0.2
, but ||| za utunzaji wa deni , lakini ||| 0.6 0.2 0.2 0.2 0.2 0.6
, by far ||| kwa sasa ||| 0.2 0.2 0.6 0.6 0.2 0.2
, by ||| , kwa ||| 0.79661 0.0169492 0.186441 0.830508 0.0169492 0.152542
, by ||| , na ||| 0.636364 0.0909091 0.272727 0.818182 0.0909091 0.0909091
, by ||| , ||| 0.6 0.2 0.2 0.2 0.2 0.6
, by ||| kwa ||| 0.2 0.2 0.6 0.6 0.2 0.2
, can be ||| , inaweza ||| 0.6 0.2 0.2 0.6 0.2 0.2
, can ||| , anayeweza ||| 0.6 0.2 0.2 0.6 0.2 0.2
, can ||| , haiwezi kuzuia ||| 0.6 0.2 0.2 0.2 0.2 0.6
, can ||| , haiwezi ||| 0.6 0.2 0.2 0.2 0.2 0.6
, can ||| , hauwezi ||| 0.2 0.2 0.6 0.6 0.2 0.2
, can ||| , inaweza ||| 0.428571 0.142857 0.428571 0.714286 0.142857 0.142857
, can ||| , ni katiba inayoweza ||| 0.6 0.2 0.2 0.6 0.2 0.2
, can ||| , unaweza ||| 0.6 0.2 0.2 0.6 0.2 0.2
, can ||| , wanaweza ||| 0.6 0.2 0.2 0.6 0.2 0.2
, can ||| , yanaweza ||| 0.6 0.2 0.2 0.6 0.2 0.2
, can ||| , zinaweza ||| 0.6 0.2 0.2 0.6 0.2 0.2
, cannot be ||| , hauwezi kupitishwa ||| 0.2 0.2 0.6 0.2 0.2 0.6
, cannot ||| , haiwezi ||| 0.6 0.2 0.2 0.6 0.2 0.2
, cannot ||| , hauwezi ||| 0.2 0.2 0.6 0.6 0.2 0.2
, cannot ||| , hawawezi ||| 0.6 0.2 0.2 0.6 0.2 0.2
, caused ||| , ilisababisha ||| 0.2 0.2 0.6 0.6 0.2 0.2
, causing ||| , na kusababisha ||| 0.142857 0.142857 0.714286 0.142857 0.142857 0.714286
, causing ||| usawa , na kusababisha ||| 0.2 0.2 0.6 0.2 0.2 0.6
, causing ||| ya usawa , na kusababisha ||| 0.2 0.2 0.6 0.2 0.2 0.6
, chairman of ||| , mwenyekiti wa ||| 0.6 0.2 0.2 0.2 0.2 0.6
, chairman ||| , mwenyekiti ||| 0.6 0.2 0.2 0.6 0.2 0.2
, chemical ||| , kemikali ||| 0.6 0.2 0.2 0.6 0.2 0.2
, chose ||| , walichagua ||| 0.6 0.2 0.2 0.2 0.2 0.6
, citizens ||| , raia ||| 0.714286 0.142857 0.142857 0.714286 0.142857 0.142857
, collectively ||| , kwa pamoja ||| 0.428571 0.142857 0.428571 0.714286 0.142857 0.142857
, combined with ||| , pamoja na ||| 0.384615 0.0769231 0.538462 0.692308 0.0769231 0.230769
, combined with ||| Afganistani , pamoja na ||| 0.2 0.2 0.6 0.2 0.2 0.6
, combined with ||| ya Afganistani , pamoja na ||| 0.6 0.2 0.2 0.2 0.2 0.6
, combined ||| , pamoja ||| 0.384615 0.0769231 0.538462 0.846154 0.0769231 0.0769231
, combined ||| Afganistani , pamoja ||| 0.2 0.2 0.6 0.6 0.2 0.2
, combined ||| ya Afganistani , pamoja ||| 0.6 0.2 0.2 0.6 0.2 0.2
, conflicts ||| , migongano ||| 0.2 0.2 0.6 0.6 0.2 0.2
, conflicts ||| , mizozo ||| 0.6 0.2 0.2 0.6 0.2 0.2
, consider ||| , fikiria ||| 0.2 0.2 0.6 0.2 0.2 0.6
, could ||| , angeweza ||| 0.6 0.2 0.2 0.2 0.2 0.6
, could ||| , haukuweza ||| 0.2 0.2 0.6 0.6 0.2 0.2
, could ||| , inaweza ||| 0.6 0.2 0.2 0.6 0.2 0.2
, could ||| , unaweza ||| 0.6 0.2 0.2 0.6 0.2 0.2
, could ||| , zinaweza ||| 0.2 0.2 0.6 0.6 0.2 0.2
, create ||| , kuunda ||| 0.2 0.2 0.6 0.6 0.2 0.2
, creating a ||| , na ||| 0.2 0.2 0.6 0.6 0.2 0.2
, creating ||| , kuunda ||| 0.2 0.2 0.6 0.2 0.2 0.6
, creating ||| , na ikitoa uzalishaji wa ||| 0.2 0.2 0.6 0.2 0.2 0.6
, creating ||| , na ikitoa uzalishaji ||| 0.2 0.2 0.6 0.2 0.2 0.6
, creating ||| , na ikitoa ||| 0.2 0.2 0.6 0.2 0.2 0.6
, creating ||| , na ||| 0.142857 0.142857 0.714286 0.142857 0.142857 0.714286
, criminals ||| , wahalifu ||| 0.6 0.2 0.2 0.6 0.2 0.2
, demand ||| , mahitaji ||| 0.428571 0.142857 0.428571 0.714286 0.142857 0.142857
, demand ||| , zinahitaji ||| 0.6 0.2 0.2 0.2 0.2 0.6
, demand ||| ununuzi , mahitaji ||| 0.2 0.2 0.6 0.6 0.2 0.2
, demand ||| ya ununuzi , mahitaji ||| 0.6 0.2 0.2 0.6 0.2 0.2
, democracy ||| , demokrasia ||| 0.272727 0.0909091 0.636364 0.818182 0.0909091 0.0909091
, despite its ||| , licha ya uwezo wake ||| 0.6 0.2 0.2 0.6 0.2 0.2
, despite the fact that ||| , licha ya ukweli kwamba ||| 0.6 0.2 0.2 0.2 0.2 0.6
, despite the fact ||| , licha ya ukweli ||| 0.6 0.2 0.2 0.6 0.2 0.2
, despite the ||| , licha ya ||| 0.411765 0.0588235 0.529412 0.647059 0.0588235 0.294118
, despite ||| , licha ya uwezo ||| 0.6 0.2 0.2 0.6 0.2 0.2
, despite ||| , licha ya ||| 0.789474 0.0526316 0.157895 0.263158 0.0526316 0.684211
, despite ||| , licha ||| 0.688889 0.0222222 0.288889 0.377778 0.0222222 0.6
, despite ||| nyumba nzuri zaidi , licha ||| 0.2 0.2 0.6 0.2 0.2 0.6
, despite ||| nzuri zaidi , licha ||| 0.2 0.2 0.6 0.2 0.2 0.6
, despite ||| zaidi , licha ||| 0.2 0.2 0.6 0.2 0.2 0.6
, does ||| , hufanya ||| 0.2 0.2 0.6 0.6 0.2 0.2
, does ||| , je ||| 0.6 0.2 0.2 0.6 0.2 0.2
, economic growth ||| , ukuaji wa uchumi ||| 0.6 0.2 0.2 0.6 0.2 0.2
, economic ||| , kiuchumi ||| 0.777778 0.111111 0.111111 0.777778 0.111111 0.111111
, economic ||| , uchumi ||| 0.6 0.2 0.2 0.6 0.2 0.2
, economists ||| , wachumi ||| 0.333333 0.111111 0.555556 0.777778 0.111111 0.111111
, education , ||| , elimu , ||| 0.636364 0.0909091 0.272727 0.818182 0.0909091 0.0909091
, education ||| , elimu ||| 0.636364 0.0909091 0.272727 0.818182 0.0909091 0.0909091
, efforts ||| , juhudi za ||| 0.6 0.2 0.2 0.6 0.2 0.2
, either . ||| , ama . ||| 0.6 0.2 0.2 0.6 0.2 0.2
, either . ||| , hata . ||| 0.333333 0.111111 0.555556 0.777778 0.111111 0.111111
, either ||| , ama ||| 0.538462 0.0769231 0.384615 0.846154 0.0769231 0.0769231
, either ||| , hata ||| 0.333333 0.111111 0.555556 0.777778 0.111111 0.111111
, either ||| , iwe ||| 0.2 0.2 0.6 0.6 0.2 0.2
, either ||| , labda ||| 0.111111 0.111111 0.777778 0.777778 0.111111 0.111111
, energy , and ||| , nishati , na ||| 0.714286 0.142857 0.142857 0.428571 0.142857 0.428571
, energy , ||| , nishati , ||| 0.777778 0.111111 0.111111 0.777778 0.111111 0.111111
, energy ||| , nishati ||| 0.636364 0.0909091 0.272727 0.818182 0.0909091 0.0909091
, especially as ||| , haswa kwani ||| 0.2 0.2 0.6 0.6 0.2 0.2
, especially if ||| , haswa ikiwa ||| 0.2 0.2 0.6 0.6 0.2 0.2
, especially to ||| , haswa ||| 0.2 0.2 0.6 0.6 0.2 0.2
, especially when ||| , haswa wakati ||| 0.6 0.2 0.2 0.6 0.2 0.2
, especially ||| , haswa mahali ||| 0.2 0.2 0.6 0.6 0.2 0.2
, especially ||| , haswa ||| 0.358025 0.0123457 0.62963 0.777778 0.0123457 0.209877
, especially ||| , hususan ||| 0.2 0.2 0.6 0.6 0.2 0.2
, especially ||| juu , haswa ||| 0.2 0.2 0.6 0.2 0.2 0.6
, especially ||| la juu , haswa ||| 0.2 0.2 0.6 0.2 0.2 0.6
, especially ||| soko la juu , haswa ||| 0.2 0.2 0.6 0.2 0.2 0.6
, especially ||| wa soko la juu , haswa ||| 0.6 0.2 0.2 0.2 0.2 0.6
, etc . ||| , nk . ||| 0.142857 0.142857 0.714286 0.714286 0.142857 0.142857
, etc . ||| , nk ||| 0.714286 0.142857 0.142857 0.714286 0.142857 0.142857
, etc . ||| chuo kikuu , nk . ||| 0.2 0.2 0.6 0.6 0.2 0.2
, etc . ||| kikuu , nk . ||| 0.2 0.2 0.6 0.6 0.2 0.2
, etc . ||| ya chuo kikuu , nk . ||| 0.6 0.2 0.2 0.6 0.2 0.2
, etc . – ||| , nk - ||| 0.6 0.2 0.2 0.6 0.2 0.2
, etc ||| , nk ||| 0.333333 0.111111 0.555556 0.555556 0.111111 0.333333
, etc ||| chuo kikuu , nk ||| 0.2 0.2 0.6 0.6 0.2 0.2
, etc ||| kikuu , nk ||| 0.2 0.2 0.6 0.6 0.2 0.2
, etc ||| ya chuo kikuu , nk ||| 0.6 0.2 0.2 0.6 0.2 0.2
, even as ||| , hata kama ||| 0.777778 0.111111 0.111111 0.555556 0.111111 0.333333
, even if some ||| , hata ikiwa wengine ||| 0.6 0.2 0.2 0.6 0.2 0.2
, even if ||| , hata ikiwa ||| 0.6 0.04 0.36 0.68 0.04 0.28
, even if ||| , hata kama ||| 0.647059 0.0588235 0.294118 0.294118 0.0588235 0.647059
, even in ||| , hata huko ||| 0.6 0.2 0.2 0.6 0.2 0.2
, even in ||| , hata katika ||| 0.428571 0.142857 0.428571 0.714286 0.142857 0.142857
, even in ||| , hata walio kwenye ||| 0.2 0.2 0.6 0.2 0.2 0.6
, even the ||| , hata ||| 0.2 0.2 0.6 0.6 0.2 0.2
, even though ||| , hata ikiwa ||| 0.428571 0.142857 0.428571 0.142857 0.142857 0.714286
, even though ||| , hata ingawa ||| 0.6 0.2 0.2 0.6 0.2 0.2
, even though ||| , ingawa ||| 0.333333 0.111111 0.555556 0.111111 0.111111 0.777778
, even ||| , hata walio ||| 0.2 0.2 0.6 0.6 0.2 0.2
, even ||| , hata ||| 0.663866 0.00840336 0.327731 0.882353 0.00840336 0.109244
, even ||| , na hata ||| 0.6 0.2 0.2 0.2 0.2 0.6
, exaggerated ||| , walizidisha ||| 0.6 0.2 0.2 0.2 0.2 0.6
, fast-paced ||| , wa kasi ||| 0.6 0.2 0.2 0.2 0.2 0.6
, fertilizer , ||| , mbolea , ||| 0.111111 0.111111 0.777778 0.333333 0.111111 0.555556
, fertilizer ||| , mbolea ||| 0.111111 0.111111 0.777778 0.777778 0.111111 0.111111
, first ||| , kwanza ||| 0.6 0.2 0.2 0.6 0.2 0.2
, following the ||| , kufuatia ||| 0.6 0.2 0.2 0.6 0.2 0.2
, following ||| , kufuatia uongozi ||| 0.6 0.2 0.2 0.2 0.2 0.6
, following ||| , kufuatia ziara ya ||| 0.6 0.2 0.2 0.2 0.2 0.6
, following ||| , kufuatia ziara ||| 0.6 0.2 0.2 0.2 0.2 0.6
, following ||| , kufuatia ||| 0.733333 0.0666667 0.2 0.2 0.0666667 0.733333
, food , ||| , chakula , ||| 0.6 0.2 0.2 0.6 0.2 0.2
, food ||| , chakula ||| 0.6 0.2 0.2 0.6 0.2 0.2
, for a ||| , kwa ||| 0.2 0.2 0.6 0.2 0.2 0.6
, for example , to ||| , kwa mfano , ||| 0.6 0.2 0.2 0.6 0.2 0.2
, for example , ||| ! kwa mfano , nini ||| 0.6 0.2 0.2 0.6 0.2 0.2
, for example , ||| ! kwa mfano , ||| 0.6 0.2 0.2 0.2 0.2 0.6
, for example , ||| , kwa mfano , ||| 0.650794 0.015873 0.333333 0.84127 0.015873 0.142857
, for example , ||| duni , kwa mfano , ||| 0.6 0.2 0.2 0.6 0.2 0.2
, for example ||| ! kwa mfano ||| 0.6 0.2 0.2 0.6 0.2 0.2
, for example ||| , kwa mfano ||| 0.626667 0.0133333 0.36 0.973333 0.0133333 0.0133333
, for example ||| duni , kwa mfano ||| 0.6 0.2 0.2 0.6 0.2 0.2
, for it ||| , kwa sababu ||| 0.2 0.2 0.6 0.6 0.2 0.2
, for it ||| , kwa ||| 0.2 0.2 0.6 0.2 0.2 0.6
, for the first time , ||| , kwa mara ya kwanza , ||| 0.2 0.2 0.6 0.2 0.2 0.6
, for the first time ||| , kwa mara ya kwanza ||| 0.333333 0.111111 0.555556 0.777778 0.111111 0.111111
, for the ||| , kwa kuwa matokeo ya ||| 0.2 0.2 0.6 0.6 0.2 0.2
, for the ||| , kwa pesa ||| 0.6 0.2 0.2 0.6 0.2 0.2
, for the ||| , kwa ||| 0.692308 0.0769231 0.230769 0.692308 0.0769231 0.230769
, for the ||| Amerika , kwa kuwa matokeo ya ||| 0.2 0.2 0.6 0.6 0.2 0.2
, for ||| ! kwa ||| 0.6 0.2 0.2 0.6 0.2 0.2
, for ||| , kwa kuwa matokeo ||| 0.2 0.2 0.6 0.6 0.2 0.2
, for ||| , kwa kuwa ||| 0.454545 0.0909091 0.454545 0.454545 0.0909091 0.454545
, for ||| , kwa maana ||| 0.2 0.2 0.6 0.6 0.2 0.2
, for ||| , kwa sababu ||| 0.714286 0.142857 0.142857 0.714286 0.142857 0.142857
, for ||| , kwa ||| 0.646409 0.00552486 0.348066 0.624309 0.00552486 0.370166
, for ||| , kwani ||| 0.2 0.2 0.6 0.6 0.2 0.2
, for ||| , ||| 0.538462 0.0769231 0.384615 0.692308 0.0769231 0.230769
, for ||| Amerika , kwa kuwa matokeo ||| 0.2 0.2 0.6 0.6 0.2 0.2
, for ||| Amerika , kwa kuwa ||| 0.2 0.2 0.6 0.2 0.2 0.6
, for ||| Amerika , kwa ||| 0.2 0.2 0.6 0.2 0.2 0.6
, for ||| duni , kwa ||| 0.6 0.2 0.2 0.6 0.2 0.2
, from ||| , kutoka kwa ||| 0.111111 0.111111 0.777778 0.111111 0.111111 0.777778
, from ||| , kutoka ||| 0.371429 0.0285714 0.6 0.657143 0.0285714 0.314286
, from ||| , kwa ||| 0.6 0.2 0.2 0.2 0.2 0.6
, from ||| . , kutoka ||| 0.2 0.2 0.6 0.6 0.2 0.2
, from ||| sera , kutoka ||| 0.2 0.2 0.6 0.2 0.2 0.6
, further ||| , zaidi ||| 0.6 0.2 0.2 0.6 0.2 0.2
, given that ||| , ikizingatiwa kuwa ||| 0.454545 0.0909091 0.454545 0.454545 0.0909091 0.454545
, given that ||| , ikizingatiwa kwamba ||| 0.777778 0.111111 0.111111 0.555556 0.111111 0.333333
, given that ||| , ikizingatiwa uchumi ||| 0.6 0.2 0.2 0.6 0.2 0.2
, given that ||| , ikizingatiwa ||| 0.6 0.2 0.2 0.2 0.2 0.6
, given that ||| , kwa kuwa ||| 0.2 0.2 0.6 0.6 0.2 0.2
, given the ||| , ikizingatiwa ||| 0.2 0.2 0.6 0.2 0.2 0.6
, given the ||| , kwa kuzingatia ||| 0.714286 0.142857 0.142857 0.714286 0.142857 0.142857
, given the ||| , kwa sababu ya ||| 0.6 0.2 0.2 0.2 0.2 0.6
, given the ||| , wakipewa ||| 0.6 0.2 0.2 0.6 0.2 0.2
, given ||| , ikizingatiwa ||| 0.619048 0.047619 0.333333 0.714286 0.047619 0.238095
, given ||| , kutokana na ||| 0.555556 0.111111 0.333333 0.333333 0.111111 0.555556
, given ||| , kutokana ||| 0.777778 0.111111 0.111111 0.111111 0.111111 0.777778
, given ||| , kwa kuzingatia ||| 0.777778 0.111111 0.111111 0.111111 0.111111 0.777778
, given ||| , kwa ||| 0.555556 0.111111 0.333333 0.555556 0.111111 0.333333
, given ||| , ukizingatia ||| 0.6 0.2 0.2 0.2 0.2 0.6
, given ||| , wakipewa ||| 0.6 0.2 0.2 0.2 0.2 0.6
, giving ||| , ikiipa ||| 0.2 0.2 0.6 0.2 0.2 0.6
, giving ||| , ikitoa ||| 0.714286 0.142857 0.142857 0.428571 0.142857 0.428571
, giving ||| , wakiwapa ||| 0.6 0.2 0.2 0.2 0.2 0.6
, growth ||| , ukuaji ||| 0.428571 0.142857 0.428571 0.714286 0.142857 0.142857
, has been ||| , amekuwa ||| 0.6 0.2 0.2 0.2 0.2 0.6
, has been ||| , kimekuwa ||| 0.6 0.2 0.2 0.6 0.2 0.2
, has been ||| , yamekuwa ya ||| 0.6 0.2 0.2 0.6 0.2 0.2
, has been ||| , yamekuwa ||| 0.6 0.2 0.2 0.2 0.2 0.6
, has called ||| , ameita ||| 0.6 0.2 0.2 0.6 0.2 0.2
, has no ||| , haina ||| 0.6 0.2 0.2 0.2 0.2 0.6
, has ||| , ina ||| 0.454545 0.0909091 0.454545 0.272727 0.0909091 0.636364
, has ||| , limekuwa ||| 0.2 0.2 0.6 0.6 0.2 0.2
, has ||| , ||| 0.428571 0.142857 0.428571 0.142857 0.142857 0.714286
, have a ||| , wana ||| 0.2 0.2 0.6 0.6 0.2 0.2
, have ||| , imewatoa ||| 0.2 0.2 0.6 0.6 0.2 0.2
, have ||| , wameanzisha ||| 0.6 0.2 0.2 0.6 0.2 0.2
, have ||| , wametia ||| 0.6 0.2 0.2 0.6 0.2 0.2
, have ||| , wana ||| 0.555556 0.111111 0.333333 0.111111 0.111111 0.777778
, have ||| , yana ||| 0.2 0.2 0.6 0.2 0.2 0.6
, have ||| , zina ||| 0.714286 0.142857 0.142857 0.428571 0.142857 0.428571
, have ||| , ||| 0.6 0.2 0.2 0.6 0.2 0.2
, have ||| raia , yana ||| 0.2 0.2 0.6 0.2 0.2 0.6
, have ||| wa raia , yana ||| 0.2 0.2 0.6 0.2 0.2 0.6
, he was ||| , alikuwa ||| 0.428571 0.142857 0.428571 0.142857 0.142857 0.714286
, he ||| , aliunga ||| 0.6 0.2 0.2 0.6 0.2 0.2
, he ||| , anafuata ||| 0.6 0.2 0.2 0.2 0.2 0.6
, he ||| , yeye ||| 0.333333 0.111111 0.555556 0.777778 0.111111 0.111111
, he ||| , ||| 0.714286 0.142857 0.142857 0.714286 0.142857 0.142857
, his ||| , ||| 0.2 0.2 0.6 0.6 0.2 0.2
, his ||| Shakespearean , ||| 0.6 0.2 0.2 0.6 0.2 0.2
, households ||| , kaya ||| 0.6 0.2 0.2 0.6 0.2 0.2
, however , the ||| , hata hivyo , ||| 0.777778 0.111111 0.111111 0.777778 0.111111 0.111111
, however , the ||| , ||| 0.6 0.2 0.2 0.6 0.2 0.2
, however , ||| , hata hivyo , ||| 0.663866 0.00840336 0.327731 0.764706 0.00840336 0.226891
, however , ||| , hata hivyo afisa ||| 0.6 0.2 0.2 0.2 0.2 0.6
, however , ||| , lakini , ||| 0.6 0.2 0.2 0.6 0.2 0.2
, however , ||| , ||| 0.846154 0.0769231 0.0769231 0.230769 0.0769231 0.692308
, however ||| , hata hivyo ||| 0.669291 0.00787402 0.322835 0.984252 0.00787402 0.00787402
, however ||| , hata ||| 0.2 0.2 0.6 0.6 0.2 0.2
, however ||| , lakini ||| 0.6 0.2 0.2 0.6 0.2 0.2
, however ||| , ||| 0.777778 0.111111 0.111111 0.111111 0.111111 0.777778
, if the ||| , ikiwa ||| 0.714286 0.142857 0.142857 0.714286 0.142857 0.142857
, if the ||| , iwapo mazungumzo ya ||| 0.6 0.2 0.2 0.6 0.2 0.2
, if ||| , ikiwa ni sawa ||| 0.2 0.2 0.6 0.2 0.2 0.6
, if ||| , ikiwa ni ||| 0.2 0.2 0.6 0.2 0.2 0.6
, if ||| , ikiwa ||| 0.604396 0.010989 0.384615 0.692308 0.010989 0.296703
, if ||| , iwapo mazungumzo ||| 0.6 0.2 0.2 0.6 0.2 0.2
, if ||| , iwapo ||| 0.6 0.2 0.2 0.2 0.2 0.6
, immediately ||| , iliyopewa jina la ||| 0.2 0.2 0.6 0.6 0.2 0.2
, immediately ||| , iliyopewa jina ||| 0.2 0.2 0.6 0.2 0.2 0.6
, immediately ||| , iliyopewa ||| 0.2 0.2 0.6 0.2 0.2 0.6
, in addition to the ||| , kwa kuongeza ||| 0.6 0.2 0.2 0.6 0.2 0.2
, in addition to ||| , kwa kuongeza ||| 0.6 0.2 0.2 0.2 0.2 0.6
, in addition to ||| , pamoja na serikali ||| 0.6 0.2 0.2 0.6 0.2 0.2
, in addition to ||| , pamoja na ||| 0.818182 0.0909091 0.0909091 0.454545 0.0909091 0.454545
, in addition ||| , pamoja ||| 0.818182 0.0909091 0.0909091 0.818182 0.0909091 0.0909091
, in an ||| , katika ||| 0.6 0.2 0.2 0.2 0.2 0.6
, in many parts of the world ||| , katika sehemu nyingi za ulimwengu ||| 0.6 0.2 0.2 0.6 0.2 0.2
, in many parts of the ||| , katika sehemu nyingi za ||| 0.6 0.2 0.2 0.6 0.2 0.2
, in many parts of ||| , katika sehemu nyingi za ||| 0.6 0.2 0.2 0.2 0.2 0.6
, in many parts ||| , katika sehemu nyingi ||| 0.6 0.2 0.2 0.6 0.2 0.2
, in order to ||| , ili ||| 0.555556 0.111111 0.333333 0.777778 0.111111 0.111111
, in particular , ||| , haswa , ||| 0.714286 0.142857 0.142857 0.428571 0.142857 0.428571
, in particular ||| , hasa ||| 0.2 0.2 0.6 0.6 0.2 0.2
, in particular ||| , haswa ||| 0.538462 0.0769231 0.384615 0.846154 0.0769231 0.0769231
, in the aftermath of ||| , katika matokeo ya ||| 0.714286 0.142857 0.142857 0.714286 0.142857 0.142857
, in the aftermath ||| , katika matokeo ||| 0.714286 0.142857 0.142857 0.714286 0.142857 0.142857
, in the short run , ||| , kwa muda mfupi , ||| 0.6 0.2 0.2 0.6 0.2 0.2
, in the short run ||| , kwa muda mfupi ||| 0.6 0.2 0.2 0.6 0.2 0.2
, in the ||| , huko ||| 0.6 0.2 0.2 0.6 0.2 0.2
, in the ||| , katika hali ||| 0.6 0.2 0.2 0.2 0.2 0.6
, in the ||| , katika ||| 0.866667 0.0666667 0.0666667 0.733333 0.0666667 0.2
, in the ||| , kutokana ||| 0.6 0.2 0.2 0.2 0.2 0.6
, in the ||| , kwa ||| 0.76 0.04 0.2 0.76 0.04 0.2
, in the ||| , ||| 0.6 0.2 0.2 0.6 0.2 0.2
, in which ||| , ambayo ||| 0.2 0.0666667 0.733333 0.6 0.0666667 0.333333
, in ||| , barani ||| 0.6 0.2 0.2 0.6 0.2 0.2
, in ||| , huko ||| 0.882353 0.0588235 0.0588235 0.529412 0.0588235 0.411765
, in ||| , katika mazingira ya ||| 0.6 0.2 0.2 0.6 0.2 0.2
, in ||| , katika mazingira ||| 0.6 0.2 0.2 0.2 0.2 0.6
, in ||| , katika ||| 0.869919 0.00813008 0.121951 0.317073 0.00813008 0.674797
, in ||| , kutokana ||| 0.6 0.2 0.2 0.2 0.2 0.6
, in ||| , kwa ||| 0.801653 0.00826446 0.190083 0.520661 0.00826446 0.471074
, in ||| , kwenye ||| 0.818182 0.0909091 0.0909091 0.454545 0.0909091 0.454545
, in ||| , mnamo ||| 0.692308 0.0769231 0.230769 0.846154 0.0769231 0.0769231
, in ||| , ||| 0.448276 0.0344828 0.517241 0.862069 0.0344828 0.103448
, in ||| kati , katika ||| 0.2 0.2 0.6 0.2 0.2 0.6
, in ||| katika ||| 0.6 0.2 0.2 0.2 0.2 0.6
, in ||| kueneza , katika ||| 0.2 0.2 0.6 0.2 0.2 0.6
, in ||| maana , katika ||| 0.6 0.2 0.2 0.6 0.2 0.2
, in ||| ya kati , katika ||| 0.6 0.2 0.2 0.2 0.2 0.6
, in ||| ya kueneza , katika ||| 0.6 0.2 0.2 0.2 0.2 0.6
, including a ||| , pamoja na ||| 0.6 0.2 0.2 0.2 0.2 0.6
, including the ||| , pamoja na ||| 0.473684 0.0526316 0.473684 0.894737 0.0526316 0.0526316
, including ||| , ikiwa ni pamoja ||| 0.6 0.2 0.2 0.6 0.2 0.2
, including ||| , pamoja na deni la ||| 0.6 0.2 0.2 0.6 0.2 0.2
, including ||| , pamoja na deni ||| 0.6 0.2 0.2 0.2 0.2 0.6
, including ||| , pamoja na ||| 0.428571 0.00952381 0.561905 0.485714 0.00952381 0.504762
, including ||| , pamoja ||| 0.333333 0.0666667 0.6 0.866667 0.0666667 0.0666667
, including ||| deni , pamoja ||| 0.2 0.2 0.6 0.6 0.2 0.2
, including ||| fulani , pamoja na ||| 0.6 0.2 0.2 0.2 0.2 0.6
, including ||| hicho , pamoja na ||| 0.2 0.2 0.6 0.2 0.2 0.6
, including ||| mawe , pamoja na ||| 0.2 0.2 0.6 0.6 0.2 0.2
, including ||| utunzaji wa deni , pamoja ||| 0.2 0.2 0.6 0.6 0.2 0.2
, including ||| wa deni , pamoja ||| 0.2 0.2 0.6 0.6 0.2 0.2
, including ||| ya mawe , pamoja na ||| 0.2 0.2 0.6 0.6 0.2 0.2
, including ||| ya utunzaji wa deni , pamoja ||| 0.2 0.2 0.6 0.6 0.2 0.2
, increasingly , ||| , unazidi , ||| 0.6 0.2 0.2 0.6 0.2 0.2
, increasingly ||| , unazidi ||| 0.6 0.2 0.2 0.6 0.2 0.2
, indicating ||| , ikionyesha ||| 0.2 0.2 0.6 0.2 0.2 0.6
, individually ||| , kibinafsi ||| 0.6 0.2 0.2 0.6 0.2 0.2
, innovation , ||| , uvumbuzi , ||| 0.2 0.2 0.6 0.6 0.2 0.2
, innovation ||| , uvumbuzi ||| 0.428571 0.142857 0.428571 0.714286 0.142857 0.142857
, investors may ||| , wawekezaji wanaweza ||| 0.2 0.2 0.6 0.6 0.2 0.2
, investors ||| , wawekezaji ||| 0.454545 0.0909091 0.454545 0.818182 0.0909091 0.0909091
, is a ||| , ni ||| 0.818182 0.0909091 0.0909091 0.636364 0.0909091 0.272727
, is not ||| , sio ||| 0.777778 0.111111 0.111111 0.777778 0.111111 0.111111
, is not ||| sio ||| 0.6 0.2 0.2 0.6 0.2 0.2
, is now ||| , sasa ni ||| 0.6 0.2 0.2 0.6 0.2 0.2
, is the ||| , ndio ||| 0.2 0.2 0.6 0.2 0.2 0.6
, is the ||| , ni ||| 0.2 0.2 0.6 0.6 0.2 0.2
, is ||| , anasambaza ||| 0.6 0.2 0.2 0.6 0.2 0.2
, is ||| , haina ||| 0.2 0.2 0.6 0.6 0.2 0.2
, is ||| , haiwezi ||| 0.6 0.2 0.2 0.6 0.2 0.2
, is ||| , iko ||| 0.619048 0.047619 0.333333 0.904762 0.047619 0.047619
, is ||| , inahusishwa ||| 0.2 0.2 0.6 0.6 0.2 0.2
, is ||| , je ! ||| 0.714286 0.142857 0.142857 0.714286 0.142857 0.142857
, is ||| , je ||| 0.714286 0.142857 0.142857 0.142857 0.142857 0.714286
, is ||| , kuna ||| 0.6 0.2 0.2 0.6 0.2 0.2
, is ||| , ndio ||| 0.6 0.2 0.2 0.6 0.2 0.2
, is ||| , ndiyo ||| 0.142857 0.142857 0.714286 0.428571 0.142857 0.428571
, is ||| , ni ||| 0.793103 0.0114943 0.195402 0.54023 0.0114943 0.448276
, is ||| , sio ||| 0.714286 0.142857 0.142857 0.714286 0.142857 0.142857
, is ||| , ||| 0.428571 0.142857 0.428571 0.142857 0.142857 0.714286
, is ||| Uropa , inahusishwa ||| 0.2 0.2 0.6 0.6 0.2 0.2
, is ||| Uropa , ||| 0.2 0.2 0.6 0.2 0.2 0.6
, it could be ||| , inaweza kuwa na ||| 0.6 0.2 0.2 0.6 0.2 0.2
, it could be ||| , inaweza kuwa ||| 0.6 0.2 0.2 0.6 0.2 0.2
, it could ||| , inaweza ||| 0.538462 0.0769231 0.384615 0.846154 0.0769231 0.0769231
, it has strengthened ||| , imeimarisha ||| 0.6 0.2 0.2 0.2 0.2 0.6
, it has ||| , haina ||| 0.2 0.2 0.6 0.2 0.2 0.6
, it has ||| , ina ||| 0.142857 0.142857 0.714286 0.428571 0.142857 0.428571
, it is ||| , iko ||| 0.6 0.2 0.2 0.6 0.2 0.2
, it is ||| , kuna ||| 0.428571 0.142857 0.428571 0.428571 0.142857 0.428571
, it is ||| , ni ||| 0.730337 0.011236 0.258427 0.617978 0.011236 0.370787
, it is ||| kigeni , ni ||| 0.2 0.2 0.6 0.6 0.2 0.2
, it is ||| kwa moja wa kigeni , ni ||| 0.2 0.2 0.6 0.6 0.2 0.2
, it is ||| maisha , ni ||| 0.2 0.2 0.6 0.2 0.2 0.6
, it is ||| moja kwa moja wa kigeni , ni ||| 0.2 0.2 0.6 0.6 0.2 0.2
, it is ||| moja wa kigeni , ni ||| 0.2 0.2 0.6 0.6 0.2 0.2
, it is ||| wa kigeni , ni ||| 0.2 0.2 0.6 0.6 0.2 0.2
, it may be ||| , inaweza kupatikana ||| 0.2 0.2 0.6 0.2 0.2 0.6
, it may ||| , inaweza ||| 0.454545 0.0909091 0.454545 0.636364 0.0909091 0.272727
, it means ||| , inamaanisha ||| 0.2 0.2 0.6 0.6 0.2 0.2
, it will ||| , itakuwa ||| 0.428571 0.142857 0.428571 0.428571 0.142857 0.428571
, it ||| , inawatia ||| 0.2 0.2 0.6 0.6 0.2 0.2
, it ||| , ni ||| 0.777778 0.111111 0.111111 0.555556 0.111111 0.333333
, it ||| , ||| 0.555556 0.111111 0.333333 0.555556 0.111111 0.333333
, it ||| Magharibi , ||| 0.6 0.2 0.2 0.2 0.2 0.6
, it ||| mwingine , inawatia ||| 0.2 0.2 0.6 0.6 0.2 0.2
, its ||| , athari zake ||| 0.6 0.2 0.2 0.6 0.2 0.2
, its ||| , ujinga ||| 0.6 0.2 0.2 0.2 0.2 0.6
, its ||| , ||| 0.2 0.2 0.6 0.2 0.2 0.6
, just as ||| , kama vile ujenzi wa ||| 0.6 0.2 0.2 0.2 0.2 0.6
, just as ||| , kama vile ujenzi ||| 0.6 0.2 0.2 0.2 0.2 0.6
, just as ||| , kama vile ||| 0.466667 0.0666667 0.466667 0.466667 0.0666667 0.466667
, just as ||| , kama ||| 0.2 0.2 0.6 0.2 0.2 0.6
, just as ||| , kwa vile ||| 0.6 0.2 0.2 0.2 0.2 0.6
, just as ||| , kwa ||| 0.6 0.2 0.2 0.6 0.2 0.2
, just as ||| , ||| 0.6 0.2 0.2 0.6 0.2 0.2
, just ||| , ameshinda ||| 0.6 0.2 0.2 0.6 0.2 0.2
, just ||| , kama ||| 0.428571 0.142857 0.428571 0.714286 0.142857 0.142857
, just ||| , kwa ||| 0.714286 0.142857 0.142857 0.428571 0.142857 0.428571
, just ||| , ni ||| 0.6 0.2 0.2 0.2 0.2 0.6
, just ||| , ||| 0.714286 0.142857 0.142857 0.428571 0.142857 0.428571
, labor ||| , kazi ||| 0.714286 0.142857 0.142857 0.714286 0.142857 0.142857
, lack ||| , hauna ||| 0.6 0.2 0.2 0.2 0.2 0.6
, lack ||| , ukosefu ||| 0.777778 0.111111 0.111111 0.777778 0.111111 0.111111
, like the ||| , kama kushuka ||| 0.2 0.2 0.6 0.2 0.2 0.6
, like the ||| , kama ||| 0.764706 0.0588235 0.176471 0.647059 0.0588235 0.294118
, like ||| , kama kushuka ||| 0.2 0.2 0.6 0.2 0.2 0.6
, like ||| , kama urais ||| 0.6 0.2 0.2 0.6 0.2 0.2
, like ||| , kama ||| 0.746479 0.0140845 0.239437 0.549296 0.0140845 0.43662
, like ||| kama ||| 0.714286 0.142857 0.142857 0.428571 0.142857 0.428571
, like ||| kila wakati , kama ||| 0.6 0.2 0.2 0.6 0.2 0.2
, like ||| wakati , kama ||| 0.2 0.2 0.6 0.6 0.2 0.2
, mainly in ||| , haswa katika ||| 0.2 0.2 0.6 0.6 0.2 0.2
, mainly ||| , hasa ||| 0.2 0.2 0.6 0.6 0.2 0.2
, mainly ||| , haswa ||| 0.272727 0.0909091 0.636364 0.818182 0.0909091 0.0909091
, mainly ||| mbali , haswa ||| 0.2 0.2 0.6 0.6 0.2 0.2
, mainly ||| mbali mbali , haswa ||| 0.2 0.2 0.6 0.6 0.2 0.2
, mainly ||| sababu mbali mbali , haswa ||| 0.2 0.2 0.6 0.6 0.2 0.2
, maize ||| , mahindi ||| 0.6 0.2 0.2 0.6 0.2 0.2
, making ||| , ikifanya ||| 0.2 0.2 0.6 0.2 0.2 0.6
, making ||| , na ikifanya ||| 0.2 0.2 0.6 0.6 0.2 0.2
, making ||| , na kufanya ||| 0.142857 0.142857 0.714286 0.714286 0.142857 0.142857
, making ||| , na kuifanya ||| 0.692308 0.0769231 0.230769 0.692308 0.0769231 0.230769
, making ||| mapema , na kuifanya ||| 0.2 0.2 0.6 0.6 0.2 0.2
, making ||| ya mapema , na kuifanya ||| 0.6 0.2 0.2 0.6 0.2 0.2
, many of ||| , mgawanyiko mwingi wa ||| 0.2 0.2 0.6 0.6 0.2 0.2
, many thousands of ||| , maelfu ya ||| 0.6 0.2 0.2 0.6 0.2 0.2
, many thousands ||| , maelfu ||| 0.6 0.2 0.2 0.6 0.2 0.2
, many ||| , nyingi ||| 0.714286 0.142857 0.142857 0.714286 0.142857 0.142857
, many ||| , serikali nyingi ||| 0.6 0.2 0.2 0.2 0.2 0.6
, many ||| , watu wengi ||| 0.6 0.2 0.2 0.6 0.2 0.2
, many ||| , wengi ||| 0.866667 0.0666667 0.0666667 0.866667 0.0666667 0.0666667
, many ||| , ||| 0.6 0.2 0.2 0.6 0.2 0.2
, marking a ||| , kuashiria ||| 0.6 0.2 0.2 0.6 0.2 0.2
, marking ||| , kuashiria ||| 0.6 0.2 0.2 0.2 0.2 0.6
, may ||| , inaweza ||| 0.384615 0.0769231 0.538462 0.846154 0.0769231 0.0769231
, may ||| , kinaweza ||| 0.2 0.2 0.6 0.6 0.2 0.2
, may ||| , wanaweza ||| 0.714286 0.142857 0.142857 0.714286 0.142857 0.142857
, may ||| , zinaweza ||| 0.2 0.2 0.6 0.6 0.2 0.2
, may ||| kila mtu , inaweza ||| 0.6 0.2 0.2 0.6 0.2 0.2
, may ||| mtu , inaweza ||| 0.2 0.2 0.6 0.6 0.2 0.2
, might ||| , inaweza ||| 0.6 0.2 0.2 0.6 0.2 0.2
, might ||| , zinaweza ||| 0.2 0.2 0.6 0.6 0.2 0.2
, might ||| inaweza ||| 0.2 0.2 0.6 0.6 0.2 0.2
, more than half of ||| , zaidi ya nusu ya ||| 0.6 0.2 0.2 0.2 0.2 0.6
, more than half ||| , zaidi ya nusu ||| 0.6 0.2 0.2 0.6 0.2 0.2
, more than ||| , kuliko ||| 0.6 0.2 0.2 0.6 0.2 0.2
, more than ||| , zaidi ya ||| 0.684211 0.0526316 0.263158 0.578947 0.0526316 0.368421
, more ||| , dhoruba ||| 0.6 0.2 0.2 0.6 0.2 0.2
, more ||| , zaidi ya ||| 0.6 0.2 0.2 0.2 0.2 0.6
, more ||| , zaidi ||| 0.636364 0.0909091 0.272727 0.636364 0.0909091 0.272727
, more ||| , ||| 0.555556 0.111111 0.333333 0.555556 0.111111 0.333333
, most of ||| , wengi ||| 0.6 0.2 0.2 0.6 0.2 0.2
, most of ||| , zaidi ya ||| 0.6 0.2 0.2 0.6 0.2 0.2
, most ||| , hivi ||| 0.428571 0.142857 0.428571 0.714286 0.142857 0.142857
, most ||| , wengi ||| 0.555556 0.111111 0.333333 0.333333 0.111111 0.555556
, most ||| , zaidi ||| 0.714286 0.142857 0.142857 0.714286 0.142857 0.142857
, most ||| , ||| 0.777778 0.111111 0.111111 0.555556 0.111111 0.333333
, most ||| cha uwekezaji , wengi ||| 0.2 0.2 0.6 0.2 0.2 0.6
, most ||| hatua , hivi ||| 0.2 0.2 0.6 0.6 0.2 0.2
, most ||| kwa hatua , hivi ||| 0.2 0.2 0.6 0.6 0.2 0.2
, most ||| uwekezaji , wengi ||| 0.2 0.2 0.6 0.2 0.2 0.6
, mostly ||| , haswa ||| 0.6 0.2 0.2 0.6 0.2 0.2
, mostly ||| , mengi ||| 0.6 0.2 0.2 0.6 0.2 0.2
, mostly ||| , wengi wao ni ||| 0.2 0.2 0.6 0.6 0.2 0.2
, mostly ||| , zaidi ||| 0.2 0.2 0.6 0.6 0.2 0.2
, much of the ||| , sehemu kubwa ya ||| 0.6 0.2 0.2 0.6 0.2 0.2
, much of ||| , sehemu kubwa ya ||| 0.714286 0.142857 0.142857 0.428571 0.142857 0.428571
, much ||| , mengi ||| 0.428571 0.142857 0.428571 0.714286 0.142857 0.142857
, much ||| , na ||| 0.6 0.2 0.2 0.6 0.2 0.2
, much ||| , ni ||| 0.6 0.2 0.2 0.6 0.2 0.2
, much ||| , sehemu kubwa ||| 0.714286 0.142857 0.142857 0.714286 0.142857 0.142857
, much ||| , ||| 0.428571 0.142857 0.428571 0.714286 0.142857 0.142857
, must be ||| , lazima ||| 0.6 0.2 0.2 0.6 0.2 0.2
, must ||| , kinapaswa ||| 0.6 0.2 0.2 0.6 0.2 0.2
, must ||| , lazima ||| 0.529412 0.0588235 0.411765 0.882353 0.0588235 0.0588235
, must ||| inayoweza kutekelezwa , lazima ||| 0.2 0.2 0.6 0.6 0.2 0.2
, must ||| kubwa na inayoweza kutekelezwa , lazima ||| 0.6 0.2 0.2 0.6 0.2 0.2
, must ||| kutekelezwa , lazima ||| 0.2 0.2 0.6 0.6 0.2 0.2
, must ||| na inayoweza kutekelezwa , lazima ||| 0.2 0.2 0.6 0.6 0.2 0.2
, neither ||| , hata ||| 0.714286 0.142857 0.142857 0.428571 0.142857 0.428571
, neither ||| , wala ||| 0.6 0.2 0.2 0.2 0.2 0.6
, neither ||| , ||| 0.2 0.2 0.6 0.6 0.2 0.2
, no matter how ||| , bila kujali ||| 0.2 0.2 0.6 0.6 0.2 0.2
, no matter ||| , bila kujali ||| 0.6 0.2 0.2 0.2 0.2 0.6
, no matter ||| , haijalishi ||| 0.428571 0.142857 0.428571 0.428571 0.142857 0.428571
, no ||| , bila ||| 0.555556 0.111111 0.333333 0.777778 0.111111 0.111111
, no ||| , hakuna ||| 0.767442 0.0232558 0.209302 0.581395 0.0232558 0.395349
, not a ||| , sio saa ||| 0.6 0.2 0.2 0.6 0.2 0.2
, not a ||| , sio ||| 0.2 0.2 0.6 0.6 0.2 0.2
, not just in ||| , sio tu ||| 0.2 0.2 0.6 0.2 0.2 0.6
, not just ||| , sio tu ||| 0.555556 0.111111 0.333333 0.555556 0.111111 0.333333
, not least ||| , haswa ||| 0.2 0.2 0.6 0.6 0.2 0.2
, not only ||| , sio tu ||| 0.272727 0.0909091 0.636364 0.636364 0.0909091 0.272727
, not to ||| , sio kufanya ||| 0.2 0.2 0.6 0.6 0.2 0.2
, not to ||| , sio wa ||| 0.6 0.2 0.2 0.6 0.2 0.2
, not to ||| , sio ||| 0.2 0.2 0.6 0.2 0.2 0.6
, not to ||| , wasiwe na ||| 0.6 0.2 0.2 0.6 0.2 0.2
, not ||| , bila ||| 0.714286 0.142857 0.142857 0.714286 0.142857 0.142857
, not ||| , si ||| 0.6 0.2 0.2 0.6 0.2 0.2
, not ||| , sio za ||| 0.6 0.2 0.2 0.6 0.2 0.2
, not ||| , sio ||| 0.561905 0.00952381 0.428571 0.752381 0.00952381 0.238095
, not ||| , wasiwe ||| 0.6 0.2 0.2 0.6 0.2 0.2
, not ||| serikali zilizofuata ||| 0.2 0.2 0.6 0.2 0.2 0.6
, not ||| sio ||| 0.6 0.2 0.2 0.2 0.2 0.6
, not ||| wao , sio ||| 0.6 0.2 0.2 0.6 0.2 0.2
, not ||| zilizofuata ||| 0.2 0.2 0.6 0.2 0.2 0.6
, notably ||| , haswa hali ya ||| 0.2 0.2 0.6 0.2 0.2 0.6
, notably ||| , haswa hali ||| 0.2 0.2 0.6 0.2 0.2 0.6
, notably ||| , haswa ||| 0.44 0.04 0.52 0.52 0.04 0.44
, notably ||| Ulaya , haswa ||| 0.2 0.2 0.6 0.6 0.2 0.2
, notably ||| wa Ulaya , haswa ||| 0.6 0.2 0.2 0.6 0.2 0.2
, now ||| , sasa ||| 0.677419 0.0322581 0.290323 0.677419 0.0322581 0.290323
, now ||| sasa , sasa ||| 0.2 0.2 0.6 0.6 0.2 0.2
, now ||| ya sasa , sasa ||| 0.2 0.2 0.6 0.6 0.2 0.2
, nuclear ||| , kizuizi cha nyuklia ||| 0.6 0.2 0.2 0.6 0.2 0.2
, nuclear ||| , nyuklia ||| 0.714286 0.142857 0.142857 0.714286 0.142857 0.142857
, of course , is ||| , kwa kweli , iko ||| 0.6 0.2 0.2 0.6 0.2 0.2
, of course , is ||| , kwa kweli , ni ||| 0.428571 0.142857 0.428571 0.428571 0.142857 0.428571
, of course , is ||| , kwa kweli , sio ||| 0.6 0.2 0.2 0.6 0.2 0.2
, of course , ||| , bila shaka , ||| 0.6 0.2 0.2 0.6 0.2 0.2
, of course , ||| , kwa kweli , ||| 0.762712 0.0169492 0.220339 0.898305 0.0169492 0.0847458
, of course , ||| , kweli , ||| 0.714286 0.142857 0.142857 0.714286 0.142857 0.142857
, of course , ||| kwa kweli , ||| 0.111111 0.111111 0.777778 0.777778 0.111111 0.111111
, of course , ||| kweli , ||| 0.6 0.2 0.2 0.6 0.2 0.2
, of course , ||| uthibitisho , kwa kweli , ||| 0.2 0.2 0.6 0.6 0.2 0.2
, of course , ||| za uthibitisho , kwa kweli , ||| 0.2 0.2 0.6 0.6 0.2 0.2
, of course ||| , bila shaka ||| 0.6 0.2 0.2 0.6 0.2 0.2
, of course ||| , kwa kweli ||| 0.777778 0.015873 0.206349 0.968254 0.015873 0.015873
, of course ||| , kweli ||| 0.714286 0.142857 0.142857 0.714286 0.142857 0.142857
, of course ||| kwa kweli ||| 0.111111 0.111111 0.777778 0.777778 0.111111 0.111111
, of course ||| kweli ||| 0.6 0.2 0.2 0.6 0.2 0.2
, of course ||| uthibitisho , kwa kweli ||| 0.2 0.2 0.6 0.6 0.2 0.2
, of course ||| za uthibitisho , kwa kweli ||| 0.2 0.2 0.6 0.6 0.2 0.2
, of ||| , bila ||| 0.6 0.2 0.2 0.6 0.2 0.2
, of ||| , kwa ||| 0.761194 0.0149254 0.223881 0.910448 0.0149254 0.0746269
, of ||| , wa ||| 0.454545 0.0909091 0.454545 0.454545 0.0909091 0.454545
, of ||| , ya ||| 0.428571 0.142857 0.428571 0.714286 0.142857 0.142857
, of ||| , ||| 0.777778 0.111111 0.111111 0.777778 0.111111 0.111111
, of ||| uthibitisho , kwa ||| 0.2 0.2 0.6 0.6 0.2 0.2
, of ||| wa kuhoji ||| 0.2 0.2 0.6 0.2 0.6 0.2
, of ||| wa ||| 0.2 0.2 0.6 0.2 0.2 0.6
, of ||| ya ||| 0.2 0.2 0.6 0.2 0.2 0.6
, of ||| za uthibitisho , kwa ||| 0.2 0.2 0.6 0.6 0.2 0.2
, offers the ||| , hutoa ||| 0.6 0.2 0.2 0.6 0.2 0.2
, offers ||| , hutoa ||| 0.6 0.2 0.2 0.2 0.2 0.6
, often ||| , mara nyingi ||| 0.454545 0.0909091 0.454545 0.818182 0.0909091 0.0909091
, on ||| , juu ya ||| 0.6 0.2 0.2 0.6 0.2 0.2
, on ||| , juu ||| 0.777778 0.111111 0.111111 0.555556 0.111111 0.333333
, on ||| , kwa upande ||| 0.636364 0.0909091 0.272727 0.0909091 0.0909091 0.818182
, on ||| , kwa ||| 0.703704 0.037037 0.259259 0.333333 0.037037 0.62963
, on ||| , kwenye ||| 0.714286 0.142857 0.142857 0.428571 0.142857 0.428571
, on ||| , mnamo ||| 0.714286 0.142857 0.142857 0.428571 0.142857 0.428571
, on ||| , ||| 0.6 0.2 0.2 0.6 0.2 0.2
, on ||| dharau , kwa ||| 0.2 0.2 0.6 0.6 0.2 0.2
, one can ||| , mtu anaweza ||| 0.428571 0.142857 0.428571 0.714286 0.142857 0.142857
, one is ||| , mmoja ni ||| 0.2 0.2 0.6 0.2 0.2 0.6
, one might ||| , mtu anaweza ||| 0.6 0.2 0.2 0.6 0.2 0.2
, one of ||| , mmoja wa wasomi wenye ||| 0.6 0.2 0.2 0.2 0.2 0.6
, one of ||| , mmoja wa wasomi ||| 0.6 0.2 0.2 0.2 0.2 0.6
, one of ||| , mmoja wa ||| 0.714286 0.142857 0.142857 0.142857 0.142857 0.714286
, one of ||| , moja ya ||| 0.555556 0.111111 0.333333 0.111111 0.111111 0.777778
, one of ||| , ||| 0.6 0.2 0.2 0.6 0.2 0.2
, one ||| , ambalo ||| 0.6 0.2 0.2 0.2 0.2 0.6
, one ||| , mmoja ||| 0.384615 0.0769231 0.538462 0.846154 0.0769231 0.0769231
, one ||| , moja ||| 0.466667 0.0666667 0.466667 0.866667 0.0666667 0.0666667
, one ||| , mtu anapaswa ||| 0.6 0.2 0.2 0.6 0.2 0.2
, one ||| , mtu ||| 0.6 0.0666667 0.333333 0.733333 0.0666667 0.2
, one ||| , ||| 0.333333 0.0666667 0.6 0.466667 0.0666667 0.466667
, only a ||| , ni ||| 0.6 0.2 0.2 0.2 0.2 0.6
, only one ||| , ni mmoja tu kati ya ||| 0.2 0.2 0.6 0.6 0.2 0.2
, only one ||| , ni mmoja tu kati ||| 0.2 0.2 0.6 0.2 0.2 0.6
, only one ||| , ni mmoja tu ||| 0.2 0.2 0.6 0.2 0.2 0.6
, only to ||| , ili tu ||| 0.2 0.2 0.6 0.6 0.2 0.2
, only ||| , ni ||| 0.636364 0.0909091 0.272727 0.0909091 0.0909091 0.818182
, only ||| , tu ||| 0.428571 0.142857 0.428571 0.714286 0.142857 0.142857
, or a ||| , au ||| 0.714286 0.142857 0.142857 0.142857 0.142857 0.714286
, or by ||| , au kwa ||| 0.142857 0.142857 0.714286 0.714286 0.142857 0.142857
, or is it ||| , au ni ||| 0.6 0.2 0.2 0.6 0.2 0.2
, or that ||| , au kwamba ||| 0.714286 0.142857 0.142857 0.714286 0.142857 0.142857
, or the ||| , au Kanisa ||| 0.6 0.2 0.2 0.6 0.2 0.2
, or the ||| , au ||| 0.555556 0.111111 0.333333 0.777778 0.111111 0.111111
, or ||| , au hoja ||| 0.2 0.2 0.6 0.6 0.2 0.2
, or ||| , au programu ya ||| 0.2 0.2 0.6 0.6 0.2 0.2
, or ||| , au programu ||| 0.2 0.2 0.6 0.2 0.2 0.6
, or ||| , au ||| 0.685393 0.00374532 0.310861 0.782772 0.00374532 0.213483
, or ||| hatari , au ||| 0.2 0.2 0.6 0.6 0.2 0.2
, or ||| juu , au ||| 0.2 0.2 0.6 0.6 0.2 0.2
, or ||| kazi , au ||| 0.2 0.2 0.6 0.2 0.2 0.6
, or ||| la kazi , au ||| 0.2 0.2 0.6 0.2 0.2 0.6
, or ||| miguu , au programu ya ||| 0.2 0.2 0.6 0.6 0.2 0.2
, or ||| miguu , au programu ||| 0.2 0.2 0.6 0.2 0.2 0.6
, or ||| miguu , au ||| 0.2 0.2 0.6 0.2 0.2 0.6
, or ||| msingi , au ||| 0.2 0.2 0.6 0.6 0.2 0.2
, or ||| wa miguu , au programu ya ||| 0.2 0.2 0.6 0.6 0.2 0.2
, or ||| wa miguu , au programu ||| 0.2 0.2 0.6 0.2 0.2 0.6
, or ||| wa miguu , au ||| 0.2 0.2 0.6 0.2 0.2 0.6
, or ||| ya msingi , au ||| 0.6 0.2 0.2 0.6 0.2 0.2
, over the ||| , kwa kipindi ||| 0.6 0.2 0.2 0.6 0.2 0.2
, over ||| , kwa kipindi ||| 0.6 0.2 0.2 0.2 0.2 0.6
, over ||| , kwa ||| 0.6 0.2 0.2 0.6 0.2 0.2
, over ||| , zaidi ya ||| 0.6 0.2 0.2 0.6 0.2 0.2
, over ||| , zaidi ||| 0.6 0.2 0.2 0.2 0.2 0.6
, owing to the ||| , kutokana na ||| 0.777778 0.111111 0.111111 0.555556 0.111111 0.333333
, owing to ||| , kutokana na ||| 0.866667 0.0666667 0.0666667 0.2 0.0666667 0.733333
, owing to ||| , kutokana ||| 0.6 0.2 0.2 0.6 0.2 0.2
, owing to ||| , kwa sababu ya ||| 0.555556 0.111111 0.333333 0.333333 0.111111 0.555556
, owing to ||| , kwa sababu ||| 0.555556 0.111111 0.333333 0.111111 0.111111 0.777778
, owing ||| , kutokana ||| 0.882353 0.0588235 0.0588235 0.764706 0.0588235 0.176471
, particularly in ||| , haswa katika jamii ||| 0.2 0.2 0.6 0.6 0.2 0.2
, particularly in ||| , haswa katika ||| 0.454545 0.0909091 0.454545 0.272727 0.0909091 0.636364
, particularly in ||| , haswa ||| 0.6 0.2 0.2 0.2 0.2 0.6
, particularly ||| , haswa ||| 0.511111 0.0222222 0.466667 0.822222 0.0222222 0.155556
, particularly ||| , ||| 0.6 0.2 0.2 0.2 0.2 0.6
, people ||| , watu ||| 0.878788 0.030303 0.0909091 0.818182 0.030303 0.151515
, perhaps , ||| , labda , ||| 0.714286 0.142857 0.142857 0.714286 0.142857 0.142857
, perhaps in ||| , labda kwa ||| 0.6 0.2 0.2 0.6 0.2 0.2
, perhaps ||| , labda ||| 0.62963 0.037037 0.333333 0.851852 0.037037 0.111111
, perhaps ||| chakula , labda ||| 0.2 0.2 0.6 0.6 0.2 0.2
, perhaps ||| wa chakula , labda ||| 0.2 0.2 0.6 0.6 0.2 0.2
, plus ||| , pamoja ||| 0.428571 0.142857 0.428571 0.428571 0.142857 0.428571
, political , and ||| , kisiasa na ||| 0.428571 0.142857 0.428571 0.714286 0.142857 0.142857
, political , ||| , kisiasa ||| 0.428571 0.142857 0.428571 0.714286 0.142857 0.142857
, political ||| , kisiasa ||| 0.6 0.2 0.2 0.6 0.2 0.2
, probably ||| , labda ||| 0.2 0.2 0.6 0.6 0.2 0.2
, producers ||| , wazalishaji ||| 0.6 0.2 0.2 0.6 0.2 0.2
, prosperity , and ||| , ustawi , na ||| 0.6 0.2 0.2 0.6 0.2 0.2
, prosperity , ||| , ustawi , ||| 0.428571 0.142857 0.428571 0.714286 0.142857 0.142857
, prosperity ||| , ustawi ||| 0.428571 0.142857 0.428571 0.714286 0.142857 0.142857
, provides ||| , hutoa ||| 0.428571 0.142857 0.428571 0.142857 0.142857 0.714286
, rather than the ||| , badala ya ||| 0.428571 0.142857 0.428571 0.428571 0.142857 0.428571
, rather than ||| , badala ya makubaliano ya biashara ya ||| 0.2 0.2 0.6 0.2 0.2 0.6
, rather than ||| , badala ya makubaliano ya biashara ||| 0.2 0.2 0.6 0.2 0.2 0.6
, rather than ||| , badala ya makubaliano ya ||| 0.2 0.2 0.6 0.2 0.2 0.6
, rather than ||| , badala ya makubaliano ||| 0.2 0.2 0.6 0.2 0.2 0.6
, rather than ||| , badala ya ||| 0.511111 0.0222222 0.466667 0.688889 0.0222222 0.288889
, recently ||| , hivi karibuni ||| 0.2 0.2 0.6 0.6 0.2 0.2
, relations between the ||| , mahusiano kati ya nguvu za Baridi ||| 0.6 0.2 0.2 0.2 0.2 0.6
, relations between the ||| , mahusiano kati ya nguvu za ||| 0.6 0.2 0.2 0.2 0.2 0.6
, relations between the ||| , mahusiano kati ya nguvu ||| 0.6 0.2 0.2 0.2 0.2 0.6
, relations between the ||| , mahusiano kati ya ||| 0.6 0.2 0.2 0.2 0.2 0.6
, relations between ||| , mahusiano kati ||| 0.6 0.2 0.2 0.6 0.2 0.2
, relations ||| , mahusiano ||| 0.6 0.2 0.2 0.6 0.2 0.2
, remains ||| , bado ||| 0.6 0.2 0.2 0.6 0.2 0.2
, respectively ||| , mtawaliwa ||| 0.777778 0.111111 0.111111 0.777778 0.111111 0.111111
, responding to ||| , kujibu ||| 0.2 0.2 0.6 0.6 0.2 0.2
, say , ||| , sema , ||| 0.777778 0.037037 0.185185 0.481481 0.037037 0.481481
, say , ||| , wanasema , ||| 0.2 0.2 0.6 0.6 0.2 0.2
, say , ||| kusema , ||| 0.333333 0.111111 0.555556 0.555556 0.111111 0.333333
, say , ||| ya , sema , ||| 0.6 0.2 0.2 0.6 0.2 0.2
, say ||| , sema ||| 0.724138 0.0344828 0.241379 0.931034 0.0344828 0.0344828
, say ||| , wanasema ||| 0.2 0.2 0.6 0.6 0.2 0.2
, say ||| kusema ||| 0.333333 0.111111 0.555556 0.777778 0.111111 0.111111
, say ||| ya , sema ||| 0.6 0.2 0.2 0.6 0.2 0.2
, science , and ||| , sayansi , na ||| 0.2 0.2 0.6 0.6 0.2 0.2
, science , ||| , sayansi , ||| 0.2 0.2 0.6 0.6 0.2 0.2
, science ||| , sayansi ||| 0.2 0.2 0.6 0.6 0.2 0.2
, scientists ||| , wanasayansi ||| 0.6 0.2 0.2 0.6 0.2 0.2
, security , ||| , usalama , ||| 0.333333 0.111111 0.555556 0.777778 0.111111 0.111111
, security , ||| kawaida , usalama , ||| 0.2 0.2 0.6 0.6 0.2 0.2
, security , ||| wa kawaida , usalama , ||| 0.2 0.2 0.6 0.6 0.2 0.2
, security ||| , usalama ||| 0.454545 0.0909091 0.454545 0.818182 0.0909091 0.0909091
, security ||| kawaida , usalama ||| 0.2 0.2 0.6 0.6 0.2 0.2
, security ||| wa kawaida , usalama ||| 0.2 0.2 0.6 0.6 0.2 0.2
, seems ||| , inaonekana ||| 0.6 0.2 0.2 0.6 0.2 0.2
, several ||| , serikali kadhaa ||| 0.6 0.2 0.2 0.6 0.2 0.2
, should ||| , anapaswa ||| 0.6 0.2 0.2 0.6 0.2 0.2
, should ||| , inapaswa ||| 0.529412 0.0588235 0.411765 0.882353 0.0588235 0.0588235
, should ||| , je ! unapaswa ||| 0.2 0.2 0.6 0.6 0.2 0.2
, should ||| , je , ||| 0.6 0.2 0.2 0.6 0.2 0.2
, should ||| , je ||| 0.6 0.2 0.2 0.2 0.2 0.6
, should ||| , unaoweza ||| 0.6 0.2 0.2 0.6 0.2 0.2
, should ||| , wanapaswa ||| 0.2 0.2 0.6 0.6 0.2 0.2
, since ||| , kwa kuwa ||| 0.714286 0.142857 0.142857 0.142857 0.142857 0.714286
, since ||| , kwani kodi ||| 0.6 0.2 0.2 0.6 0.2 0.2
, since ||| , kwani ||| 0.636364 0.0909091 0.272727 0.636364 0.0909091 0.272727
, since ||| , tangu ||| 0.6 0.2 0.2 0.6 0.2 0.2
, so that ||| , ili ||| 0.454545 0.0909091 0.454545 0.636364 0.0909091 0.272727
, so the ||| , kwa hivyo ||| 0.428571 0.142857 0.428571 0.714286 0.142857 0.142857
, so the ||| deni , kwa hivyo ||| 0.2 0.2 0.6 0.6 0.2 0.2
, so the ||| malipo ya deni , kwa hivyo ||| 0.2 0.2 0.6 0.6 0.2 0.2
, so the ||| ya deni , kwa hivyo ||| 0.2 0.2 0.6 0.6 0.2 0.2
, so the ||| ya malipo ya deni , kwa hivyo ||| 0.2 0.2 0.6 0.6 0.2 0.2
, so ||| , hadi ||| 0.2 0.2 0.6 0.6 0.2 0.2
, so ||| , hivyo ||| 0.2 0.2 0.6 0.2 0.2 0.6
, so ||| , ili ||| 0.111111 0.111111 0.777778 0.555556 0.111111 0.333333
, so ||| , kwa hivyo msimamo ||| 0.2 0.2 0.6 0.6 0.2 0.2
, so ||| , kwa hivyo waanzilishi ||| 0.6 0.2 0.2 0.6 0.2 0.2
, so ||| , kwa hivyo ||| 0.735849 0.0188679 0.245283 0.660377 0.0188679 0.320755
, so ||| , kwa ||| 0.2 0.2 0.6 0.2 0.2 0.6
, so ||| , ndivyo pia ||| 0.6 0.2 0.2 0.6 0.2 0.2
, so ||| , ndivyo ||| 0.428571 0.142857 0.428571 0.428571 0.142857 0.428571
, so ||| , vivyo hivyo ||| 0.428571 0.142857 0.428571 0.714286 0.142857 0.142857
, so ||| , ||| 0.2 0.2 0.6 0.6 0.2 0.2
, so ||| deni , kwa hivyo ||| 0.2 0.2 0.6 0.2 0.2 0.6
, so ||| malipo ya deni , kwa hivyo ||| 0.2 0.2 0.6 0.2 0.2 0.6
, so ||| ndani , kwa hivyo ||| 0.2 0.2 0.6 0.2 0.2 0.6
, so ||| ya deni , kwa hivyo ||| 0.2 0.2 0.6 0.2 0.2 0.6
, so ||| ya malipo ya deni , kwa hivyo ||| 0.2 0.2 0.6 0.2 0.2 0.6
, so ||| ya ndani , kwa hivyo ||| 0.2 0.2 0.6 0.2 0.2 0.6
, social , and ||| , kijamii na ||| 0.6 0.2 0.2 0.6 0.2 0.2
, social , ||| , kijamii ||| 0.6 0.2 0.2 0.6 0.2 0.2
, social ||| , kijamii ||| 0.6 0.2 0.2 0.2 0.2 0.6
, some ||| , maoni mengine mazuri ||| 0.6 0.2 0.2 0.2 0.2 0.6
, some ||| , maoni mengine ||| 0.6 0.2 0.2 0.2 0.2 0.6
, some ||| , wengine ||| 0.733333 0.0666667 0.2 0.866667 0.0666667 0.0666667
, some ||| , zingine ||| 0.714286 0.142857 0.142857 0.428571 0.142857 0.428571
, something ||| , jambo ||| 0.6 0.2 0.2 0.2 0.2 0.6
, something ||| , kitu ||| 0.142857 0.142857 0.714286 0.714286 0.142857 0.142857
, sooner or later ||| , mapema ||| 0.6 0.2 0.2 0.6 0.2 0.2
, sooner or ||| , mapema ||| 0.6 0.2 0.2 0.2 0.2 0.6
